{"poolingType":"max","stride":{"x":2,"y":2},"padding":{"x":0,"y":0},"layerIndex":2,"layerType":"subsamplingLayer","mapSize":{"x":12,"y":12},"mapNumber":4,"kernelSize":{"x":2,"y":2},"maps":[[[0.9948131360357649,0.9948131360357649,0.9948131360357649,0.9948131360357649,0.9948131360357649,0.9948131360357649,0.9948131360357649,0.9948131360357649,0.9948131360357649,0.9948131360357649,0.9948131360357649,0.9948131360357649],[0.9948131360357649,0.9948131360357649,0.9948131360357649,0.9948131360357649,0.9948131360357649,0.9948131360357649,0.9974064178803217,0.9999321430148843,0.9997822558635627,0.7489580730240455,0.7043575359807901,0.9948131360357649],[0.9948131360357649,0.9948131360357649,0.9948131360357649,0.9948131360357649,0.9961097093054413,0.9999998464863302,0.931680751425063,0.49999996111423517,1.4007968044446947E-4,5.583565354889171E-11,5.835927189208165E-13,0.9948131360357649],[0.9948131360357649,0.9948131360357649,0.9948131360357649,0.9987029952771868,0.9999999919192317,0.49040804077016215,4.050668547993471E-16,2.07542987985016E-25,9.915805061062913E-10,2.0132576201059332E-5,2.075945370665599E-12,0.9948131360357649],[0.9948131360357649,0.9948131360357649,0.9987029952771868,0.7603994718516616,0.24966971082341918,3.890155782940757E-35,3.1198204863448224E-7,0.514088256350242,0.1492230693729573,1.020809030760762E-4,2.075955279561888E-12,0.9948131360357649],[0.9948131360357649,0.9987029952771868,0.7500011376660511,0.01039952227629526,1.575569476563827E-27,0.24999973872367945,0.9999998705790223,0.9999999612321466,1.4418505321501517E-5,2.002764420843394E-6,3.247252928261959E-11,0.9948131360357649],[0.9987029952771868,0.7603994718516616,1.1880906848885456E-6,3.776471569676048E-26,0.25026987344956975,0.9964262122753904,0.4999996599231266,5.167270481427088E-12,4.63692358694303E-29,8.468370138301618E-15,0.25090014161797325,0.9948131360357649],[0.7500001244164394,3.577834865746441E-4,4.8941212007301654E-26,0.01112379064457679,0.9999881582881608,0.0027959941595257953,1.4913999759135758E-18,1.28598043586967E-24,1.3453357480854745E-11,2.9013145625562594E-11,0.7598125305891297,0.9948131360357649],[7.214293683700401E-14,1.1436935384155906E-24,0.25026987344956975,0.7508197975952697,0.997389383034007,8.99214442324209E-5,1.9882569751813965E-10,1.896614655026025E-22,1.876650500508052E-7,0.26111987940902814,0.9960992192269972,0.9948131360357649],[0.24582154787091962,0.5703472560556909,0.9986915850184844,0.9960992192269972,0.49742951393803764,5.6578820502690606E-11,1.0017528763502564E-9,1.5872881648865781E-25,8.346428416148489E-4,0.7598125305891297,0.9948131360357649,0.9948131360357649],[0.9973162378018197,0.9973951064930852,0.9948131360357649,0.9948131360357649,0.49740657775839875,4.724356517019634E-13,1.330338938000015E-13,0.001069505951385995,0.749997519831648,0.9960992192269972,0.9948131360357649,0.9948131360357649],[0.9948131360357649,0.9948131360357649,0.9948131360357649,0.9948131360357649,0.9612640546969783,0.4647116523034722,0.7508038319833505,0.9999849327743626,0.9960992192269972,0.9948131360357649,0.9948131360357649,0.9948131360357649]],[[0.0028811209891645745,0.0028811209891645745,0.0028811209891645745,0.0028811209891645745,0.0028811209891645745,0.0028811209891645745,0.0028811209891645745,0.0028811209891645745,0.0028811209891645745,0.0028811209891645745,0.0028811209891645745,0.0028811209891645745],[0.0028811209891645745,0.0028811209891645745,0.0028811209891645745,0.0028811209891645745,0.0028811209891645745,0.0028811209891645745,0.5011032659842835,0.7660899854603787,0.4505566820936656,0.030875362148206947,5.709341244194593E-5,0.0028811209891645745],[0.0028811209891645745,0.0028811209891645745,0.0028811209891645745,0.0028811209891645745,0.2518368772555653,0.9996626444462111,0.7499993189423904,0.24998780787903183,8.190633409977369E-9,6.572776896373552E-16,0.011784907237196635,0.0028811209891645745],[0.0028811209891645745,0.0028811209891645745,0.0028811209891645745,0.7500722930895307,0.9999860222798075,0.2500997650780041,2.731898734322389E-21,1.7254603222864335E-19,3.8114782554481505E-4,1.7703415888071865E-18,0.4956272935274789,0.0028811209891645745],[0.0028811209891645745,0.0028811209891645745,0.7500722930895307,0.987872033181391,0.001878858818899023,4.39504979216027E-28,9.408999146922078E-6,0.4652987843923958,0.4999839064532518,7.432537783657333E-21,0.4956272935311494,0.0028811209891645745],[0.0028811209891645745,0.7500722930895307,0.7500183220260525,0.2378720934399652,6.700146049036793E-26,0.26418794335837625,0.9999881390354974,0.5079487722103432,0.24872646628873493,8.31352091559522E-26,0.497697425096306,0.0028811209891645745],[0.7500722930895307,0.987872033181391,1.838228462659303E-5,3.4832559671792476E-20,0.16733671045767762,0.9999999998551605,0.2504770091457393,5.194203140635244E-16,1.8687406415077513E-11,2.2314018569926367E-17,0.7538775287338537,0.0028811209891645745],[0.749999981506158,0.12708827184859572,4.157167743361097E-25,0.25105416299173444,0.9173930300868793,0.5012350198416963,7.536492839309897E-18,1.2387612348815729E-4,2.103654764357333E-14,0.2491046587011081,0.7178852747783473,0.0028811209891645745],[1.7352014495293055E-9,6.607404472144504E-19,0.16733671045767762,0.9669945004458558,0.5014390334569719,0.4997873468776821,6.972028948117485E-21,2.776352260720227E-10,7.889040135853862E-20,0.7489240053653592,0.21946331475733605,0.0028811209891645745],[1.2966130258875687E-11,0.4224094904210584,0.6684372738204786,0.21946331475733605,0.25715502174199095,1.994976547010714E-4,2.525420386803877E-22,7.756636121957015E-23,0.24996532879993302,0.7178852747783473,0.0028811209891645745,0.0028811209891645745],[0.0014464250709156168,0.43453783100497323,0.0028811209891645745,0.0028811209891645745,0.0014681197700438715,1.643920140198505E-14,3.0561657825651204E-21,0.24596847602391636,0.7234819982784668,0.21946331475733605,0.0028811209891645745,0.0028811209891645745],[0.0028811209891645745,0.0028811209891645745,0.0028811209891645745,0.0028811209891645745,0.0022772102195693983,1.1641967203720045E-4,5.8943989100869195E-6,0.8491598811941237,0.21946331475733605,0.0028811209891645745,0.0028811209891645745,0.0028811209891645745]],[[6.405580472482149E-7,6.405580472482149E-7,6.405580472482149E-7,6.405580472482149E-7,6.405580472482149E-7,6.405580472482149E-7,6.405580472482149E-7,6.405580472482149E-7,6.405580472482149E-7,6.405580472482149E-7,6.405580472482149E-7,6.405580472482149E-7],[6.405580472482149E-7,6.405580472482149E-7,6.405580472482149E-7,6.405580472482149E-7,6.405580472482149E-7,6.405580472482149E-7,0.011333358570007286,0.009257240216806066,0.02728870897900664,0.002639759557031511,0.24566396182639183,6.405580472482149E-7],[6.405580472482149E-7,6.405580472482149E-7,6.405580472482149E-7,6.405580472482149E-7,0.007204350240825129,0.2613355605675106,0.0020536004726531844,4.971908627842565E-4,0.1508553406583984,3.286398223188776E-17,0.585193453347278,6.405580472482149E-7],[6.405580472482149E-7,6.405580472482149E-7,6.405580472482149E-7,0.2643921801569238,0.00620070705002553,0.21865018571291778,2.2755739754433583E-11,1.1024418039955212E-7,0.9553154647986235,8.036288487513858E-31,0.9981184836143326,6.405580472482149E-7],[6.405580472482149E-7,6.405580472482149E-7,0.2643921801569238,0.7487886047531106,7.098048849240187E-14,4.224863676455491E-4,0.0071088629896032245,0.6383874914913069,0.9999999999905591,1.8956339644618291E-38,0.9999999958456296,6.405580472482149E-7],[6.405580472482149E-7,0.2643921801569238,0.7487884780144735,1.2674436448313934E-7,8.692915795969618E-14,0.5000479686945134,0.32170390521450537,4.087769746496819E-5,0.7804343673553497,1.658717313374242E-30,0.9999999978769865,6.405580472482149E-7],[0.2643921801569238,0.7487886047531106,2.7362375860517977E-12,2.9552476733560542E-6,2.680554458810993E-5,0.9999999999979154,1.0165339413094382E-6,0.16131057103341226,0.5000000158772298,1.7666517918667586E-8,0.9995502049069354,6.405580472482149E-7],[0.22059248841565582,0.0036756191781450002,1.607457073344646E-18,0.7487952765048392,0.13458258373880508,0.9999839929388532,2.227295975356943E-20,0.7499988561121185,0.010653433720333689,0.499999962994663,0.5917835728325905,6.405580472482149E-7],[2.5362702231540383E-15,1.5253045549049065E-10,2.680554458810993E-5,0.8401214367454674,0.49999142241704075,0.5000382347129536,5.979534271439623E-16,0.6996252127173759,1.8615082671077007E-11,0.9710038156116714,0.0922337298872819,6.405580472482149E-7],[7.182101699316265E-18,0.3342381648079982,0.1273788740560272,0.0922337298872819,0.5000003202790184,0.4999999999938755,3.537961679146257E-16,0.21758320170620762,0.2500634293567457,0.5917835728325905,6.405580472482149E-7,6.405580472482149E-7],[3.2028111191688777E-7,0.12628317161826266,6.405580472482149E-7,6.405580472482149E-7,0.4874285033381213,0.4999750749802206,3.529033979248748E-17,0.18765177281523843,0.588914892113624,0.0922337298872819,6.405580472482149E-7,6.405580472482149E-7],[6.405580472482149E-7,6.405580472482149E-7,6.405580472482149E-7,6.405580472482149E-7,0.008370679368188054,0.20141050090177773,2.0897783232562567E-12,0.3746500137326832,0.0922337298872819,6.405580472482149E-7,6.405580472482149E-7,6.405580472482149E-7]],[[0.9854302075289344,0.9854302075289344,0.9854302075289344,0.9854302075289344,0.9854302075289344,0.9854302075289344,0.9854302075289344,0.9854302075289344,0.9854302075289344,0.9854302075289344,0.9854302075289344,0.9854302075289344],[0.9854302075289344,0.9854302075289344,0.9854302075289344,0.9854302075289344,0.9854302075289344,0.9854302075289344,0.4949692555872632,0.0022541963064829557,0.35934239117261263,0.38823272934969494,0.9999933940322225,0.9854302075289344],[0.9854302075289344,0.9854302075289344,0.9854302075289344,0.9854302075289344,0.7413268074635119,0.002254151848327386,4.80152997400234E-13,3.4820463219075154E-8,2.79266373933356E-11,0.18351294526870293,0.9999999411478323,0.9854302075289344],[0.9854302075289344,0.9854302075289344,0.9854302075289344,0.25086585554138713,6.452223548656321E-12,9.659314306142723E-14,8.679110553443081E-6,2.7793717002322738E-9,8.34119293492604E-16,3.712776981845451E-19,0.9999983777644423,0.9854302075289344],[0.9854302075289344,0.9854302075289344,0.25086585554138713,2.553161518928693E-11,1.1754253017127493E-8,3.9169997609764067E-4,1.6268857182783224E-10,1.390415381678854E-4,0.2499881095253798,3.409974796345761E-25,0.9999971287083573,0.9854302075289344],[0.9854302075289344,0.25086585554138713,2.553199492814276E-11,3.954956570128607E-7,1.5460916890724514E-9,1.2730860532721561E-8,8.791548698522812E-17,0.2727091818709059,0.2648432898442358,1.4685650077786312E-19,0.9987401315437776,0.9854302075289344],[0.25086585554138713,2.553161518928693E-11,9.422691131730874E-8,2.658685499350772E-6,1.1311970423695135E-12,3.0436604043879983E-5,1.2236135988965392E-18,0.016119350798858328,5.304658534177754E-8,1.1868266074173466E-13,0.7521482028286643,0.9854302075289344],[5.589454881785342E-13,1.6600382038956052E-6,8.927921961054176E-12,0.012677892673227758,0.22098417234555282,0.23874486376967471,6.050460412909277E-18,1.8112290502135365E-23,3.329113345348905E-15,0.007983217191402653,0.7247008086697377,0.9854302075289344],[6.479006100662815E-11,1.9943844526096132E-5,1.1311970423695135E-12,0.4692913164693122,0.6370873238153525,1.0126037359654641E-9,9.442791975044075E-22,5.887512867677299E-11,2.2178831399851335E-13,0.2677364499509095,0.9576636486960604,0.9854302075289344],[2.3841566657307327E-12,0.001676680953490294,0.46508757241097537,0.9576636486960604,0.9914935692715372,6.916226709613637E-8,2.6177941519089145E-28,1.9775421622761962E-4,0.0019492700471837041,0.7247008086697377,0.9854302075289344,0.9854302075289344],[0.4927160773188395,0.7114451242855192,0.9854302075289344,0.9854302075289344,0.9927150812855827,0.49906550036639563,6.306364238953997E-22,1.9402835412631556E-11,0.22194435481481015,0.9576636486960604,0.9854302075289344,0.9854302075289344],[0.9854302075289344,0.9854302075289344,0.9854302075289344,0.9854302075289344,0.989068882523728,0.7579640812871536,9.73554372485217E-7,0.22040670136141985,0.9576636486960604,0.9854302075289344,0.9854302075289344,0.9854302075289344]]],"errors":[[[1.3257119112003368E-8,2.077984746234636E-8,1.5872119770856822E-8,1.573805301048309E-7,1.5158584898405257E-7,-3.8123837185753193E-6,-3.3122352909428046E-5,-3.422533196412308E-4,3.019734808042466E-5,6.291616881040303E-4,9.761496216644445E-4,1.1471941278439873E-4],[6.569114564372417E-9,1.6463740777379075E-9,-6.570363487807962E-6,-3.937503359528933E-4,6.14618846553044E-5,3.505452447894166E-4,2.6140145344533795E-4,-2.0423466098715138E-4,5.561208536534063E-4,0.0019025688555193653,0.0018136154440294909,7.699235175968583E-4],[-7.177610888710132E-10,-7.147574287751194E-6,-3.6171846447048964E-5,6.43720653011056E-4,5.560227914690338E-5,-0.0014336206493472318,1.4478091645896441E-4,-0.001130457339637528,-8.830271126859438E-4,0.0020291259583248115,0.0032985684827601222,8.256257049376808E-4],[-2.6354892689717664E-5,1.0234826057573226E-5,3.9728173979643183E-4,0.001478654212834537,-0.001947397631641751,-0.0037161185840410243,-0.001502844395609436,-0.0030895786629955447,-0.001977150900731919,4.3191536078097503E-4,0.002892000835086684,-6.44534085258553E-4],[8.025954381340423E-5,-5.226251041383837E-5,2.0757648697894917E-4,0.0029557827820394815,2.034570774039707E-4,-0.0020853849616270107,-0.0018911032527451949,-0.001128044441281242,-0.001554487020460891,-0.0014109357905592924,0.00230508499527387,6.622268680287856E-4],[2.402274466849815E-5,0.0012724476109699822,0.002871852615836781,-9.884963077620216E-5,-0.0027556165502772836,-0.002433961119056017,-0.005471096271374079,-0.006205292388416633,-0.0037344874277107556,-0.0038526906320974583,8.709551944244134E-4,2.647247937896329E-4],[-3.694495904010677E-4,-0.00199393874855964,-0.002015741460119919,-0.004845704170773578,-0.0036699191597196635,-0.003555927436182187,-0.01104802595978195,-0.008916662963950155,-0.006933808591764838,-0.00521929131119653,9.441516426339164E-4,8.941299677358397E-4],[-1.134814843222219E-4,-4.8779468537601874E-4,0.004868574277849786,0.003344062297404553,0.0015612089298403919,-0.005149042372561508,-0.008040968973453756,-0.009545277923371525,-0.007756354296030422,-0.0028620986372169597,-7.632957513056985E-4,1.0622379656840914E-4],[3.953758983334009E-4,0.0013338996524086576,0.004916471459039228,0.00444208527370783,0.002062280540746101,-0.006280386945346513,-0.005330969898538439,-0.00983471052422309,-0.0073686634111804926,9.316168575566208E-5,-2.4299882591819323E-5,0.001577805863437302],[-4.092920323084009E-4,-0.00152464693787116,-0.003869884106501531,2.677714853514127E-4,-0.0014524541291345834,-0.004751350050898988,-8.465548958794438E-4,-0.005464010304845716,-0.0026625151450102406,0.0010525375250827844,7.337182691814634E-5,1.1041992888317125E-5],[-1.2153187119992558E-4,-5.787192094802147E-4,-0.0012111978431309533,-0.00145529868341782,-0.0017017955887278673,0.001146367370248549,2.9153161856833114E-4,-0.0022579018572378147,1.496728865544668E-4,1.2212910695223522E-4,3.2688230752466135E-4,2.4888611930024176E-9],[-4.622818656746623E-6,1.9551977605733978E-5,-1.1319994875381626E-5,-3.866593177479228E-6,-2.588771635150266E-4,3.96295314572892E-4,4.182084412288403E-4,-1.6337394417612844E-4,2.302608897433854E-4,-5.1566722980916595E-8,-1.1634863578496021E-7,1.947435113479068E-9]],[[9.711272616106736E-9,1.1172803261444808E-8,-8.012729989445323E-9,8.087929564519892E-8,-1.7399429129869824E-7,-4.917828030007308E-6,6.409111830833337E-6,3.619833597775322E-4,6.154753831008671E-4,8.506806829848672E-4,1.6524336593243796E-5,1.0940319912693514E-4],[6.9056028886893175E-9,3.213988246243657E-9,-7.772856622106758E-6,-4.942189841153921E-4,-0.0018019927331143124,-0.002265740760237688,3.6722329042015794E-4,0.0026638059543304493,7.454965233098034E-4,9.250221506103705E-4,0.0010714121678649109,4.441971254982889E-4],[-1.2529055451644612E-9,-8.410596609957298E-6,-7.348189319568919E-5,5.745021034298191E-4,-4.706579481593151E-4,-0.0021727853482268983,6.454316162934292E-4,0.0012617936060032445,-2.834677644713764E-4,0.0013502150025401954,0.002184308696146475,7.820172051751817E-4],[-2.7509307867825722E-5,-4.616500131475146E-5,3.053117640019224E-4,0.0020687817795940608,-5.681721527078286E-4,-0.0038466173439389005,-0.0020557034172580322,-8.494538263569046E-4,2.3187884671072132E-4,0.0011738010601021111,5.441516389454965E-4,9.517028864163848E-5],[6.930489835273977E-5,-1.0925929193825795E-5,8.983916587433866E-4,0.003633958668513062,1.7449817504130362E-4,-0.002165265213477633,-0.0034566915894769542,-0.004367039483896457,-0.002586703368910612,-7.363735396254011E-4,0.0013568854630741107,0.0026687601320032213],[1.034171343974901E-4,9.124068160693128E-4,-1.2508326760562698E-4,-0.0011698404890585546,-0.0038375567131719367,-0.0011938455802007243,-0.0037972676849819254,-0.006076116837460506,-8.652859037449156E-4,3.5187196597733476E-4,-2.2430235323899107E-4,-2.4955144619406865E-4],[-3.6564388237835996E-4,-9.930415148898188E-4,-8.942436281910179E-4,-8.979398468346022E-4,-1.7864371796539002E-4,0.0018362660304482438,-0.008380446950888819,-0.008021800278672244,-0.0028575789471103393,-7.939201266164404E-4,1.8519275910883356E-4,-4.5264458841685033E-4],[-4.005266811304112E-5,-5.281236908700814E-4,0.0017681085362025865,0.0020158186260717122,9.176051428663711E-4,3.989916118933944E-4,-0.0034051269862271365,-0.005883234112440867,-0.003716022853114673,3.157263656646087E-4,-7.740848694873436E-4,-4.794466848001249E-4],[4.468144004661872E-4,7.127399723031666E-4,0.003878210953006264,0.0036178703844795598,0.003027745481846737,-0.0029997833395362444,-0.0026835850541559827,-0.005493710807884657,-0.004697368208760981,-0.0012177082426109514,-8.218142784253148E-4,1.5283993331571553E-4],[-5.360602424246947E-4,-7.269944580311754E-4,0.0032991511599261697,0.0037871370667817384,0.0024736611275288116,-0.00108037830150438,-0.0025152908724590706,-0.004067666853180765,-0.0023244209655677774,-7.931002131566437E-4,-3.526799032102524E-4,1.1578835188434505E-6],[-4.396338154641489E-4,-0.0017147084348464292,-0.0014022637447268541,-6.458344657714937E-4,7.838067780751805E-4,0.0019103951817577025,8.726143926161574E-4,-5.992705113315683E-4,1.4827611576654043E-4,-2.3662478776934553E-4,5.9040851786758345E-5,-1.5889686582734706E-7],[-3.1859960224874317E-6,-2.1477800424899404E-5,-2.8556771345337438E-5,-8.796490852339967E-6,3.998459238711077E-4,4.417112377664015E-4,2.4550711605699383E-4,-2.6502055656667917E-4,-2.732621611580344E-4,3.9906769686151567E-7,-1.1734195084146079E-7,-2.2032716900312165E-7]],[[-6.755589953177164E-9,-2.4455953622100244E-8,-3.693414692968122E-8,-8.252363813418724E-8,-1.2749410820603043E-7,-6.700241413230597E-6,-3.573393974783308E-5,-7.186163832946074E-5,8.794439223812649E-4,1.0531193293852888E-5,-0.001053160604922503,1.0960941679315153E-4],[-1.2313587618740135E-8,-2.622831941458765E-8,-1.1413631355928901E-5,-7.151062241197609E-4,-0.0022932800084904813,-0.0017991256838703754,6.633776726697384E-4,0.002829497048058115,5.237146907132181E-4,6.570658559540369E-4,-3.3735393863564147E-4,-8.549078678561246E-6],[-1.2361938625977105E-8,-1.2222221747751823E-5,-1.1636535723513579E-4,2.5355051761844062E-5,-0.0017553320438607174,-1.0451094870825201E-4,0.0021745030819102043,0.001814509108500238,-0.0010763772721245207,5.805042578027316E-4,4.359525756645894E-5,-9.789401104218199E-5],[-2.9755301396266576E-5,-8.852373276272278E-5,-4.666043558572253E-5,5.864629684918515E-4,-0.002668093716168392,-0.002074443627580278,8.969635827885758E-4,-6.007124987121618E-4,-3.1675847375376885E-4,2.655691958533882E-6,-9.601631680486216E-4,-5.715323044923118E-4],[3.803419167912241E-5,-3.849835258262332E-5,-0.0012960689245344284,-9.242346745444335E-4,-0.0031052641595541498,-0.002064586147722275,-0.002121918163422053,-0.004100945711879634,-0.003796713645709825,-0.0010484851467559139,0.001016915516276831,0.001064973247383553],[1.9269161173719043E-5,-4.6956416270203886E-4,-0.0027266049417256225,-0.005608462532834422,-0.003120935142960006,-0.001405323942412763,-0.0041041910080222635,-0.0017690336156289698,0.003280770158226467,0.003136795658695791,-3.2759601364415486E-4,-0.0010021336931424478],[4.181587532767754E-4,7.764852709617402E-4,2.4384528564841743E-4,7.559106566551578E-4,1.9116767397567687E-4,-6.295637461995246E-4,-0.00649528866755671,8.754050630258936E-4,0.002246365450257761,0.0025498480294248276,0.001212783906692176,-0.0012181197435424205],[3.904147132990396E-4,9.202863564387332E-4,2.017709892220108E-4,0.002982736889761086,-6.004980143863724E-4,-0.0016125880442538342,0.0010535087983057807,0.0044999787523425155,0.0030763386976354135,0.0025159910541418307,3.5529102883978135E-4,-0.0010609079099629006],[9.727800965979128E-5,3.546075257868355E-4,0.0026601198171102526,0.006368557975941166,0.0023581427818873137,0.0031539352260180004,0.004636343548883408,0.001084571457254076,-9.117308636714209E-4,-0.0013100711985205987,-9.112582612160969E-4,-8.825249228521003E-4],[-2.6827469898014507E-4,5.329126491425102E-4,0.004234802453004523,0.007977722211640318,0.0034862568259592377,0.0025422392351467267,0.0010537567392093657,-0.0019620445747484997,-7.343730014561206E-4,-0.0014128179163480272,-3.850977259203794E-4,-5.531957255342558E-6],[-4.00763663190769E-4,-0.0016631557527282848,-0.0015592641142336701,-5.878520202011092E-4,6.482610151838398E-4,0.0034198770436006604,0.001667519919624422,-4.0278885067644E-4,4.0882903794195794E-4,-1.6991646727835736E-4,-1.7579883749975066E-4,4.0376934931829876E-8],[3.060181921594485E-7,-2.2970552502271166E-5,-4.791976943764869E-5,-2.4097849028857246E-5,3.433366426356846E-4,8.978356286163486E-4,4.1188614173687986E-4,-3.096503403883838E-4,-1.8245825107610387E-4,2.839504762327591E-7,-3.3972281195972085E-8,-1.1146508782276143E-7]],[[-6.371756399514083E-10,-1.4239917447795555E-8,-2.5233346123561685E-8,-3.643491249484429E-7,-1.133114882809098E-7,-4.432999887470921E-6,1.4855168273056226E-5,2.7826310754485177E-4,7.18546481892754E-4,1.1444573480805267E-4,-6.743028765660323E-5,-5.05729107017439E-4],[-9.283575693136556E-9,-3.2184127097544516E-8,-8.70610644779917E-6,-5.069478734239357E-4,5.654239745570017E-5,8.403441637705871E-4,0.0017894548401720487,-2.9968276736563404E-4,-1.0413216294035508E-4,-5.156872906391328E-4,-8.53828693216455E-4,-4.988332333507324E-4],[-3.1045832117196937E-9,-9.072340765020296E-6,-5.998246677764769E-5,2.117449487616207E-5,-0.0011170678272056337,0.0017886801334972787,0.0039054986893291475,9.182681541607367E-4,-0.0018452373841762633,-5.761140004188744E-4,3.4885628611806184E-4,5.424348695807621E-4],[-4.780350691148018E-6,1.3730400465485113E-5,-5.475497767204547E-4,5.696542135889989E-5,-0.0021045396252292858,1.820182561518943E-4,0.0022295007728824405,6.896329022017885E-5,-0.0028493063319634106,-0.002091702391480666,0.001255487732792706,2.497072969352781E-4],[1.2902378710216044E-5,1.257773301028914E-4,-8.7521920615565E-5,-0.002571903363664162,-0.003609658046516373,-0.0031079982948978976,9.046954780524116E-5,2.2354739322421897E-4,-0.0040710191802218795,-0.0027998263385841204,0.0022967380891278106,3.1563353716784976E-4],[1.0116338065410941E-4,-1.3472994202014138E-4,-0.0014901264307298483,-0.0059067162711597685,-0.0031187521446192487,-0.0054234277112320435,-0.0014741125307969085,-2.3298553465092272E-4,0.003831753914904032,0.0011944754895538271,0.0028523679060860484,-6.334706496843431E-5],[-5.8218766568559535E-5,-4.119882490948505E-4,0.002006968593073059,-8.767858759835777E-5,-0.002029827599866715,-0.006497393566540494,-0.0031564217349427967,4.8515097454445745E-4,0.004319743349111745,0.0013035559673891454,0.003264030337492346,4.253324660539073E-4],[2.0342047557089378E-4,8.428396761971832E-4,0.002281378112954387,0.007984524794183396,8.352202287078474E-4,-0.0036494896424433916,-0.0014015464899967925,0.0037742321594911193,0.003042613186752501,4.932448911394664E-4,0.0016453095286622476,-9.14762499561901E-4],[-7.268183207991013E-4,-0.0010835394875686054,-0.0019697199466573996,0.009259334166085906,0.0023043726586710273,0.0031442327734460514,0.0055878180277188745,0.003085785061575876,-0.0022022925384172108,-0.0018331013618038032,2.974811371410617E-4,-6.549564715039904E-4],[-2.5045227176495344E-4,-9.900382059785642E-4,-0.004978903050078095,0.006120380747685176,0.0011467781735770425,0.0031567927046371575,0.004270880749555758,5.594999850012247E-4,-0.0018826802670601703,-7.565528488399889E-4,-2.3953140119456655E-4,-5.152845084645555E-7],[3.231689874104608E-4,7.796204346424737E-4,-0.0010478592510595366,-4.8235488388846036E-4,-3.195143104114906E-4,0.003659174383125792,0.0028349119392527076,-4.663642580867434E-4,-6.650299401756812E-4,-6.067239493983244E-5,-1.7193912007542142E-4,3.4265560534746097E-8],[-3.815562379853352E-6,2.7015079459048134E-5,-2.720217168391124E-5,-2.026005439996532E-5,-5.981154253094439E-4,8.607167180267838E-4,5.73835810631207E-4,-7.543890286339168E-5,-2.8753078686135692E-5,-5.7481215644800505E-8,2.977082987168069E-8,8.352129529434535E-8]]]}