{"outputNumber":10,"layerIndex":5,"layerType":"outputLayer","mapSize":{"x":1,"y":1},"mapNumber":10,"kernel":[[[[-1.322364447783834,-1.5141760928195354,-1.472690301909283,-0.15472966613217723],[-1.3221579591766819,-1.694003984433976,-1.0512237837784508,0.7591080150694541],[-0.5278554650099794,-0.23542492361153908,-0.8456181384373385,-0.1380864735259858],[0.2243966068729949,0.9518772083930789,-0.054524523407971634,0.2015308074888831]],[[-0.7839718978636322,0.15126784749642253,-0.8824002992508058,-0.971242619931602],[-1.0251222541372118,-1.066936622071167,-1.5500038562151628,-1.2847233665287356],[-1.3281585282685304,-1.100036086455621,-1.1298160702111044,-0.38575158972911944],[-1.0119873383556868,-0.47155431085905847,-0.4275081700009422,0.07453314223848939]],[[-0.45473341779008297,0.8226152267597527,-1.8377733730027548,0.20466163156918193],[-0.31180923767600216,-0.46519946287276676,-1.6283716092406912,0.7264087660318017],[0.10077474547623971,-0.4911429984597411,0.1957932462191415,0.5791009848240294],[0.25786191974546946,-0.8736261850027847,1.0005708677195593,2.768642189186121]],[[0.18413272114419502,0.3804879560692827,0.11914327128391676,-0.883050710100081],[0.8074591263718659,0.6771732285136227,2.005470679535767,0.18182760671599682],[0.8124069085424603,0.1885891653684987,1.4981638876221297,-0.12613327696508825],[-2.743134545715854,-1.5554549496578347,-0.1389408681000704,-2.1376107879084087]],[[-0.2629699133852836,-0.05270044484297579,0.4818766783219775,0.5652748807184917],[-1.3602669605991327,0.4716202335240645,0.7643315252489543,-1.3617716072484514],[-2.0505078920557205,-0.1600894874182529,0.09837259040849779,-0.803387649055009],[-1.0476189788383852,-0.8725323271776358,0.23126117202047522,-1.1837089030286665]],[[-1.514599893133898,-0.7068261043149767,0.4273651431686191,0.48559905372660944],[-0.8812782249307715,-0.6176278980035318,0.36033733816455293,-0.23578143831609175],[0.22514901734617923,1.7475919023453217,-0.7976664164893186,-1.5591638113198092],[1.923327909863157,2.4439793814492514,0.3984436251016884,-2.053836893276772]],[[-1.2006634631869424,-1.6504981340222906,-0.8905585289426066,0.4532833370385031],[-1.9831558497370023,-2.252376178715876,-1.6844357085527393,2.214642817166958],[-1.2676552232973703,-0.5917957898163629,-1.0972672173881444,0.6437055872024361],[-1.240935215398334,0.11416093687783062,-0.8138009986691932,-0.048197449122914196]],[[0.22467005686843686,0.5048900302880767,0.7905522889704579,-0.4846334214039917],[1.2950592258821405,-0.5329763844505371,-2.0917894173602436,-1.3954747519294546],[1.3850912185836846,1.4190824782462899,-2.456716638646556,-1.0091831926377408],[0.038177306511785,0.76486704190825,0.21772728778260517,-1.3513026265795924]],[[-0.7472252116570319,0.79025606728211,-0.28833094527203396,-0.42062064686675693],[-0.7842688168296085,1.1991085598939313,-2.908296939305979,-0.3716997648766203],[-0.9856470671960316,-0.5794923846888836,-1.3663602941268358,-2.4328679192239715],[-0.056805243857659636,-0.4151849825429464,1.0648448709553033,-1.8610314838970818]],[[-2.204740633966426,-0.8943528679853819,-0.21720319734387014,-0.24504870640209014],[-1.6635768942563693,2.523257701740386,1.7406801016054623,2.066141062826228],[-1.1962176202157846,-1.773637037081742,-0.20535704431394738,0.3655322031881468],[-0.7038531351067349,-2.186702721734887,-1.6780162680101987,-0.9116443615347206]]],[[[-0.3462827342456207,-0.023561088287929764,-0.30975685867451075,-0.16023822333022533],[0.2997960515410283,0.6997144411895586,-1.119303922147584,-0.27855879494356556],[0.8252180867495224,-2.134442201570534,-1.2534740877374007,-0.29094390163020223],[0.15187862860712997,-1.2086373137684294,0.6925452907316796,0.2027950397206813]],[[-1.0100109527172747,-0.07064376858738283,-0.39562649329475597,0.6379848772602575],[-1.9822165887160887,-0.09611763341032599,-0.4144942189712213,-1.3386794735885938],[-3.229713206139341,0.017899045535902384,-0.8548439275251479,-0.7372794971298557],[-0.1738786112158375,-0.7657728308654278,-0.5448387605741278,-0.3283953844780552]],[[-0.8258523753670828,0.9885473065019232,2.4542914011647383,0.06669676404475942],[-0.2178270786585989,-0.263082836252351,1.8545453731651464,1.2126096428972406],[-1.2149636469325722,-2.2221945879537084,0.2828491526810302,0.9621400148584841],[-1.4483675159883889,-1.3303818369037441,1.500381673454413,1.9340764842624962]],[[0.9806480276789045,0.4894688308883666,-0.8295083639297435,-0.23424078430564305],[1.4804965344674539,-0.3129419496540515,-1.20884138776426,0.48572517359518425],[-1.5912999466829896,0.8638885152302133,0.3120765285698491,0.29574817164103023],[-2.9923658914884483,-0.9813944574783762,-1.4727462952391257,-1.3441019031282593]],[[-1.302990148821654,0.34939711598065964,2.0397283102385053,-0.1250324283588157],[-4.66882585955429,0.20550071100801628,-0.6045194141026816,-1.3919082184927982],[-3.176214167469577,-0.5692962778556833,0.026492236115700007,-2.8011316177070307],[-0.6874722996587829,-0.6328645943317784,0.568905823241314,-0.7925720356084182]],[[-0.9039315918434316,-0.7518281424981011,0.2601140032691599,1.012883951005805],[-0.11599313233757252,-0.057434272153139516,-0.008686152340576576,0.9849369696211678],[0.9686951021810616,1.7291613628218208,-1.1972722954388357,-1.8675955987730581],[2.8745225890866064,0.9046889682916586,-0.8210698064639261,-1.808723817655538]],[[-0.6347668520626274,-0.6178671147857222,-0.7756334397368972,-1.35427948933913],[-1.2281637807205474,-0.5000924719100021,-0.42312694199320544,0.879083542954204],[-1.544566845793984,0.8836069043551,0.32791597407798806,1.3051960641209568],[-0.2916008600227798,1.1899111698881932,-0.7647580659610808,-0.2855009960752314]],[[-0.7195499125498142,0.6547409305666121,-0.13391992920263307,-0.8057993048804546],[0.05718240155496799,0.2210685165888566,-0.61688432222206,-1.7730459836306585],[1.3733096597058299,1.0707284615619281,-0.6866352953976662,-1.7151022004156835],[0.3102737448581231,1.149750170247742,0.3866338615792216,-1.011789210714374]],[[-1.3713783159587554,-1.126290253151114,-0.41770669919054154,-0.8619676892267424],[-0.02238230742389231,-1.2523547885317277,-0.24478146988451374,-0.7670831036638274],[0.5617111115427151,0.09076647479977397,1.198951685843714,-2.2349249864446463],[0.22038729428717618,2.187939132952275,0.6965692000357676,-2.1968340311705954]],[[0.25710744476434133,-1.1528832129581201,-2.1782893863149297,-1.7128679153117399],[2.563918934278913,1.0418576235512778,0.5532933681032046,-0.5557695026373005],[1.4894059407298588,-1.2150491090713131,-0.21390941297722565,-1.3750953744302397],[-1.5565351128606142,-1.8737029960645049,-1.804663503474976,-1.2595870025772722]]],[[[0.32953299588737306,0.009251738347258403,1.4590226579878955,0.880232137073504],[-0.7411731895524284,1.4133271347688894,0.5043940141008895,-0.20533452185370754],[-0.8732211894108569,-0.3451755156882164,-1.665570358379418,-2.558870320907664],[0.1016229483781665,1.2587466084341365,0.027387493090775355,-1.0395410665732128]],[[0.2409200463390657,-1.687012528531597,-0.9427833666666015,0.17522074442209917],[2.0743470889243305,-0.3464139963708978,1.0878757464486457,-0.7752954069963315],[2.7223400761754197,1.0121421787108482,0.08755280809751381,0.8125228026030762],[0.5629641824571637,-0.3089421234258361,-0.17212751085935388,-0.044824954247785175]],[[-0.44134217098701267,-2.125463626919321,-0.6421197636002179,2.614839790362241],[-2.086570556827913,-1.1689069952537332,-0.883204564221808,-0.5994678498931436],[-1.3466458095651839,-1.2163347588138627,0.43166079170545585,-0.8132078145668502],[0.7003988409944348,0.31851058594034953,0.1644610990791808,-0.20391387827780122]],[[-1.0566834256437179,-2.21553576642359,-2.1053541639187534,-3.1467922512576783],[-0.6385796785906435,-0.2079668626951067,0.08442607959601764,-3.424694614510312],[0.48857181303964836,0.14391996996389447,-1.1417856709500969,-2.7766770880772054],[0.446883165741378,-0.1600052492316477,-0.528614241598241,-0.1566561700727244]],[[-1.529941388719781,0.9230855791729268,0.5809329373027343,-1.7589785272555742],[0.1255559100996235,1.0082908076609025,-0.6336169553976155,-8.802718896796066E-4],[0.03699172270755886,0.6542413940088508,0.3470457542114291,1.9675636095795828],[1.2827145972973724,2.675101543498253,0.36446027316529545,0.9188851737568806]],[[3.014532001710092,0.03231048873875636,-1.604309115034135,-2.2065234582834825],[0.4232623691728001,-0.25446630199108144,-1.4004229485199098,-3.3312976920092856],[-0.9352983339215248,-1.4837797737266505,-1.5217389735726832,-2.362984347391846],[-0.9725920029798587,-2.793345823272777,-0.7718455537339877,-0.8667058302754805]],[[0.2505624737016546,-0.02341298792293779,1.2102314647409844,0.7114094236539646],[-0.6247536956207382,-0.6362083944492349,0.973092806981028,0.6615619467798096],[0.39469894328256966,-1.8579383044107312,-0.5173164489507629,-1.7065628461304876],[-1.7337470104332013,-2.8937503393550905,-1.1077617410485328,-0.5498695524841296]],[[-0.6132689527208912,-0.8808851013470058,-0.9256391748744002,-0.8164870504368604],[-1.8085883187620682,-1.4859597915989506,-0.6385758213831156,1.2798058748382892],[-1.6592216647243405,0.6529537891947199,0.045124967086737224,3.0609563988108173],[-0.7957926892858254,1.0592294452614999,0.194427555595291,-0.06307747758258919]],[[0.6273956987564481,0.5141369647867488,1.0493924825791558,1.7957800636271821],[0.591560914732349,1.3979153938845141,0.9106145200068038,2.2825691857942845],[-1.593485570985542,-2.7434561197477927,-2.22576680039211,-1.7986570530224963],[-0.6110922561605051,-2.267225284537415,-1.467637748659595,-0.7678918114237622]],[[-0.009618576781542912,0.7782847907754943,0.5203275293623845,-3.339796354745483],[-1.02539587551507,2.1144107597308426,-0.2701948433175527,-0.8850605478941245],[-2.4706290904341235,-1.4671342355951176,-0.12674120715253187,1.2456812691350594],[-2.012029451717909,-2.5105828712740244,0.09168516923134547,1.700203467966899]]],[[[-0.7579441595351143,-0.009420962428321092,1.6038794045518103,1.1427212857783386],[-1.697760658597514,-1.051904298519353,2.249999880728852,1.4244644121176697],[-0.6546348211059502,-1.2421197575654648,-1.645836466205111,-2.5104559489154603],[1.5590210389988917,1.2555058199468652,0.17854347541716728,-0.3829927342600248]],[[0.021189581954129524,0.1695707496901786,-0.16689318663059052,-0.4070479716461348],[0.2866680965272957,-1.8613444249047886,-1.538876532719808,0.7659594749075731],[2.3212516631897615,1.5096265682523964,1.9742037887970356,-0.09957221610467246],[0.08149918700229601,0.4280669369142368,-1.1316895174052504,-0.4401098631317512]],[[-0.6785467330903218,-1.981126513875858,-2.3856067137552257,0.2782645060088952],[-0.9491645548955523,-3.060328102545359,-2.707686987332648,0.2218842549812565],[0.06155710501484526,-0.6107711565567385,0.7860255719543209,-0.5137730365269899],[0.566425603785126,0.23065085196619237,0.2487798479285635,0.6384399412119094]],[[-0.652162589552313,-1.251875013108513,0.4074652809068016,-0.18231728852963067],[-1.9021202869613671,-2.4910682703286957,-0.7729214513414863,-0.8393683107226222],[0.8547876079844754,-1.9653393667890722,-0.8171604558934843,-2.202035633478407],[1.186383521708321,-0.8023692386594087,0.5442799795998782,-0.45637295364866487]],[[0.10381925750644153,0.045021855013712204,0.16846869768127581,-0.3436653825301909],[2.431038922393168,0.3233470262377977,0.25762423931898154,-0.8479087741986989],[1.0460328820534663,-0.6438775643493428,-3.475677460618164,0.03292332320460986],[1.7942394987149861,2.22182361225263,-0.925978426524652,-0.7223505374321856]],[[0.526486594574047,0.3178230396489682,-2.413622761635559,-0.49203236223176766],[0.12395800966071463,-0.3555386895776952,-2.320673978269558,0.3310685715262855],[-1.461695792821869,1.003052186140461,1.0059162111692754,-0.6111946179101791],[-2.3274226553002024,-0.6943383401445778,0.5284520094452877,0.016976467912898748]],[[0.48417609784117244,1.3017804934945392,1.8762197499440174,-0.02337430112540192],[0.8223144687213738,0.13387537047747367,1.2759601415881816,-0.4607801726546652],[0.7793873817726122,0.47006150071719527,-0.02697207390917121,-1.66430364399028],[-1.3165142990895968,-1.5930163232066543,-0.77828638504518,-0.30446139381067233]],[[0.6545102666665397,-0.9479731365493208,-0.5013426826804347,-0.8908826088885177],[0.5794675904708418,-0.3933231599104998,-0.41054355966845196,-0.39289790389292034],[-0.844804621396152,-1.1016079666494916,-1.098283287858996,0.47176482655290775],[-0.5880420749650854,-0.38051455078583907,-0.34037686744416606,0.6176078880166839]],[[-0.4286211607242671,0.9111355770991121,-0.4695425725943235,0.7442063970195615],[-1.3476135995427427,0.7765154526579006,-3.3867791645690093,0.250372703009985],[-1.8038582129391003,-2.7281786017138985,-0.918998793791534,0.1705796884906898],[-0.7468102829246329,0.5777141406314535,1.4951080155446226,0.5780024439818559]],[[-1.2342649487229356,1.219593036343994,1.4018118202828505,-0.6220555069382964],[-3.9400749018798016,-0.3136973992044186,1.5909164261377358,-1.6936382767064666],[-2.1822118028566324,-0.5475051335238951,0.34861888037960065,-0.39254953383835695],[-0.47069497263258275,-0.09803400194345997,-0.15426544497378533,-0.6496028985391091]]],[[[-0.03156773863286828,0.13039443686912763,1.5184626759851467,0.2567729704035134],[0.31032291279545643,-0.7912623945399399,0.0860825748084742,0.11591105549034536],[0.7429666875312945,0.21673242444049223,-1.6810603739696024,-0.7331097672958349],[1.0718096306029252,-0.768095188172969,-1.5763754982054812,-0.7007472855316275]],[[-0.09941407128748474,-0.2505243694337758,-0.24323274802145003,0.020220746311386636],[0.3889425903790959,-1.1948529971393462,-1.1633539932198067,-2.4451631880182245],[-1.7491901020255687,-1.8863537272836883,-1.7137028078149132,0.28903203749633144],[-0.5878475400869994,-0.07122983058014716,-0.084807943112184,0.014092793399003423]],[[-0.9889938500604005,-0.9563509830391219,-0.6038284767518115,1.5244084320573512],[-0.06739895212315841,-0.8698442370963191,1.4047489546357972,1.372877438477867],[0.5870777910983894,-2.0288935440642364,-0.5663138050865124,2.0529224483073802],[-0.281181037522192,-1.1686934131998727,-0.003954165395882259,2.2074166749083535]],[[-0.17712668562296363,-1.6113278125451567,-0.33789721731720007,-0.8736240706822197],[0.08020056685905386,-1.1406198200213407,0.14909155728185772,-0.6840311326488007],[-0.06817307765608037,1.43360496401827,1.1561762903244404,-0.6813213311607695],[0.1842232431892892,0.23808704901021113,-0.666800452340781,-1.0329591504423659]],[[-0.2881926324482923,-0.0329668160625645,1.0296927882971807,-1.084946516977704],[-1.0937128258136988,-0.6990841356318734,1.7812025503620217,-1.663300143292173],[-2.2495018758132,0.6888854418538234,-0.6448756944906278,-0.9445081531695193],[-1.2270301234549343,0.31803717342143994,0.17265482407239535,0.3264717648400166]],[[0.6235250463027123,1.8211906718686708,-1.3288976131682602,-0.515990139011184],[1.0948219398407406,0.05867435997180582,0.25037329972151734,-2.018499778167324],[-0.4270782448550994,-0.854915288044808,-1.3937794405476633,-0.6867626564083598],[-0.08053764888422796,0.11461169156187234,-0.0722486081473393,-0.1435723164351119]],[[-0.5522392859496321,-0.2250510581664006,0.2545635123384932,-0.4374434581295286],[-1.0557295706817509,-0.2781395725810854,0.7424576484771438,1.2320525234636996],[-1.031304753624725,0.8888497555715384,1.4330653135141924,0.9066339429431225],[-0.8402032224946282,1.4287305054538815,0.6216453572093668,-0.18760687538647738]],[[0.5049771573533571,-1.428992155627391,-1.831584643413687,-1.5953796410169068],[-1.3338200030720764,-4.149079129907858,-1.9327672526470006,-2.592208202316052],[-0.2497983563018367,0.33029692506058084,-0.5484193179754745,-2.3490968224818234],[-0.3715609251554139,0.4872176013355751,0.23890661373686695,-0.7960452914193438]],[[0.2674492551965552,1.7853643525887517,-0.07105062798943436,1.9818241921518196],[1.9486936299930702,0.056732729784811774,-2.603476921068577,2.7692604469141924],[1.1967698355055632,1.4510444030912923,-0.4665017463579093,0.055738695801668556],[0.8091020206120012,-0.5310281197152472,0.464418268014885,-0.8265253109598414]],[[-0.47976060932816256,2.4218890710484273,1.8243837042298874,-1.4987874837974575],[0.8074842943015851,3.7209872501043058,-0.6425112217364165,-2.7285828752193053],[1.781458421944887,-0.06556611891021064,-1.698183863184932,-1.4957874149972097],[-0.3309319723366264,-1.1693555405903229,-1.3316058500005754,-0.03678747016441923]]],[[[-0.2862450040501364,-0.0029694146112245003,0.3487845558419277,0.15773773191897983],[-0.5231565451981218,-0.4491011337943661,-0.5610618210160908,-0.713310040732615],[0.7336301160713993,0.7338900640313749,-1.2237194697063813,-1.9090573955060652],[2.132074528632131,2.3561871670587156,0.1630652380259963,-1.0689180591907808]],[[0.2307157700347107,-0.0028167506437280594,-0.33192590115831233,-0.6138342000249933],[0.552050981883901,0.9726838727190762,0.2713049159930613,-0.7626516374863259],[-1.0595440464499692,0.26619270699650427,-0.6241720256498704,1.355153780071712],[-0.8519008698618277,-0.2758805597454272,-0.3257054844418985,-0.1766510278807682]],[[0.20836621429338603,-0.49535977065017445,-2.103616849468726,-1.2236523021294625],[0.7728455533488978,-0.2594536399313896,-1.1108548271334553,-2.693051849712856],[2.7116655783340198,0.3433997722002303,-2.098510149841794,-1.849685753920012],[1.1037637556601754,-0.07525465776044266,-2.0183694640213066,0.4394149478280541]],[[1.9101292192991781,0.40974444556843526,-0.36892655302139693,0.04892442253692597],[4.089869364353571,-0.6514988976145206,0.7108843317066889,1.3074568822128065],[2.24812964019964,-0.4190198928710032,1.9932693791099927,0.35925006191991254],[1.6752875439744146,-0.8745931764244801,2.2988758205078836,-0.9663661259967982]],[[0.10042634234567056,-0.295128620764522,0.9433517674044529,1.1645493715577755],[-0.6387087442591352,-0.40765746852942336,1.6443214045775372,0.43975185524727906],[-2.646410718682327,-1.3185010328745568,-1.528368601322602,1.1808967934810704],[-1.3671509881001576,-0.45933323027455425,-0.6873213436817834,0.3952817369333108]],[[-0.588398749983262,0.5663107720994697,-0.018790144415240483,0.1960003958080366],[-3.5233397674869424,-0.3427115911101428,-0.4371076433613481,-0.2985549631856476],[-3.817497535394782,0.3164649825540794,0.8174780106850341,-0.13483177694550777],[-3.6963278363103336,-2.1229079718158497,1.3742826352662068,0.1983644336136839]],[[-0.5705749105841312,-0.5855644758838624,-0.05048315047917837,-0.2533801707873476],[-3.049301614071642,-2.5426665414901057,-0.31475848004112494,0.4913225428590856],[-2.8705121728520067,-1.0420012156469338,0.006701366362973216,-0.5124645688493115],[-2.1627226518038665,-0.5213340941577107,0.2811333687955948,-0.46105784127142824]],[[0.3786510404067948,0.6808004478183886,-0.8618035019351603,-0.008947277055965812],[-0.2883948702618101,0.3199770845694061,-0.481939559022524,1.249835951658799],[-0.3269924991265273,1.0086038899870562,-1.8549587186355645,0.21071844853857932],[-0.38259712302987675,0.32236372354662934,-0.4489242319831432,-0.7778946184658818]],[[-0.4454920618091013,2.010512341110023,2.5394335686229357,-1.1285513415474997],[-1.284080759209511,1.5103635022057615,-0.8259516174660012,0.011617502936180862],[-0.24546982564642436,-1.538809023477445,0.4945012998191743,1.7658041131074376],[1.4442479611745023,0.15178340851728242,1.2918604296384972,0.5580500120667292]],[[-0.6513547035723731,-1.9801476639527187,-0.747471482497926,0.10752149843554126],[-0.15622058608410344,-0.08211003443852996,0.7973276329136855,0.46629841384466536],[2.2620896500888277,0.2828358263954632,0.385605206230973,-0.6305751949406311],[1.480409580921797,-0.14782700870400023,-1.2979519619148459,1.3084469502832643]]],[[[-0.2376448908523854,-0.19501512899146545,0.15526379984090244,1.3195484342241004],[-0.0443117900468463,-0.7967759678571243,-0.7022207529910406,0.47740041835388936],[0.7560710502757008,-2.2851883619032742,-0.8591892471265177,-0.5621698068260345],[0.9939981037221421,-0.42193114228008377,-2.2892771348107157,-1.395649628686585]],[[-0.45799225292478307,-0.28802016497657745,-0.12701361239353479,-0.5067632148129239],[-0.7373820495447302,-1.008799091635514,-1.8925285284197773,-0.96835670177826],[-0.7877866770861216,-0.5640241625894986,-1.5577319176248732,1.2408544900355971],[-0.8632073533849031,-1.163716889991233,0.7052320472719609,0.8654064536973392]],[[-0.7185350234430526,0.4443868847088268,-1.116759879111838,-0.9288535278707104],[-0.2717244250689991,1.375299145340031,0.33313029494698176,-1.2663636081399523],[0.4437983319138214,-0.7863147840018132,-0.5831666236744159,1.015165890339722],[-0.9377440153676294,-0.2254085518738711,-0.1823070922464834,3.1509572050794907]],[[-0.09700828314169684,-1.7238859771136659,0.8644183868736016,0.38773168102935374],[0.37103738775158007,-2.564587075298303,0.3818863267389639,-0.49468055909480635],[-0.7724648452060539,-0.14913570116411123,1.2290756457698928,0.5811240277628206],[-0.7563656362022602,0.13614480247134642,0.2079361161922756,-1.8453893210162755]],[[-0.19718263235717323,0.18656265601242616,1.1762478985180678,-0.36092406727634835],[-1.1852038141659254,0.9873603454660899,0.33109833704898617,-1.0628530611240274],[-2.7918775659301125,-0.04706451500111981,0.02582622331716428,0.20962871225159194],[-1.0731610211617912,0.41012025934399005,1.8561391944791052,1.6203231790256785]],[[-0.8671001539966613,0.5012082919700189,0.09141492772810257,-0.34546977260003453],[0.06301065546068936,0.9485150871500762,0.5549198964943093,0.1920054793349512],[0.6337731654941405,0.27226864150381724,0.4992195729740203,-0.6777695857422754],[-0.4107128778497979,1.2704878879704817,0.13783419665551802,-0.6447873128066073]],[[-0.477350925513769,0.06592839523169536,0.5415114869831689,-0.29719522104438806],[-1.2976689025791501,-0.6099372587813635,-0.17160016246675497,0.08681655521442386],[-1.0829683101183785,1.7440417932125976,0.6953024505188992,-0.930103236768408],[-0.7077718835458671,1.3455441596357873,-1.8562853538534776,-0.8162948040929808]],[[2.274227536522446,0.5691043220644212,-1.092797489144597,-1.6009557572739526],[2.3963457856487644,-2.512641699032007,-2.2911832024837113,-1.842640379608072],[1.0175159090283121,-0.7144315795984585,-1.1844658174137348,-1.2043294899928576],[-0.3322357460879411,0.9199225647996118,0.37886569388168195,-0.9882645348956516]],[[-0.9219072350865798,2.112823894832907,-0.37413792378948285,-1.2860601186719895],[-0.4001393738882331,0.7223588285584365,0.7610264935622697,-0.577459190631492],[-0.9511698372211653,-0.4437528215446141,2.609266403198542,0.9339116354833366],[-0.6719937588476076,-1.0645680747758557,0.9505806933997175,-0.308711443803754]],[[-1.2067604369815383,0.8875492038411135,1.998594982305668,-1.5043488838282773],[-1.9241172169556586,-0.7964678559559054,1.1886040031804332,-0.615342495307958],[2.560975894047013,0.5076205587786712,-3.1345743539794677,-3.274023511725837],[0.8669959952672378,-0.9171851381650954,-2.3095387166297274,0.21583917623971963]]],[[[-0.22671020876480516,-0.9674722448865661,-0.026502221402625467,-0.17854036159959388],[-1.1648924310383715,0.06788076923544661,0.0101217297635945,-0.7066042383537481],[-0.6417845020378864,-0.5863072775387318,-2.603238219174491,-1.099341638917573],[-1.2058398736834053,-0.21470549851512954,-1.0012811957857246,-0.48160738928458274]],[[-0.9694349068698729,-0.3541169350421898,-0.24961910626821424,-0.7724161179507868],[-1.0046333508187235,-1.4343463742648717,-1.545735470573174,-0.036118203775683214],[-0.25410341949691645,0.08957966679043322,0.5403053139574072,1.0632319197744249],[-0.9815910375706777,0.6466860801263429,-0.21626870143149884,-1.7537494204331159]],[[0.4745326562222548,-0.2591139146902871,0.2088304087741705,0.1818636034890571],[1.454368721466647,-0.35196682191418155,-0.7062847889920058,1.307884706847307],[0.45180512606688217,-0.8408259380880999,-1.3592928753872207,0.6079279769976051],[-0.8729526597939335,-1.7817199122586422,-1.5541743428822223,0.926246856644384]],[[0.13638081871380042,-0.34836005913941537,-1.5290393120142962,-0.8155347508629781],[-2.1511175032680865,-1.115214430598963,-0.8338011927316336,-0.7628535927165055],[-2.496058939080761,-0.3193190911818932,1.043903522629582,-2.5438642171786228],[-2.3699363263015782,0.3096312839892953,0.8264156093267134,-0.8241391652770722]],[[-0.3916234897998033,-1.1034835004230235,0.29681355749442306,0.47463209751399615],[-1.419413389104202,-0.5516130479231883,1.0314937945149893,-0.7536527763316792],[-2.436749774021796,-1.6906340265023025,-1.5343623875430794,1.0158763430113988],[-0.9007778973173007,0.3336106566423053,0.41952059076723547,0.28703282978935307]],[[-0.43394285366018565,-0.8923355858204692,-0.825092123433701,-1.2280506812707477],[0.568774941247003,0.7588801066035933,-0.19223362023295323,-0.36930817654177156],[2.218514479805399,1.1770973043604898,-0.7321859197839398,-0.7179641950115334],[1.6898837948280738,1.723203557541351,-1.8568228823008421,-1.67620619301224]],[[0.1332655219164259,0.14622246848543383,-0.6046691609365231,-0.058747332040345185],[-0.15948377972721503,-1.111985782289601,-1.5786035326172578,0.6991931243413425],[1.1659987501743252,0.24358060482490684,-1.1192341814161524,-0.3526424884336217],[1.9810150095782226,-0.9204120632729867,-2.170062306119855,0.04117605231456827]],[[-0.9284244664577614,-0.34211277982814536,-0.5466802558331717,0.4196124685935126],[-1.1527987062184204,-0.07738803670730096,0.22466878375239055,-0.9260858872070507],[-1.192963323128058,-0.12875211145180426,-1.7031268341081618,1.6437726183852401],[-1.4678750722926703,-0.13505598539763392,-0.5245141420814697,1.5816784224937497]],[[-0.7445350446636771,-0.1491705698736274,0.619059984079169,-0.36943228995159283],[-1.075235378893127,-0.5375496170530045,-2.4482784030310514,-0.828438922680461],[-2.8829989952535575,-2.098495182128574,1.1747322967329072,-1.9951880660174248],[-1.3622888249410137,-0.8439345058969656,2.1736220313881036,-0.8614069561112805]],[[0.42717402371343255,-0.9088353284419042,0.7010973644473727,-0.49140135823930586],[-1.0653112709851884,-1.90954208473632,0.07461521156361292,0.6493205691848108],[-0.18830924736232876,-1.5363181784282554,1.520098173818338,0.7895426430368262],[-1.2166862927446807,-1.1517625123979875,-0.004533111354719789,-0.6650409215240736]]]],"maps":[[[0.03989340747606014]],[[5.486047563342855E-7]],[[2.795668057282303E-4]],[[3.447309531626601E-4]],[[0.0057584037099572705]],[[4.4397206890845285E-5]],[[0.9971969356555965]],[[4.996505246465332E-8]],[[1.1618614477742914E-5]],[[2.3866846619931114E-7]]],"bias":[-3.193345001840741,-0.6608083523790187,-2.99506670282336,-2.011445014554325,-2.723174613055212,-2.2323637563427554,-3.0432517084701325,-1.2453851107895673,-4.551952764800946,-5.7073982291764915],"errors":[[[-0.0015279942419410438]],[[-3.00967013560575E-13]],[[-7.813574859482797E-8]],[[-1.1879846243843534E-7]],[[-3.29682691500394E-5]],[[-1.9710244678421517E-9]],[[7.835145566579185E-6]],[[-2.496506343057482E-15]],[[-1.3499063396006026E-10]],[[-5.696262316274658E-14]]]}