{"channelSize":0,"stride":{"x":1,"y":1},"padding":{"x":0,"y":0},"layerIndex":3,"layerType":"convolutionalLayer","mapSize":{"x":8,"y":8},"mapNumber":8,"kernelSize":{"x":5,"y":5},"kernel":[[[[-0.7115851436245826,0.10606879393729111,0.6187236726577411,0.5283112784266132,0.23873346436298942],[1.135923374909542,0.061071272875976204,-2.668462492005462,1.0927521004934608,0.7325660994052756],[1.713574473000994,-1.9876614541497768,-4.908116144870122,-2.5202077262923375,-1.3338837360990523],[2.3964394347917652,-2.656625257221492,-5.474106786084475,-2.47038727719054,1.1363875423835728],[-2.05261152246075,-3.8807711527204525,-3.3460140807875676,-0.04887008283689647,2.605356807359344]],[[-0.8171714229984809,0.7695946618474635,-1.7476021677793356,-1.977449886492653,2.778685788151582],[0.01924767757425866,0.817087264182305,-4.651312361513541,-3.9842107116993253,0.015590963076628269],[1.8202389997936643,-1.5340923900277377,-6.768959593593828,-2.5466366169199848,0.40610856825143604],[1.4736889550281436,-3.810355857480104,-6.525527364535033,-0.5101244393440963,1.7447738209029346],[0.3148621386900269,-4.105720602366292,-6.90238642537484,-2.6588808640018127,0.12970572823263302]],[[-0.6209518416179964,-0.6511817120419023,1.4105207318618211,3.8907855625973418,2.383222886036959],[3.5876630618440855,0.037968927771750774,0.6395949796872852,2.778885512494933,1.4522507969975644],[1.720349950423419,-0.1914585268371789,1.2797870191394127,1.4540539924687803,1.9834397189038766],[1.6760173912883527,0.2933719691006572,1.2387453302134777,-1.5131371377883882,-2.0869615978162597],[0.14589524924413635,1.6305470323780646,0.6103974408821876,-0.6616549732294904,-1.842604273493739]],[[4.312444181708059,1.0951299467822364,3.278778520214309,2.297296066506591,0.45110735052405476],[1.0300973222215433,-1.6852767905841457,-0.6407219342411532,-1.6294462166151633,-2.4598726593516496],[-1.753509962401763,0.5541055158374997,1.5421532109266,-1.538151082628567,-2.790182255711516],[2.2847871245117193,3.752427535025273,4.033143877963116,1.2509376992881993,-0.815841381384066],[0.6025999372858266,1.4404886699943906,2.8120854836128424,0.7495480917533128,-4.129547608239582]],[[0.19986618027110165,-0.5499628791802814,1.1495272872788793,3.1716156215537077,-0.4187527374284267],[0.5847232771009432,0.34199390195516416,0.9827793799185907,0.2879259632106026,-1.4074672641654082],[-0.10429495558223403,-3.026518704630153,0.10725325001683539,-2.655727475459699,-4.4963051895481625],[-2.9233008448291278,-0.6756042817800169,0.09407032421570054,-6.092257510006836,-3.3957615700339385],[-2.4991940586686847,0.6186158719324881,-0.21875071306465635,-5.129761670731269,-0.5811188251678169]],[[2.3228904896094935,-1.021310885988926,0.44712354107860863,2.2627221612653474,-2.929089194636247],[-0.6310272869031632,-4.520389272570912,0.5400001536418421,2.1665793344996973,-0.9597265432182619],[-2.6378708130522,-5.216649033251698,-1.9815688073509903,1.7409380972903765,-0.7442334445398754],[-1.6665813349845133,-4.474879905123886,-3.2816385175455736,-0.6133948173263014,-0.49206890687534915],[-2.545704373908253,-0.10324263272135435,-0.6318738566970382,0.618624845472132,1.8599730815338376]],[[0.8902031084683654,0.0887313319918443,-1.4307001621755366,-2.61219147125318,-0.40234014471761287],[0.6498083519951108,-1.1950690442437504,-4.420585710932287,-4.509643796725697,-1.9999440880910222],[3.9827168948395295,1.0379723150787226,-5.95834095610905,-7.109591291434768,-0.665708648866842],[3.0340360178401147,1.221745235291496,-3.0802541776854566,-5.918510506774456,1.9388065634427303],[-2.38645167944852,1.03183962472346,-0.3486045878698687,-2.451374070522179,2.0014647542084845]],[[0.9390497558256334,-1.1119674875734928,-1.2659860943401389,1.3817872568574394,2.5819725716980377],[-3.137158693335567,-4.550112418754191,-3.518693093272101,0.9088924551448542,0.22878506278027494],[-6.510104544081027,-4.658487729618324,-2.6605654948599105,1.954381292835459,0.5789677963415677],[-3.2509719791243543,-1.8184288077595165,-0.579585605984278,-1.3837396938139286,0.4337651176993647],[-0.7970989113697836,0.8435828589169443,-0.1877422987817032,-1.1115242797734832,3.610591298815192]]],[[[-0.8393278504485949,-3.1849334593730743,-4.10188388073286,0.590376435001105,4.786568571023884],[1.499559504472502,-0.2939741397371726,-4.0317169763012775,1.3011689302154807,2.5092390065353407],[2.9139750812743035,0.9604734775595641,-2.142031959580176,-0.5533733672605433,0.7658227798751196],[2.172103405207607,0.4596287330246371,-1.6042092839025277,-0.934795423217945,0.9233899715906225],[0.5627692591905165,0.23842991253002951,-1.1823689305442042,-0.16249169876801164,0.32433461604393965]],[[-2.7496502950750483,-0.4075120443306335,0.9009050360841019,-2.7811110084836788,-1.0968543113242166],[-0.5748037599000431,2.193794948040829,1.5584891907827603,-0.379347342146813,-0.5957993178232501],[1.230301771556108,2.857101509477793,-1.1684150509979452,2.737765189752215,2.134518831063827],[0.286189801582792,0.2474576528087928,-1.2138904072848844,3.0904110493854797,1.8960800164461318],[-1.365478029507376,-1.4659718202442873,-1.6409956298452322,-0.02247952801562943,-0.9700406691038002]],[[-0.45603051492729246,0.4794185575495663,3.009065869382745,4.891331433491949,1.7644703737727518],[1.1083899144101232,-1.2160916277326883,-0.42557084779746657,-1.2281944404288958,-2.4870638199898645],[2.8911178207594297,0.8677136219127441,-2.3537096982055132,-4.3464587141146325,-4.359378877651687],[2.436175880488216,-2.640191292884399,-2.815134267352348,-3.738071160601228,-3.11147065246691],[-2.24034509063018,-1.253002867583164,0.5352538053854579,-0.6009778730703785,-3.157366932939626]],[[3.197002088116757,-0.5239980525131533,-2.232477115423777,-2.4457527386012505,-2.767217581895449],[1.4425505527902667,-1.1263237370559596,-1.621001709187695,-2.861620694826891,-2.4150329009853744],[-1.5600364980725068,0.22438517436611294,-0.693118720525851,-1.0915750102662403,-0.6345109364640239],[2.1351429789777914,0.822407707770386,-0.41251755789148103,-1.7381833560586737,-0.9489000744268302],[2.623412918331998,2.411573549434478,0.9945419874623737,-0.9238522536171045,-1.6444384013644202]],[[1.6942937158015396,1.3061401487402187,-2.127926616192981,-3.476730878629226,-1.5044585476335945],[3.880805697470318,2.2277698937962187,-1.3580282512086215,-2.549904879810381,-2.3023495378995955],[3.7542702191243884,-0.8343205226008054,0.45847332704288407,-1.9148437888356162,-1.694969671818111],[0.3692697032915094,0.4090614338247449,0.6443382003547771,-2.7325054310243235,1.0146325645834204],[-0.4183479097672241,0.4934405878401397,0.015018726992365016,-0.16323985247215025,1.911213784287443]],[[0.47466460014895995,0.9143187781635084,-0.07611948819118171,3.948971897609144,1.5768451754371697],[0.6299503156909361,-4.435789536351348,-0.7588329999036125,2.879185100568038,1.8701354841061713],[0.5801112506662712,-4.734089754068044,-1.9100122491300053,1.5064651208146917,1.2820748740252341],[-0.47668696435842833,-4.634331643819843,-3.5340718419940145,-0.5597825060034536,0.5118700627748366],[-0.4370181543341761,-2.1157592673908563,-3.5432609623794398,-1.6785580757752825,0.8095913137874906]],[[-0.8678585443514911,-1.4436977371473638,-2.198552363490043,-0.18538569092535306,-0.35746956970634325],[-0.006525566999430787,-1.662119393492838,-2.029461132367867,-2.4715007638594932,-0.983522004941857],[0.5943652457605144,0.3405459111105118,-3.6244945775286577,-3.8492228024791695,0.8069427315959592],[2.2351012319417167,1.460107748794244,-1.5671254631176548,-3.2036880963512218,0.19560061491011677],[2.1035004711349146,2.1624050929616194,0.5685225060634079,-2.195892814046078,-2.3998164382390876]],[[0.8166360043126477,-2.1536229319677775,-1.4963330791474576,1.8737037965088308,4.38960996460076],[-2.6603831337690043,-2.9208901152915034,-0.381852698504781,0.4235665273335827,0.35933569573283325],[-2.194257950887807,-0.9280280955090238,-2.007895144962981,-0.6134785206243282,-1.5188209919926257],[1.1187565210784722,1.3080089871395177,-0.9801389472350274,-2.635652488404774,-1.8094852429444506],[0.016950887433695088,-0.5927378785933853,-2.167161215216065,-0.834130306528902,0.41173814784320334]]],[[[-1.2234704520307436,-4.092652354481141,-3.26939206539623,1.0501750532510965,4.419958269817943],[0.6467824745570564,-2.790735635843901,-0.45785234961686355,3.210196685799391,2.2692296843666337],[0.8058634553511009,-1.844921873940348,0.31863730376724786,3.031635915396714,0.6712789536238724],[1.4654557544008144,-0.7831338526947683,0.6479171857424052,1.290959119248425,-1.0103511172575654],[0.08845964851054829,0.9735404791303216,-0.510377668358747,-0.8648257370559616,-1.2986936159879598]],[[-1.6051418356440776,-1.6476584775169412,-3.2846603442577806,-3.4535894850242475,-0.8939164917192728],[1.3555608669462007,2.347652220487981,-2.182457467000685,0.9898458140936672,0.7388795679160168],[2.7746383799762073,1.8118305036355922,0.42807375005203974,2.9706109248566075,1.9299610289111035],[1.5272378404291174,0.6201987119116507,0.33300741291965597,1.6223300499469733,1.0500118421068634],[-0.4731267297606068,-1.3514402138522992,-0.252293094148398,0.6138133127407508,-0.3939900050453535]],[[0.1389915284122863,0.14627014711323866,2.559529464670624,2.4467964089787584,0.6341088707402004],[0.9253233848573177,-1.1006322801526631,-1.3137321934404573,-2.7811128212883878,-3.1288263819520803],[-1.4304002664991957,-4.0807993203786355,-5.860300804611679,-5.206554626382888,-2.792997266800596],[-3.0143388894144767,-4.959745221072452,-4.726568423794875,-2.877935166823098,0.5854080057576156],[-3.646099612371201,-0.7544397302195239,0.8982971368163862,1.6146185012678742,-1.0656841671757638]],[[-2.214438420833593,-5.0175400950554545,-5.170685657761693,-5.350923724487941,-3.7344060299374844],[-3.4393896228094802,-2.3951428602686406,-3.2090722895719725,-3.298921993202592,-0.2602540559378917],[-2.11455726868678,-1.0434002030626512,-2.198076326554549,-0.9059546717061706,-0.04620303686367716],[-0.1497650575513949,0.08803238470643926,-1.76983666419539,-0.8510713409092328,-0.038755787739223765],[2.3950597172542563,2.8030788715669845,0.8103338106148397,0.30019149553854496,-1.102067792805065]],[[1.4312465225187196,-1.9709465374385295,-5.099255666119191,-3.6750068541110656,-2.93576253321492],[0.17748683285810932,-2.8495976578251145,-1.7467612694624524,2.1171293955655077,1.4797649643819994],[-1.0241498206478727,-0.6821101777186546,1.8990033058412468,2.573715638705052,2.373585974372337],[0.0031866985499098585,2.2687343155259185,1.6849260451407957,-0.7696898140041516,2.7019267088446077],[1.0754589098017178,2.3197825659352014,-0.8058810888592897,-1.1077883719489305,1.7421796756868058]],[[1.5141728157394323,2.9879817361364704,0.4493368702241578,3.7935581987678924,2.2765074395447833],[0.10444356180680676,-0.5732186211542232,2.982711463523698,2.4605890444947702,0.9141667728662655],[-0.3612951486960292,-1.736333132377704,0.9677146632995743,1.9704149185439441,-0.24099148298845158],[0.9785971571447828,-3.225244148245663,-2.4880447443271168,-2.2278895126529226,-1.4606669406163406],[2.1000777993413053,-0.861341694937955,-4.313247482975427,-3.5412303084759946,-1.8092554354966495]],[[0.2513587430839851,-2.2221004733330267,-0.29180216397896425,2.6088432764894405,-0.3010735651702335],[-0.8347512334379749,-1.0222778240446329,-1.5747928795092174,1.0403886754596328,0.1780315706676207],[-0.8245252744356439,2.1674858268792465,-0.9798667613550623,0.9205385294631555,1.3185396656682513],[1.565962940205105,4.119818421438129,1.3440949925600765,-0.45475983534256686,0.9774804033546404],[2.525667537780307,5.811073340339352,2.383129536760117,-2.4501651538469975,-1.7765747473310534]],[[-0.0811751553811576,-2.712437370050674,-0.4769845014901207,0.5891749522115297,1.6146513110419034],[-2.47195906785471,-0.6093063985150395,0.6944613910093156,-0.2794967608974166,-0.8251003171638526],[-1.9732624535780212,0.12176702367415052,1.8390107874974324,1.506868217759487,-1.8589030411998833],[0.6143849146563211,1.2209322783382761,3.1422128126660986,-0.8361179987176477,-2.910735992809903],[0.6512980248801272,-0.21188753895140233,-0.7882670685726797,-1.146853444027279,-2.003844051265967]]],[[[-0.9168651253560754,0.07723178266059848,1.4775675074636596,3.1718108154882736,-1.312461556301858],[0.040751157985021734,-2.304938991380831,2.708795104071992,7.14435710292731,0.17681825785451807],[0.7650069344285366,-2.807166707243983,0.8164913499417007,5.698009031694099,-0.5594137609485904],[0.27115857773255975,-1.3910101416425154,-1.2222137194220626,1.4702361148919354,-0.43223880121833247],[-0.4283535393595058,0.05642905559917154,-1.2380143704861586,-0.8974937576014702,-0.09384936717781528]],[[-1.1193274829151227,-0.5806804413157431,-5.365134586833631,-3.550934327164795,-0.18177396129701093],[1.4917913269070866,0.9549666627876513,-5.142759406427828,-0.5219943703554948,3.182529029410214],[1.554630627480791,0.3200840042488973,-1.6048637682862528,1.8048637962624006,3.6231621014849447],[2.262623589859857,0.3224587994624231,-1.152214158452515,1.173875550366358,1.4812662194828476],[1.585110681887574,-0.6588508711893949,-1.303708490514276,0.38135111258301707,0.6083274069991391]],[[1.4638993019841264,0.40966155464313825,-0.18125725232415021,0.52143537943835,1.773501308838279],[0.4065591500129083,-1.0848364954829854,-1.749706836552,0.22986813182660862,0.2847716646780051],[-2.784879863608391,-6.091288507752022,-7.121143837678366,-3.3473422117666765,-1.9472726390965311],[-8.369782390652787,-7.172757566568024,-4.934598150923221,-3.951173154935779,1.2472734161788313],[-2.4914721848797954,-0.45048401339224187,0.8903811004964143,1.535158993566226,2.2052777730445023]],[[-0.19277274660803762,-4.353659713245934,-2.461994724810184,-1.78540794585844,1.4176828616235124],[-2.960742887863296,-5.470549210647803,-6.134862689570044,-4.791339460190388,-1.1754777257275741],[0.10080916486829201,0.9562942600091795,-1.4292792045607376,-1.1802766102590037,0.18873775282377206],[0.0590459367170597,2.8576138054424383,1.5884438776252296,1.4695829661806057,-0.3325994484624234],[-2.1168245087329938,1.601430768200137,1.4735064264593667,0.3202723964467521,-2.9526131156662037]],[[-0.569799225175557,-2.926388554211744,-2.4015708538586966,-2.976351897911106,-0.35763506886828994],[-5.216983906791479,-6.660617888808285,-3.0285204441756943,2.311670338070546,3.073719484603636],[-5.609456665195143,-2.8235178301805015,0.5508055940529122,2.3794830373795652,1.6136556589693676],[-2.1439497370677207,0.9298649018653526,1.2173095153014435,-1.1553209244029286,-0.3139130068630078],[0.735678456333884,3.3137704673765898,1.1766661769358588,-3.237223071149453,-1.8237130105569734]],[[0.6057548626358977,1.3707675736505072,3.6563095357254736,1.567340848836419,-0.5953917118070946],[-1.6044590808136425,0.24031552074734028,2.918995285893673,1.320530799010224,-0.7983214695188027],[-0.299882654975049,-1.6520490753459147,0.8922226944318667,-0.34756221767804885,-2.8932583526022624],[1.4351596057544447,0.3773651739212933,-2.79339797068593,-5.134620148783366,-5.173952605654233],[4.7824060678113725,3.358959444259693,-1.2888501592165227,-3.7324433319608494,-1.8863465332943656]],[[-0.6132366233036016,-1.739353443545979,-0.2519149022971245,0.030712267384265038,1.178901738582842],[-0.9856974191873564,0.4084264303336152,1.2993267251892267,1.9882660543060733,1.2344165668152163],[-1.8363449202632764,3.5248023720856465,1.9016930121663262,-0.28761603708605193,-1.1978807879615907],[-1.323863340493102,7.5435070099655634,4.6522699817127195,0.4300794067685615,-0.49554221957529726],[-3.0726923610258647,6.504704578368979,3.460170773820961,-0.85237969810673,-0.15718651491136243]],[[-0.7346932146424732,-1.7351966632227618,0.319151162659254,1.0709833451510682,0.10855381093320414],[-3.2582214777862353,0.2094502004806758,-0.058770464204686235,3.2950386919840264,0.7194974507454498],[-5.1881943163772535,-0.10607729584628771,0.917633649775356,6.120278324184747,1.6845395212198981],[-6.571331671203171,0.143071164894374,5.4490891166294135,3.3560839144444436,-2.305688511694215],[-1.2788186605106735,1.4968841668621913,4.208470641364164,0.4834496596481061,-1.6199794769283944]]]],"maps":[[[2.232519684964897E-10,3.7132796875074645E-11,2.772914097281686E-9,4.081737640683345E-6,7.459737411554724E-6,0.0022046778121271324,0.026570159686542506,0.9999989040888009],[2.7561671471241556E-11,1.1964892535861893E-8,0.004054387749195684,0.4014078957082305,2.9215570004401973E-7,7.23472256632308E-9,1.6442068535717222E-8,0.9999941413591575],[4.142839692705865E-7,0.004892050756090623,0.026867668848206214,1.6046107363789518E-8,1.1751894757916909E-12,4.277902384954645E-9,8.03404970028725E-5,0.9999998838398443],[0.01274099374864242,8.497517442763113E-6,8.034659834006494E-10,5.917384065545102E-13,8.338897871330265E-8,0.020036230678625658,0.2864733470345018,0.999981753019944],[1.3524694134033776E-4,1.3489408196109455E-11,1.9070236950423728E-11,5.853263945902106E-9,0.006448269966786101,0.21837875314924793,0.044188758821505934,0.843729328807577],[2.1608912526127356E-10,2.544001656536355E-11,7.424801797127741E-10,8.845615103285866E-9,0.008578272733035337,0.07597895835546016,0.012096643664810986,0.017646682962598824],[8.349427413386658E-13,4.2931309008581276E-8,3.683610903363528E-13,2.9527522855199706E-9,0.00938145914080623,0.013214724094953247,0.03461666435952558,1.5053120231417329E-5],[1.810344164968821E-8,1.745374374221849E-7,8.205875749503619E-15,3.5945800725447583E-11,2.8017615683853436E-6,7.135620102566002E-6,2.0836336680829084E-6,3.749261574470392E-11]],[[1.76784822740478E-19,6.546376777527996E-20,2.873598318252925E-20,1.1396689353407023E-18,1.2563245290592542E-12,1.6817644683032185E-9,1.9409493447339037E-7,0.0013813886217046347],[1.9250305537065966E-19,1.2005538366580369E-20,5.528651067269819E-16,2.562891440499806E-10,2.058891733185751E-8,1.3679520066857686E-9,6.734525383044179E-5,0.9998216808126952],[2.904058633426499E-19,1.908676483603952E-13,1.715373303881748E-4,7.941771813592877E-6,2.611841054427615E-9,1.5536413529323224E-9,0.13960492068578553,0.9999999993168192],[2.0365135317927818E-11,0.017400139982485168,0.01928369165362706,5.605113607453584E-11,9.2101528147845E-11,1.5444386673173237E-6,0.9981800360484285,0.9999999140248189],[0.005137637021379917,0.0108624839451026,1.0712508461073959E-12,3.6997455713031874E-15,9.91642501080376E-6,0.0013886638076845868,0.9787058638518656,0.9512984964446835],[0.007435430712977078,1.3200388503338344E-11,1.0665069209117578E-15,1.1070128483311959E-7,0.9877506841284446,0.01913851522353426,0.9139440250451186,4.6883768347637066E-5],[6.090557968588432E-10,3.243652443259437E-17,6.204512405687055E-13,0.12714483520557632,0.9998482070462654,0.22169337959651292,0.9119831630033143,1.1629295322454787E-12],[1.769529942305965E-14,3.1526415424521606E-20,3.9828513118266E-15,1.0827080826158214E-4,0.06481058898732485,3.687833935928025E-4,3.801170493491005E-7,7.55197719759286E-19]],[[9.203561601421725E-12,3.568144092218188E-11,3.439681100815424E-9,0.005189215164361765,0.9999998981587167,0.9999999998430629,0.9999976192916807,0.0159137832987085],[2.7783814478563988E-12,1.551915376565678E-10,0.002016597972127811,0.9999999130719393,0.9999998444671656,0.9960179819471696,3.330566466172607E-6,1.3078408840296777E-9],[7.654522784769168E-12,5.2938751074041035E-5,0.9999950067755602,0.9999350180478298,1.7774104497179098E-5,1.7251638029680427E-11,7.330599915852769E-13,4.5867186849442036E-11],[0.011611726262737921,0.9999679022074697,0.754885273306685,1.007057692752762E-6,5.295287803503698E-11,1.1044891920292029E-7,3.9683479110810216E-8,1.2014659411095891E-7],[0.9999861412921677,0.10393154411409637,1.3379014816649506E-8,8.735747601947296E-11,4.9605203935469386E-5,0.004510409448234999,3.553584884341566E-5,2.840165419675333E-7],[0.06365166761418398,5.02152161796939E-12,2.7262107485248206E-11,1.1996761884912782E-6,7.471735619434913E-5,0.0017948441005036573,5.3431820861229E-9,1.5269092921456646E-8],[2.2761156079038895E-9,2.623737834853361E-13,3.242744290254326E-10,3.189083380735704E-11,7.27839404678888E-10,7.115334661825865E-9,4.983235746161099E-10,1.2761703983172767E-6],[3.190724044911748E-10,2.600000683554282E-10,2.7022480057844485E-15,6.0862711048699965E-15,3.402905340230119E-11,1.2401073320435778E-10,2.7680214376036743E-7,2.613745696517089E-5]],[[2.6400039926614457E-6,3.4843018952267647E-6,1.5194167632272931E-5,5.118882798479767E-8,8.56578851600876E-9,6.007091849870121E-7,1.5547514509531135E-7,8.311845997094949E-10],[6.739062316520738E-7,3.773470592928341E-7,4.7157882672791075E-9,2.413907145874334E-10,2.3090577007864912E-4,0.9995209104597202,0.9981172491165357,3.840014224857276E-6],[3.791795670362539E-7,4.142475136647799E-10,4.9524249453074715E-9,3.412889665984186E-4,0.999997701848717,0.999999807961204,0.03326707869095142,3.824631513771518E-14],[5.263294496531481E-11,3.3998502757146846E-9,8.499343058461759E-4,0.9712857578290104,0.9976323650678386,1.8712366937850564E-4,1.9028346495507703E-15,2.5370569838819304E-21],[3.694175906884947E-13,3.7675823860069603E-7,0.7103370395692336,0.12155978612161335,5.897892375914701E-6,7.642703497849393E-15,7.034424757070065E-17,6.799941084626307E-18],[1.6795709430114726E-7,0.33203699435097467,0.49586848881305834,0.0016464377056571128,1.456654494680571E-7,6.963146645070338E-11,1.3400490327959552E-10,1.2941141561970796E-14],[0.07434879120535703,0.7196842829368468,0.0051432314331362385,3.100075949628368E-7,1.1100332309266512E-9,4.4587962923375925E-10,6.3968443233506626E-12,1.2682708955019E-13],[4.841287224524766E-4,2.3603895604351792E-7,4.025759824775513E-9,3.9343005961548206E-11,4.61253641660996E-9,1.478503434915696E-11,7.555456014568216E-12,9.213070566913381E-10]],[[4.563119162252634E-21,5.194680755696152E-21,4.011871316995607E-20,2.1310929001557185E-18,3.947657646913494E-14,3.9821778113082584E-8,0.9999651772115481,0.0016350273675078148],[1.4058964307588275E-21,3.0681135704049678E-18,6.342624269769736E-17,1.3617522536753073E-13,5.905682655422682E-5,0.9975980693298296,0.9999999954604544,1.475931285026724E-4],[6.338658180529081E-18,6.726094813392773E-15,4.968273704123242E-13,4.117398567791011E-7,0.9985212140206445,0.9950140439381033,0.9914246921225919,7.304370956104908E-9],[1.0262732568955186E-15,7.659330624301905E-12,5.218692168888046E-7,0.6398094286262803,0.7560144734373525,0.006936178563687809,0.173215112536834,2.0249002794861635E-11],[3.0621477668265422E-15,5.914022432796312E-8,0.8108290803493831,0.9921640726480708,1.2152565536588605E-5,0.8234159703751416,6.313433479060813E-4,1.354430599764441E-13],[1.7863936904397487E-11,8.337870342919898E-4,0.9022475585566138,0.03668190889656604,0.026845469049285985,0.9997048883998297,6.233083593722049E-11,1.1685541459207674E-13],[1.7095919344014016E-7,6.818099681788132E-5,7.205545440583982E-5,9.290460316745471E-4,0.31780358807835835,0.013852225130880616,1.1139742434230973E-14,2.896236866978543E-11],[8.61853635633568E-11,4.9612711654287727E-11,3.1144256380554674E-11,2.0495380075511963E-9,2.5373049197901027E-8,2.0337649152238153E-12,2.8452842501314866E-13,1.8825709386552553E-11]],[[6.024643928383389E-11,8.282163442333451E-11,1.698785335056851E-10,1.261430201594043E-8,1.3211382857457207E-10,1.3439442019580931E-11,1.1852261028182484E-13,1.468680559108857E-12],[2.9894174646864896E-10,8.576539760603803E-11,3.863402115087936E-9,4.904650504829621E-7,8.543726966413986E-11,1.2487298180979392E-9,5.65168881521949E-14,7.157021896291728E-13],[9.916651585156385E-9,2.2162990049493132E-8,7.840928291771254E-9,3.502168751153224E-10,5.776051698920689E-9,2.3449805127478057E-8,1.3334386323239606E-12,1.2289282034447957E-13],[2.483533452822597E-8,4.0055807860439854E-10,1.6873159765561642E-9,2.2516547240475216E-7,1.3064613384678147E-8,8.664302227875462E-5,1.6016560436595512E-10,2.0323266241625905E-10],[9.907728064706559E-10,5.053251817635742E-12,1.015153574057826E-6,5.64031001397503E-6,2.7123335686816554E-7,5.6944589422406955E-5,1.2608992185776035E-7,5.507439357727114E-7],[6.529739100834079E-13,5.947664718024895E-8,1.3588088018956344E-7,7.231663947681137E-7,4.6917924208349626E-5,0.47282389958119675,1.3305009246534992E-6,1.1386267728503983E-7],[7.469387547074582E-11,2.7502045457396937E-7,4.6835708267569525E-8,3.7060426971906165E-9,0.8429377643779368,0.6910000311027981,1.4938746536850408E-9,1.0764838971906064E-9],[1.883016868391678E-11,4.6156780165042854E-7,2.053231442067949E-7,3.3210484483275426E-6,0.9173807956460777,4.539980081754866E-5,5.32925083820066E-11,6.4308259122470754E-12]],[[2.0868553183775234E-7,5.139680721340538E-8,5.595865709070196E-9,4.1276462506301354E-11,2.0373301679325077E-12,7.899709833540678E-9,0.016327427979974912,0.7266173399755749],[6.216994320771177E-9,4.752932353875315E-10,4.775336008396744E-10,3.526694470933268E-8,7.267242449839301E-8,1.345590347799328E-4,0.994852988908658,0.9999575690625169],[4.76328223806854E-9,6.513688683386892E-9,2.0369022055311894E-7,7.358371691916886E-8,2.2817158272777576E-5,0.022580465971895506,0.9999185928768911,0.9999957420200064],[3.304486436845974E-7,6.484635732048885E-6,3.540271722292333E-8,1.4021138526296215E-7,8.747672680027814E-5,0.9713159659006011,0.9993851234706987,0.8754329633163004],[4.42478853437275E-5,1.0173167680928999E-8,1.352862946906602E-5,3.695626604434906E-4,0.32986310727587037,0.7402069843219177,0.7836750710280127,0.002848924815762443],[2.672481962302348E-6,6.486741455150201E-10,0.44507781782979977,0.9974561356943634,0.1776458896897495,0.16836653865998363,0.04222108713983592,1.2391848752668786E-5],[2.4778555936624966E-8,2.1542059067329728E-7,0.999897973437956,0.9999985566847837,0.9617133044789137,0.046110987832282305,6.849209816183083E-5,6.521887800176996E-6],[5.122622146696777E-5,0.004949830273475846,0.9999899305334249,0.9999998372001452,0.9589618494049098,2.0503297543035663E-6,1.4736585347737774E-6,1.8511484908333887E-5]],[[2.8227895418518366E-16,3.434664513550127E-21,8.159455894635851E-21,1.4852713126119278E-17,9.361010764651577E-21,1.1437437130881954E-17,1.0199584422437375E-15,0.001171077743423939],[1.0091128404544382E-21,2.1740765560718176E-20,8.893827674332788E-17,2.809881322272512E-16,3.838834698796226E-21,8.573386672443731E-12,3.1743266585401656E-8,0.9995884256207175],[2.436416061676354E-19,2.3446316253244806E-16,9.288313460891156E-18,4.339427464110647E-19,1.2823788380478782E-13,3.4830967436144145E-5,1.8927782051676373E-7,0.704104833852478],[1.9070872344829314E-15,1.4612868334484488E-21,1.8124761193790817E-19,1.0474710993741962E-8,2.0671996851450894E-6,8.793358714045345E-9,1.6669365369520106E-12,1.9870918848929732E-4],[1.7844565445147613E-19,2.1218226003211942E-20,4.066640160730812E-7,0.01611510027881159,5.5316266712257205E-9,4.632388103700452E-15,4.995650397558962E-13,0.5132882344760743],[4.255434757812735E-18,3.201351136731477E-5,0.9994851224066802,1.765625982115872E-8,4.47750437762176E-16,8.768304251721382E-13,3.3596423691754785E-5,0.9999974344504454],[1.5350965565409379E-4,0.9999948242096698,3.3571453682808865E-5,1.3112732997728495E-19,3.2585489903664152E-18,9.119562542531062E-9,0.839073335430235,0.999999997210042],[0.997273562386024,3.3260382532538204E-4,5.241808025310433E-15,1.835013996004014E-18,1.7182695359557764E-18,5.5758379413494996E-8,0.9999997142095602,0.9999999996554525]]],"bias":[-9.098405291134473,-6.313984176443746,1.3928627754078853,-3.110263585474966,-0.3862625038649633,-1.7673009226928489,-0.8278960017740853,-6.49452606363889],"errors":[[[4.509342147301278E-13,7.500246790869784E-14,6.3836598559420125E-12,9.396727602064329E-9,1.6616631695100135E-8,4.900149027372759E-6,5.7010747226284924E-6,2.4156432821024885E-10],[5.5670284869903095E-14,2.4167219635169658E-11,9.295959592778412E-6,5.531593002266743E-4,6.507840951681112E-10,1.6115529219128334E-11,3.6242183954829973E-12,1.2913746114288378E-9],[8.490657799730821E-10,9.977104911738593E-6,6.68071071911986E-5,4.100062386620139E-11,1.8423987485203395E-15,6.7066648646726064E-12,-8.827732897738862E-8,-1.2764584952791142E-10],[2.5779696253868245E-5,1.741533221263109E-8,2.052996800405934E-12,1.5119956306890674E-15,1.307327374651057E-10,3.078235050641833E-5,-2.246177049485824E-4,-2.0050842965719043E-8],[1.1685442706225907E-7,1.1656531886890063E-14,6.872562517061413E-15,2.1094086175729618E-12,8.200012779244013E-6,2.1846786879352057E-4,1.0222946520605398E-5,3.191337791162973E-5],[1.867279677424523E-13,2.1983348712003173E-14,2.6757619542584023E-13,3.1877969015618495E-12,1.0885267746454707E-5,8.985785140697222E-5,2.8924875634670177E-6,4.195878955417876E-6],[-2.653109862642613E-16,-1.3641830609169872E-11,-5.247503601024131E-16,-4.206355831801926E-12,6.434671753861822E-7,9.028805857462469E-7,-8.99842537370311E-6,-4.053232321518294E-9],[-5.7525404247577216E-12,-5.546091880032277E-11,-1.1689715248093563E-17,-5.120674351613409E-14,1.9399007499992593E-10,4.940582722571233E-10,-5.610505154185271E-10,-1.0095486331994988E-14]],[[1.0024616245782755E-22,3.7121351243686897E-23,5.6056303268438515E-25,2.2231926800373997E-23,5.023909927556807E-16,6.725199579004376E-13,4.617089260552926E-11,3.2814794133095153E-7],[1.0915921549806647E-22,6.807762854488145E-24,1.0784936047731056E-20,4.999523380959789E-15,8.233291769690796E-12,5.470296486659762E-13,1.601887082379696E-8,4.241063548064271E-8],[-9.11739780502207E-23,-5.992359307694755E-17,-1.851950221892452E-7,-8.57549349586574E-9,4.5103971782854506E-12,2.6829885263767E-12,5.7259120028286994E-5,3.2567296356807986E-13],[-6.393708374399824E-15,-5.367783160955946E-6,-2.04210816667201E-5,-6.052427360915201E-14,1.5905044183923068E-13,2.667092262325611E-9,8.659995985541404E-7,4.098444771221592E-11],[-5.970164146117534E-6,-1.2550056318028466E-5,3.5213888705715092E-15,1.216171070117509E-17,1.9004040952175516E-8,2.657594650130836E-6,1.1371046987173673E-5,2.5278273995704053E-5],[-8.620347088262073E-6,-1.541865767082472E-14,3.5057947588436855E-18,3.6389444230770244E-10,2.3187520199058288E-5,3.5975849332838584E-5,4.2912998795756895E-5,2.557940197687166E-8],[-1.2864882833349133E-13,-6.85145907407331E-21,1.1646699501004777E-15,2.0832247294006655E-4,-1.6444763307708774E-7,-1.8695857600254436E-4,-2.299066758994351E-5,-3.330829509662436E-16],[-3.737719189135304E-18,-6.65921977806877E-24,7.476344530077383E-18,2.0321678109188188E-7,-6.567309620082719E-5,-3.994414312324171E-7,-1.0887199686007134E-10,-2.1630157123535527E-22]],[[-4.150510082283353E-15,-1.6091181512938988E-14,-1.5417818506829834E-13,-2.3139124014736982E-7,-2.28198640548524E-10,-3.516534964093635E-13,-3.0514794704779067E-9,-2.0072981566390783E-5],[-1.2529606158174386E-15,-6.998638891438565E-14,-9.020848617411178E-8,-3.8964104886814775E-12,-3.4850679718693486E-10,-8.887091214812909E-6,-4.268958721564626E-9,-1.6763326577359745E-12],[8.597634975622342E-15,5.9458175987050116E-8,-1.0980211493746506E-8,-1.4288818449889672E-7,-1.31905676989211E-8,-1.2803060998517225E-14,2.341557589315999E-16,1.4651005469658704E-14],[1.2890959853942244E-5,3.6051397793155346E-8,-4.0689480409995593E-4,-2.2145510709979363E-9,-3.9298235120574E-14,-8.196810593769466E-11,1.267579039391684E-11,3.8377505074576454E-11],[1.8509705248889362E-8,1.243859569186056E-4,6.574193763357828E-12,4.2925805041240535E-14,1.2547456325092494E-7,1.135802155266754E-5,1.3617205410785844E-7,1.0883792169395975E-9],[7.960310539698097E-5,6.706842680804845E-15,1.3396081987700445E-14,5.89497393365743E-10,1.889900948020221E-7,4.532069254360052E-6,2.0475602988380663E-11,5.851267587551447E-11],[-4.80847939643507E-13,-5.5428596444934496E-17,-6.596468451018124E-13,-6.487310139767505E-14,-4.548367631164663E-14,-4.446469570895431E-13,7.743184634281147E-13,1.9829706874447334E-9],[-6.740664141318939E-14,-5.492712979683301E-14,-5.496977907365606E-18,-1.2380839112506177E-17,-2.1265219240207433E-15,-7.74959972678498E-15,4.3010799072514356E-10,4.061254086224941E-8]],[[3.0587920842818877E-9,4.037018916505389E-9,3.557399548799419E-10,1.1984984998771224E-12,-2.091701812371316E-11,-1.4668862587096135E-9,-2.698145249313762E-10,-1.4424537918568866E-12],[7.808105993250027E-10,4.372072212107415E-10,1.1041208891147172E-13,5.651749325900686E-15,-5.637245149537422E-7,-1.1693405280803754E-6,-3.2612105840438073E-6,-6.6640091935839775E-9],[9.558219871071667E-10,1.044220380151497E-12,7.912714062347664E-12,5.451067689355758E-7,-7.900250548026034E-9,-6.60164458992762E-10,-6.921442643216724E-5,-8.231235923550837E-17],[1.3267525333784803E-13,8.57022147304523E-12,1.3568244222124036E-6,4.456069453782035E-5,-8.119859556947578E-6,-6.431476682375049E-7,-4.095213059758263E-18,-5.4601638120249056E-24],[3.589375485199089E-16,3.6606981098544817E-10,3.955666984809067E-4,2.052884109032547E-4,1.5506872368981098E-8,2.009448784934749E-17,2.6886553937096652E-19,2.599032459009978E-20],[1.6319227638068543E-10,2.15496492062792E-4,4.805877003535482E-4,3.1600355762806124E-6,3.8298910573410954E-10,1.830777102398669E-13,5.12185457063603E-13,4.946285057123129E-17],[-1.687642218443998E-4,-4.947075790826333E-4,-1.0254335533199158E-5,-6.21273882924399E-10,-2.7580865206526445E-13,-1.1078718742621591E-13,3.880607613766563E-15,7.693890056802425E-17],[-1.1866144717577795E-6,-5.788188677048979E-10,-8.067867510311777E-12,-7.884577685610501E-14,-1.1460714974715882E-12,-3.673620109230151E-15,4.583472514494483E-15,5.589054531921999E-13]],[[2.441575076969544E-25,2.7795029266033537E-25,-8.009945000705068E-24,-4.254856542712746E-22,-9.287102027054984E-17,-9.368312416778749E-11,-1.2571092114031991E-8,-5.893034039043741E-7],[7.522489691999736E-26,1.6416467246309608E-22,-1.2663434977530297E-20,-2.718821167148578E-17,-1.3892653111013673E-7,-5.63711379716604E-6,-1.6388415698451407E-12,-5.327538816208892E-8],[-2.829528093302619E-21,-3.0024768161773955E-18,6.10997539498955E-16,5.06356837013205E-10,-2.745521524332374E-7,-9.224437444515031E-7,-9.625918530536446E-7,-8.270191138563059E-13],[-4.581204616319381E-19,-3.419066079909734E-15,6.417936290249018E-10,2.8341114462599744E-4,-3.429702158119068E-5,-1.2807361195797071E-6,-1.6214779201640952E-5,-2.29264266156501E-15],[-3.274062374768458E-18,-6.323299415983718E-11,-5.3421689216134104E-5,-2.7077453749400164E-6,3.159787467402879E-8,3.78064489596261E-4,7.308557871518978E-7,1.5689066858367676E-16],[-1.9100202908723303E-14,-8.907455924404979E-7,-3.071759808172847E-5,-1.2307095464753467E-5,6.79278679639122E-5,7.671022824257949E-7,7.220101587089465E-14,1.353596420972955E-16],[-2.7419266722284094E-10,-1.0934456091995408E-7,8.461702295216645E-8,1.090073395341592E-6,5.220188073413698E-4,3.2891180676140973E-5,1.17909195484662E-17,3.0655372951820515E-14],[-1.382283004116393E-13,-7.95712929376268E-14,3.6576331139990415E-14,2.4070114174787564E-12,6.109287644580847E-11,4.896871119777714E-15,3.0116062273324155E-16,1.9926172092936146E-14]],[[2.5867249491722584E-14,3.556007469253269E-14,1.6423492851963377E-15,1.2195236922400756E-13,-7.454246933805514E-14,-7.582924555233792E-15,-3.3341741127992995E-17,-4.1315633266108215E-16],[1.2835282598394166E-13,3.682400095254856E-14,3.735054422572312E-14,4.741708758084155E-12,-4.8206195545750364E-14,-7.045697265566804E-13,-1.5898835248815793E-17,-2.0133506235306633E-16],[7.893718537458258E-12,1.764188262080103E-11,5.330574186224143E-12,2.380913303356061E-13,4.624456552437163E-12,1.87745208511233E-11,1.43923505075312E-15,1.3264326549294402E-16],[1.9769085960242235E-11,3.1884681369968763E-13,1.1471043617910552E-12,1.5307638959574864E-10,1.0459867688298472E-11,6.936263722017083E-8,1.7287331123006046E-13,2.1935735478019191E-13],[-1.046946936215852E-12,-5.3397574893700436E-15,-1.1025092613841244E-9,-6.12563992765293E-9,5.207590122644695E-10,1.0932551906048903E-7,3.6240549245337795E-10,1.5829381092547317E-9],[-6.899957596765462E-16,-6.284880801454091E-11,-1.4757379021885815E-10,-7.853963192658023E-10,9.007664999104818E-8,4.7857383098271844E-4,3.8240983494991686E-9,3.2726215965654476E-10],[-2.4125736525029003E-13,-8.883016391831611E-10,-1.680965240273894E-10,-1.330123841844008E-11,-2.9872692631378848E-5,-4.817742533220138E-5,2.4152015738708437E-12,1.7403907331938099E-12],[-6.082047364021593E-14,-1.4908395048245436E-9,-7.369185318242044E-10,-1.1919428425206114E-8,-1.710163909530867E-5,-1.0243333544918258E-8,8.615993985015074E-14,1.0396950540219654E-14]],[[7.63684924733064E-11,1.8808670000439568E-11,1.6368841858619487E-12,1.207405477773867E-14,-5.537338251496691E-16,-2.1470925910800976E-12,-3.225055093735242E-5,-3.9888299480997326E-4],[2.2751101906291654E-12,1.7393364603265436E-13,1.3968655505188825E-13,1.0316170073909294E-11,-1.9751917146002174E-11,-3.656739797562796E-8,-1.0282123418561631E-5,-8.519870599527682E-8],[4.600946371444325E-13,6.291697775238463E-13,2.404224080103122E-10,8.685334360065405E-11,2.4189355385969534E-8,2.3398421699050244E-5,-5.661488955362364E-8,-2.961456655505042E-9],[3.1918662740452575E-11,6.263594391505586E-10,4.178702312819677E-11,1.6549621736239093E-10,9.273147795817108E-8,2.9537477735495005E-5,-4.273900521527907E-7,-7.58454691127012E-5],[-4.741650689601359E-8,-1.0902157513470902E-11,4.743524575279306E-8,1.2953310749629722E-6,2.9104511754132024E-4,2.531883361186402E-4,1.4312187304752676E-4,2.3983102280194418E-6],[-2.8639793081362644E-9,-6.951569067258129E-13,8.660067232277265E-4,8.89694643513634E-6,1.9234330567822683E-4,1.8435324377627155E-4,3.4139573578999244E-5,1.046150415374492E-8],[-3.689098389593554E-11,-3.207239375313216E-10,6.5264174893494E-8,9.233502570592163E-10,1.259742465650123E-4,1.5048407158767613E-4,1.4195411210305277E-7,1.3517853785376498E-8],[-7.626307829492195E-8,-7.332963814642078E-6,6.441811353678899E-9,1.0415013891868575E-10,1.346410133442108E-4,7.014732021046067E-9,3.054453216294691E-9,3.836811576110219E-8]],[[1.0170930559933389E-19,1.2375607088677302E-24,1.2368764524968292E-23,2.2514946288838764E-20,2.446875979879614E-25,2.9896333729918446E-22,2.6140406578059565E-19,2.997827903990217E-7],[3.6359836520670927E-25,7.833521187441836E-24,1.348198478550365E-19,4.2594458340222823E-19,1.0034335662429396E-25,2.24099880261419E-16,8.13544781778328E-12,1.054385468267784E-7],[4.448008597448416E-22,4.280443636591856E-19,-8.739346576255252E-22,-4.082954425586842E-23,-7.91050343771952E-18,-2.148514015317997E-9,2.1003243153247409E-10,2.3118620298754027E-4],[3.481646894589799E-18,2.6677776840974902E-24,-1.7053534029761573E-23,-9.855624391552543E-13,-1.2751736013219488E-10,-5.424285839806048E-13,1.849719102735389E-15,2.2045419060742276E-7],[1.910031325601161E-22,2.2711383173996188E-23,3.875983846813776E-10,1.5112060979274548E-5,2.2234552497271116E-11,1.8620034064300095E-17,8.208044488692822E-16,4.1046942953896104E-4],[4.554895840113902E-21,3.4265251355058444E-8,4.904861133289427E-7,1.6828487837380587E-11,1.7997473909358226E-18,3.524448301787076E-15,5.5198353326803475E-8,4.215285134146266E-9],[2.896420619194844E-7,9.767131470001699E-9,1.0405383582940195E-8,4.0643934783232285E-23,4.8850371200163564E-21,1.3671545606345007E-11,9.787951594572861E-5,2.022374374550215E-12],[5.131005465521701E-6,6.274445831040724E-7,1.6247391261901371E-18,5.687768460840727E-22,2.5759350220459277E-21,8.35898858064077E-11,2.0716264886891897E-10,2.4975430786231767E-13]]]}