{"channelSize":0,"stride":{"x":1,"y":1},"padding":{"x":0,"y":0},"layerIndex":3,"layerType":"convolutionalLayer","mapSize":{"x":8,"y":8},"mapNumber":12,"kernelSize":{"x":5,"y":5},"kernel":[[[[4.350560544176436,2.3900418015806224,-0.09043833313592566,1.018921402186276,1.8842244592574944],[3.369344001477176,2.3877134461816127,2.5594806729842885,-1.822976023876029,3.316390846494503],[3.6276628055928914,-1.0901151900897519,-8.604984252067347,-10.504253642100423,-0.3239273673838034],[7.711122626714507,-0.044061561977310135,-7.343054387510346,-3.6342157110040505,-1.0848569084137225],[3.9948058820804015,1.8369365126169794,-2.628522109144896,-2.6629365571101564,-1.9438791557214286]],[[-0.4407155596114673,-0.81214028863438,-3.738188704736477,-1.7171011621565566,3.436156023464866],[-0.485968789074758,-1.5904663151474083,-2.6268585395861668,7.3787071408357185,1.3033511022774749],[-4.649015360701233,-9.037351304211011,-4.718731055271808,6.310675424629905,5.171805518737696],[-4.35810297402008,-9.888723064970938,-5.606365653443988,3.365120399457182,2.826545412807644],[0.3440666374358852,-3.263836189044777,-2.3808394626338774,-1.6003258735138273,3.5432027263964683]],[[1.2428102082165022,1.8177035775639279,-4.336674449202578,-5.661941329069781,3.3666503568987713],[-4.756264183581181,-7.239690993190026,-7.077085063113677,-8.232849386860538,-2.030445082666191],[0.48795769374098535,-2.6121276386817973,-7.28815748831212,-8.134463042719165,-8.328726384491167],[11.620994300519689,0.5266223908422399,-1.7906675941117636,-2.6172927853483237,-9.011994645739936],[12.108472582843737,2.585374177251699,1.219671514418002,-1.7669731180430368,0.1694501298033737]],[[0.6632179750536871,-3.2988721859496812,-3.2102543011130154,1.1496184789164787,0.4549588753918892],[-4.486274605082398,0.5016619544961163,-0.20570482571991416,1.280270281415234,0.25377195817195436],[-0.2872866615929577,3.040297530945278,1.232858266795845,-3.1710877371548563,-5.956650319346315],[-0.7139769936781094,-1.5019629034293955,4.59441829995316,1.9064535197773513,-4.058778979684138],[-4.377428627505611,2.117221918271531,12.051857742493775,1.9548222084923481,-8.110903737066485]],[[-1.3685959937405632,0.6612380409753883,2.3232143431084715,-1.0618123836266329,-0.034579575663438486],[-4.7682636020681715,0.5610728166384776,-6.05908043006462,-3.5849772782354066,0.3060067016086801],[-1.1634873891465278,-4.643622433893326,-8.785753484320457,-4.936034847824149,-0.6186718050456868],[1.635475460651303,-3.2693199497090406,-5.9701943485741475,-3.004375214533013,-0.16998197350433544],[2.1706657540581484,2.1556647284869612,0.5882236159955844,-8.436054473734439,-4.87955296398506]],[[6.138173509207179,2.8186459520626417,1.3156829228505875,-7.841297610631046,-4.2118354178134005],[4.428123095541065,-4.177379088828605,-1.9453089144159887,-6.193407440500046,-10.293737798304239],[-2.961204112899881,-1.7380500838785697,0.08451957972344158,-3.1027561436464732,-5.884909089162819],[-2.7827204604905,0.12969850929950982,4.400665320874868,5.7435236480193215,-0.3552365989398971],[1.6360087408457795,2.5866308989625004,2.7809847294458465,2.974281856748413,1.9856656643056463]],[[4.011782260432193,2.19111370927781,-1.4633057418758582,-3.87586724361918,-8.36265959279173],[1.6313087354997702,5.6120998270192395,7.8280544353073696,-2.5461931175336145,-4.609798405131118],[4.483737478071475,2.142296669358221,0.6922590479541019,-0.5348986629934176,0.1720388152774202],[-7.439830576038823,-3.759862433575219,-2.615689094145976,2.955099758691456,1.3013615568778731],[-12.20035691380696,-7.09341971208737,-1.9172040989453578,3.931994131312389,4.822474429823381]],[[-2.706100789781474,-1.9636516248536597,-4.37817098359014,4.068486395938729,3.7228898165653272],[0.5454343539588739,-2.9368390873742243,-5.628469973534495,-1.262103728548097,8.78662613126425],[-2.011272247415826,-9.75172955289383,-5.720107576560457,6.078673388819145,0.10233537413153654],[-6.620713086884079,-12.050212906571893,-1.247755444661338,-0.3538190507892804,-0.09601633207826471],[-8.186618148330718,-5.616314137528049,1.060261043911231,3.9749101120781827,5.91102563325137]],[[-3.064215836888999,1.3895385813091923,0.7181870998683458,-5.5138983853456285,-2.025922327208411],[3.474402822400638,-0.9435612691948716,-0.8845863327375684,-9.32930914745615,-6.187163939551576],[-0.8902210473680473,-1.6634787943443035,3.9406854930299064,-9.665451191634247,-9.781755856231436],[-11.02514447645938,-0.5602317355460716,-6.694020411594176,-9.460037963913766,-5.964225470384249],[-8.25261017717452,5.0687789161143,-1.646040737093692,3.8473203053868406,4.384969809511793]],[[7.498975915997407,-0.3910551521217423,-1.1292715697844626,0.6054141276397337,1.305530312584735],[-0.08979022587313928,1.5632097738286204,-3.080342383135001,0.2713891694302332,-2.493276633525796],[2.3485932853867784,-2.6680564672497904,3.1112293881836135,-3.8915599817190465,-7.22992209631651],[-2.2227855714656495,9.394412107434325,-1.3252150162007894,-5.014725707763969,-1.5490970213536703],[-1.6501441050971934,2.9211958084423935,-0.1127634542376172,2.1334880861504275,-0.24665120190314482]],[[-1.1876724009913218,-0.2174005919959708,0.08591427332317556,-1.8619967910916972,3.589941266721965],[2.6825736153565174,1.318970023234704,0.5295976466188111,-8.909290571043748,-4.699856981571812],[6.3900385207206645,9.710586664652709,0.5919129901650035,-6.399776996123321,-9.524727964112392],[7.993967373704619,6.531664848901679,1.6221806668921082,-9.78884710472915,-5.130869290725259],[5.071694245637961,6.122473752864732,0.18146708130938807,-5.7492437831772865,-2.7532326976993766]],[[4.399671193637773,-5.351842393627847,-2.9448532691829254,0.9115863704920698,-3.6261467407766106],[2.570914996772451,-9.601323963657194,-3.052320791018976,5.523393958014548,-0.20430395404025178],[-1.8028784701356313,-8.6936970262607,-6.150276286123401,-1.291263239788078,-0.16628404819452955],[-0.8330895743673681,-6.517613441230217,-9.977906733270709,-1.9713870038514996,5.91480192683231],[-1.19210902891263,-2.0934117846563938,-5.4154744360292355,1.0655981088072273,2.139422241563287]]],[[[-0.616798752264305,-1.8144639958735918,-4.7923700661528095,-4.714346061112014,0.06800292262484776],[1.0433390863245746,-1.8554448904775147,-4.305954045656219,-2.1439609617333995,1.9987860555058807],[2.7941855248160152,-0.21412247833414927,-6.308029152963283,-7.851149629177446,-0.9658220520198557],[8.831446508853709,3.143001232089656,-1.950424711656011,-5.129405581045529,-0.954272064963169],[5.729065972623648,6.068824972146127,1.4492522456918668,-4.135263810004467,-9.526733107747082]],[[0.23025390351919278,-2.6191042214751428,-3.0980490459049306,3.6833090334546084,1.3070598103800162],[-2.9089323880006863,-4.7466817674962645,1.8081568618294852,5.894099713384365,-0.8547170949767965],[-4.68360018740083,-6.451041984913636,0.4349895212606681,10.227036082288565,0.8591713567997522],[1.9780014061390174,-1.8636138381910137,4.505737480532964,6.35111358979407,0.369534795387058],[-1.4989978221658706,-2.8983488721604393,3.1175626871286894,1.13501977305249,0.5000858910790582]],[[-2.83803666108768,3.367397889520515,7.918622894104683,5.54584586942645,3.9057663755539997],[-3.8798174319909347,0.2040214091304053,0.761173550527384,2.3038110047578884,6.792124081237841],[9.35482181066951,12.36205076044416,-1.680384889375889,-4.759256512308731,-2.072141435937864],[3.699562242027819,5.087861694362489,-1.4025712886908215,-8.078501242702156,-7.194199566030258],[-3.269834953860137,0.25056356025158677,1.2463152533211033,-1.9896357390307058,-5.04133998236437]],[[-4.659602135141805,-6.288030683491494,-5.297922614610311,-3.42278162656038,-2.646481686007303],[-10.102651891992318,-1.178247848280344,-1.4165082086388718,-2.850852408268546,-2.5343411920501726],[-2.4899867489271754,0.41771172634277837,-4.112548335219736,-5.911227282778557,-6.708959217921801],[0.22902452218169395,0.5079261873114735,-0.2539899180101984,-0.7101129054521381,0.8006618901965301],[-1.8568677542878258,-0.259403540516895,2.3297690737198713,1.1464861362473207,-0.7803584799900621]],[[0.06309717850561178,-0.5538201560724693,1.5245880781719654,3.687330501992249,0.08584352988755037],[-2.522181734895897,-2.529297363699443,-4.621613586660836,-1.2829534814148358,-2.225324700994943],[0.9820890211138131,-1.3302339227883053,-5.701877926915047,-8.976515213014446,-6.752262326307489],[7.829804129152612,-2.704731451947188,-8.605238524220482,-6.590115252583777,0.5830619852239745],[5.614528650192053,1.787171080464028,-2.9231293289237157,-4.001899279000551,0.082973751172582]],[[0.5524786571506656,3.311688327829884,-0.9145360556237451,0.2407795867436666,0.5550815631259846],[1.5943656830188975,-1.2259071860001352,1.664910105788232,-3.661774914898309,-7.826205440261175],[-3.7326028003045364,-0.19666876632785607,3.5333627995021164,1.3225118049877826,-3.5849347884696487],[1.0650548332449465,2.262029850124662,4.406372402385359,6.888267134689306,1.8111733169415156],[-0.09545842764536266,0.7544676479212848,1.961564185107525,2.98808299298151,-0.30476954841237436]],[[-4.520543466763884,1.7670843168430643,2.1555492933451808,1.2307168483047635,1.829354322827814],[-0.6944310636703586,-3.800131565303696,-1.8723130768720357,4.565024887773292,1.4319554009088147],[-6.593830004299359,-1.7367247039571638,6.729380678301305,1.4766453017964258,-2.39072171050809],[-12.64196422447035,-2.0568545019466526,5.7605724442264625,2.012011870934813,1.406699601215439],[-7.613700329662966,-0.5275405938093731,0.35804190298454075,0.4449023661427686,1.0676009216928877]],[[-2.4025879519884894,-2.4266875030456316,-5.7149006451230155,0.11525860503830258,1.0909926920665276],[-1.3155179884435837,-0.5582404730015792,0.4296935019039102,-0.4802868737674899,2.032745928387683],[-2.3776206449352264,-4.45087265665063,-0.7874238362987231,5.029412761601071,-0.5286284241718346],[-12.82937343134723,-11.369799461532033,-1.5825520445547727,-1.1359136315788636,0.17372234013978233],[-7.7635026183676,0.3648013916242103,-1.51399176641604,-1.7578551110728307,0.19089956941548306]],[[-0.03275405708326682,1.6293478144385785,2.913114994502702,4.986205528364079,1.046366743789239],[-0.6260036116205003,-0.09927643293581058,5.120330830024654,1.0737125584340552,-3.6712952683151467],[-5.057220000859466,0.8922746590742382,3.030943026987314,-3.3883500969943725,-6.171639780143431],[-7.168930348065377,-4.398085839205497,-1.3575937084379481,-9.062807380631885,-1.893137164689833],[-2.1060817667050844,6.0277064441957835,-2.8620666066293357,4.674354573072345,1.134776948416199]],[[-1.5871791806981703,-5.209421233000407,-3.1611356151851577,4.739654846643107,11.731187563018858],[-6.681036495464202,-5.679066196652644,-4.925080282947217,2.2207826400453885,6.11637589601344],[-2.4167224787458017,-1.9404240343461399,4.779601336345649,-3.070084757635634,1.9165399937607897],[-6.0358695529572985,-2.298446725081381,-3.1328970532267006,-3.2091762944132722,3.403857458721335],[-3.823962217950752,-2.7391426196692397,-6.523083382460746,-2.7470651914594404,1.3692762157737373]],[[2.0909467182703794,-1.944615150515078,-3.1568194101402525,-0.961317997399245,-2.743167073343488],[2.812672060247786,2.107285772193917,2.2405766696991183,0.5984026006167236,-5.11923008426204],[8.25965017455726,6.977657333638746,1.6159594552138918,-2.2452713714633847,-9.09294409336462],[12.58812071253475,7.809857525933207,6.286943655187966,-4.771189333854875,-4.952570938677521],[7.321260040519673,0.3132969672639463,1.5830971953939463,-5.033108175894588,-4.87729979665491]],[[1.0539951003906443,-4.497577430276508,-4.339010791238419,0.7850616140749772,-4.277893618543971],[-0.07438447264834515,-2.8856792438065573,-1.3244157954393665,-0.849446714053097,-5.601901975389088],[-2.245935906121738,0.16519293448737868,-1.409117166505136,-3.0443051534545678,-4.526331685598131],[-5.88142104889732,-1.1525449610425655,1.083454278463929,-0.5415286597717741,3.9099219062859696],[-2.7070778407078144,3.3355917431431994,-1.074087970450284,-1.825388056282819,5.400912060797974]]],[[[4.187749700695271,-0.05133955012435157,-2.75713973689703,-5.320307892794286,1.5394229991937718],[3.0808222782958743,2.663960420054724,-0.3792644312076034,-3.9337183288268864,7.938756572503225],[6.994615972333159,-0.16237439270176468,-7.316804197876334,-9.144904369011153,1.4713236555011604],[5.514118860697538,1.0037595712131295,-10.169259141130626,-12.762216277311058,-2.384231258754408],[4.284348072633462,4.300901488945777,-4.58118938443449,-10.368178898316284,0.7026553020711037]],[[3.751225402908657,0.9095200629862792,-4.7246561156199425,-6.0031028837476,-0.22539049788877505],[2.645217746774532,-5.995051921087003,-4.031874651804718,3.283133167950554,6.421187056207831],[-1.2381184309799955,-9.064339661979375,-3.7261484705701737,3.843685381020818,5.63470684839366],[0.998612247996822,-8.205058820790423,-4.5681629133366135,-0.6593892120701036,-1.93155474600997],[0.9665807848173221,1.113370038618152,-1.775355324551017,-3.742099871813456,-3.464444718414761]],[[-0.3828688218424779,-5.267894861535279,-9.689755989989662,-6.065032448055233,0.742300626464414],[-0.8569461187412701,-2.975009424177559,-7.602099519611128,-8.29115116351413,-2.7044653803223424],[6.482821240184761,5.376467103344892,-2.030991395688271,-4.976527585760963,-2.8309262903518086],[9.473327219733829,0.030139495370666722,-11.767048007038746,-9.248728493997346,1.320425186046725],[3.5182964073744105,-7.066593157568565,-5.393215982841473,0.9509511670342746,5.418614659478609]],[[-2.028430634720069,-0.9239788216459195,-0.353373176350579,0.34697489073408716,-3.9719514217274927],[-1.3353697903786583,3.4749784986944725,1.745203781622336,1.6916719658823143,-1.1368385596169972],[-7.6156133959088255,-0.1556239545295823,-1.205966049371572,2.5321413202718217,-1.325749509614367],[-6.801239124492992,1.5364525526046513,4.668729967560013,8.826712426107257,-0.10532748392086878],[-3.441807623604355,4.984930533739532,9.46280607256332,0.04305026442152906,-6.640754248964485]],[[-2.3048797616109726,4.9832721147833015,3.8932756070051178,-4.00313984298856,-6.7298349356694604],[-1.9882372436661195,-0.3460654607825599,-5.794094908094753,-11.571700649771143,-0.10997946581562167],[1.5874455329817565,-8.993838313869096,-7.9787036219185845,-1.9667710785944676,6.9320956370233775],[-0.13245271385709717,-5.667738064944751,-5.867205734197854,-5.092644580246454,1.5985924633837778],[-1.7681459372813804,-1.5024679920916324,-9.942419642351554,-4.838989216857025,-1.4351488049404613]],[[8.571671975625069,3.6984537185421673,6.074449599874898,-0.9800852618175518,-3.8467062080987353],[2.7006346288365553,-2.792181795102878,0.6192823914653038,-2.7613176217324185,-10.498826553133185],[-3.5636572559556887,-2.708333999804734,-0.22771450406720786,-3.067438898372911,-6.895889585109896],[9.55542006233173,3.714043425167675,2.89538355760042,-0.025968136967461735,1.7931323722616448],[8.512436295932801,2.974075661909299,0.6924620782503084,0.5474955445698677,-1.255074828128954]],[[6.932274234033884,3.4151055044913607,1.0274309817519274,0.018948656317214235,-3.8967272545740888],[7.5571140892301845,6.410407058237607,0.9113387976533313,-6.547228062138702,-3.205598124357713],[2.8180873789076553,-3.0967655180514706,0.8280165259545402,0.5504423887604226,3.192296457396456],[-6.526791200634751,-2.391316680368614,3.3044818809831216,0.4289576407763128,-0.9060451302643547],[-13.585443883144956,-2.394553058612628,1.0837687362096515,-11.196064360528526,-3.045435214330077]],[[-3.035106875653403,-5.541260519957929,-1.8407178752148239,2.1267136621040654,-0.6314557660330515],[1.0911383754391444,-4.917184928012281,-0.33595164533419625,2.7168858457816274,3.8391089987144777],[-4.309381835143027,-12.232494611232704,-7.590002762502047,7.962847777676225,8.966132256561085],[-4.538189679735485,-8.987294805388236,-3.8554502651561227,2.97617263897408,0.394138664916014],[-3.952480874116489,-9.433713230305981,-3.359654745310206,-4.176567433993592,6.744656663218985]],[[-2.6781512397368226,-0.37716704688242064,6.1177048974243355,0.6940276474517791,-1.4871695680483044],[4.677508761150811,-3.4112339984303865,-7.097059338006717,-16.107421845181364,-2.8082631715601227],[-2.5144957248559914,0.4747179119630188,5.671865633896889,-8.153795499102337,-5.434846112577432],[-8.558049076231775,2.502212421821584,1.0870919346864032,-8.382228100211037,-1.2529246267925798],[-15.471473070816698,-6.440001458953618,-0.0643553609546088,-0.7600367555632346,4.392703169907692]],[[6.790171296123873,3.258684693313412,5.603956070824803,5.823562209960997,0.3487890674970009],[0.8618092829249411,0.8126753351573021,-2.324657189471238,-6.784093902022509,-12.439816854988509],[-3.2074931841353322,-3.467436568034084,1.469179656160817,4.873980835015425,-7.543849425835258],[-2.871743979137932,-2.0801716666779413,0.11619093865553401,3.5552717718556655,2.3528115464249413],[-2.0648427265433607,-4.9521840297451405,-7.088765056532467,4.18070451344936,5.999041973694698]],[[-0.7866663745843135,4.322338456085198,0.13616076544002667,-3.950970000312296,1.1197592653278952],[2.860303568126903,1.1862499219930371,0.20686799116377935,-4.819809220913366,-8.23102046207272],[0.9983050222545482,0.5130770200784377,0.7626238798232173,-2.469560957409051,-7.099891763518503],[3.126893171070434,3.489738759480621,3.914791054479866,-3.0976831098059026,-7.532307319232297],[-0.35533928907986284,0.1956343381334229,3.1265514742670697,-3.992995656531643,-7.423378132285956]],[[5.263238383797246,-8.040172315281458,-7.3737249738265795,-0.16134379385564024,0.1303238605967449],[6.208101132985387,-13.991656398871049,-5.266149246301778,8.423010115430843,5.929894468953394],[-3.0744114532419387,-11.315764176611601,-4.954816532953794,0.4671863107420413,3.0443059344805397],[-4.885776996229431,-1.3837365420563912,-5.847755525136578,-5.371089611164433,-2.5641362322558514],[-3.1953564584192486,5.511104906417019,3.5476123436710885,2.2088060842381254,2.453756616340416]]],[[[2.906860023350444,3.1597576825082534,1.8077783514192776,3.3502844893353734,3.88220189915416],[-0.6696976693188017,-0.07492687469483844,-0.48083849939541135,3.185894665122954,4.6094296798603915],[-6.9097838081712455,-2.7887597524661474,-0.5145059637537894,-0.7638583379367804,1.9549339587535888],[-2.5351190381121986,2.307153145882515,1.8709170921992646,-2.5165059103284664,2.4672828380717085],[-0.33434819499596247,-1.1930017740896797,-2.0211243470782594,-6.519433161668851,-0.05212789966415888]],[[-1.594275531577488,4.003487313748939,-2.767404383812443,6.993936601125653,6.787668763513197],[1.4543874497292655,4.451146168272305,0.515672265805176,11.436834964559234,3.433014840947416],[1.2607439344619156,0.12259131215418473,-3.1684856930138476,-0.36901074314440796,-3.837609692163545],[2.9665562716406466,-6.190028871083881,-7.161235109577116,-3.206320887271171,-0.7066508122900516],[1.2741759317060748,-5.003633928448996,-9.177807103937498,-10.70096591954014,4.833923599074563]],[[-0.6529357946175784,-14.753746996369134,-15.711639607900823,-13.578907245335587,-5.2022594971434835],[-3.7812826975037686,-6.110766101565534,-8.00250530500748,-5.463279741513146,-6.822655398825879],[-2.736316104366695,0.15236973384501093,-5.9157514231629555,1.014272518177917,-5.470584098367541],[2.878418365171375,-0.9223125553855536,0.9730813201862608,5.352311490562329,-0.7717591991829824],[7.889071207357678,1.070827532068132,5.705351510593041,4.367398857179743,1.2876671590656923]],[[0.5576657423209579,-1.1647675503956991,-1.8755500832956402,8.499060865557325,3.137036191220743],[-0.5850610422035137,0.309847434203315,1.653444803555964,7.3471743518990325,3.2827683583513454],[0.840451302111151,-0.4180513959419999,8.48011002162845,3.7093501059801204,-0.18910496993497697],[-6.098764571589704,-4.777669670084113,8.595004852561813,2.4672975884986363,-3.1056481568076473],[-9.161892937534157,-2.5448258706525384,10.771055107126418,-3.859523199502963,-11.37308796644792]],[[1.1425577332484134,3.5228150397779463,-5.654516986838996,-5.249890032085024,-4.425750498160533],[2.7918449588572,6.342993878209149,-6.02427626883708,-2.435791231496884,5.6563211683060315],[7.402896822102225,6.076089771364084,-3.0309530466917765,12.37403976441504,11.520485423743505],[8.952967038821166,3.1129821863410947,-1.3457552043399645,1.2902261297970836,4.002069028601551],[3.048012038972049,2.6511932118912553,2.0430768015192577,-5.231465178201417,-2.052587886006571]],[[3.321536252826877,-4.790076075070868,-11.666394278316227,-10.922641248924029,-8.408901806971846],[4.153050971076109,-8.137278652001218,-1.1956246992594983,-3.3371464420318318,-1.636812992592558],[-2.030914221685009,-6.041499223093073,-1.6540333637006357,-4.472188682393757,-1.8280290446111653],[-6.900124782789292,-7.092805190585848,-8.44756110309491,-0.9245838062582514,7.446071165739669],[-8.134239605650837,-4.739486350779315,-0.407344813507956,-0.8300182236164252,3.240277695341288]],[[4.426487365467926,6.5498491422162175,-0.6387777712747809,-14.641060780842452,-8.167119284925713],[2.381745832014575,5.70288412081431,-1.3117599443885988,-3.761997529669401,1.3167781515382422],[2.713232960020554,0.7342524526035775,3.2861495979687194,1.0022977638245993,1.2299126360697763],[6.943732229726729,3.4790676548712325,2.4170631480070193,1.4669190333190845,3.4722254412053464],[1.7844997292413995,-2.0710581950848104,-5.378557537056945,3.0691382125544497,6.607142608007333]],[[-3.5336257664546165,-9.96796939920316,1.1116498700483302,9.75879614421511,10.828550662170725],[0.5010793030772293,-4.808013093614842,-2.1270667443600955,-2.8316200238894633,7.643330990268273],[3.6284922756181404,5.938686830529853,-2.3234662114744107,4.291144276172362,-5.7946239760371565],[5.770073950905,-0.720847963053937,-0.2393365030892859,-2.7766808812003982,-3.8519049523694164],[6.889113996528664,-1.680531479018956,-3.6689121850764974,1.666557433196122,0.49604460538870876]],[[1.5583330884679794,-2.7839678106133205,-12.876128197356579,-17.76811240194957,-0.5567390022829855],[7.025841822391267,-12.136721455512632,-9.625357749720452,-12.652958755946429,-3.9390988119340533],[4.154010459073316,-4.092559565665577,-4.592622599696306,-6.981069330161049,1.4724995062872355],[1.9652678854855077,-0.08681178414269156,-0.6456170171477983,1.861256944772989,1.2109257318607352],[3.675713365722646,7.835162851567231,-0.3765850404283627,0.08632422248771826,2.7206637376126053]],[[1.9392329961933588,2.397308428860015,-2.503090478886563,-11.214797995307809,-17.340189720115962],[7.108598958835596,-1.5551587529265833,-10.985151038760655,-8.279312363015904,-11.224153141933588],[-2.1253555734280636,-4.5620239269738345,-1.147393650719779,1.0843570200941286,-7.720263770694235],[-3.487196912401038,8.087384436721262,2.194096454148598,3.4284815087106226,-6.749718178648957],[3.061269617439642,7.507175765142736,6.869606369649904,5.358758938104805,-4.486142615585334]],[[-0.324613780775893,2.176282286295954,-2.3878439444421713,-3.523769803768057,1.8970954586540394],[2.6307826142147754,1.6513418598362748,-13.224930593190146,-13.05960297673414,-4.163317375747437],[-0.42333621246847314,-2.844481933736234,-6.837956475193911,-9.466145145023814,-3.5390654578831806],[1.2042878596952595,2.0433183422751373,4.153274109077784,-3.962229096635594,5.174194579756556],[2.1276266735027765,6.630923662285687,2.7715915398125017,-0.6431481634427504,1.7879107333543107]],[[1.2116155591030258,1.164006493490958,2.956659696689113,10.340425936942637,2.3000454865846924],[6.280000836181532,-0.5595364595308344,4.41040903976502,12.988952224806187,-3.2550161194719665],[0.5949361095651592,-3.4269560546872286,-3.2369936710304557,0.4907052072227836,-3.9710215728985263],[1.6894786307679879,-4.083686462631601,-12.084961061827743,-8.004803580619733,2.0076695860230083],[-0.1344247545391713,-1.4767181065574826,-13.271519851937098,-5.38759438278316,3.9120291634832998]]],[[[-1.2065056118531994,-3.302964188897617,-2.733662846961771,-5.049150253826728,-3.4165172331113403],[-6.113665851604713,-2.602826472774461,-3.771381431689428,0.19583117139197143,-0.37091592632715614],[-11.443584603380897,-1.7375810871001207,2.214097256059819,3.342688730560026,2.250562544127546],[-10.979564796178783,2.164371028747686,10.932837705039853,-0.6063930941370809,-1.9498385480776843],[-5.431870732328504,7.516484847069798,9.423383845240988,-8.152660213664856,-9.913075159906855]],[[1.234082897947496,-4.9221768818812714,-5.351813670427489,5.675033698696322,-0.43823672400654623],[-5.380367487266698,-4.1835086298523025,-3.7201632208859547,5.044441926293258,-0.9962677504501858],[-2.8744309180156336,-6.798479016455334,-0.4579100606567621,5.96389570364445,-4.011442216401659],[5.216728266484743,-0.21390362534409552,-3.9829452060956476,-0.63554585011378,2.898899743471111],[4.241387251071507,3.8785203024954398,-2.144303868285181,-6.67210162207892,-0.6539411944693454]],[[-3.881773669004752,-6.2382010410678586,-2.488390178563152,-3.942880966692081,-1.7183193986761152],[-5.337502870937332,-1.392249152379831,-0.9588416526823289,1.9538057122366765,-1.4383323762410984],[2.922180463700107,3.0989763940930724,3.0077212063252006,4.202127620303936,3.6503708732437667],[-1.2899592280938614,1.926595666108339,-0.5766070096820812,-0.9270289437973871,5.314503225689839],[-7.453593607799555,-6.009030219609897,5.115291648601967,2.0155052459719798,6.709521141114592]],[[-6.401267042323304,2.844418527748988,-1.9504836456575394,0.45452888522636314,-4.391532868545169],[-10.166569588090509,-4.549534044521085,0.7808055667126101,3.665922956183,-2.224549620437467],[-3.9939006618666246,-5.141690643987044,-0.8235805558229625,-0.29476150284273184,1.537318189904335],[-4.7006868539006454,-2.7533917323904786,1.713591869906594,0.512066101312367,2.0264604085573383],[-10.25447808980599,-9.270717047008928,1.6633580253266058,4.32996366469769,-3.371697946358725]],[[2.637960635322533,-3.255025341624425,-7.350844410374763,-4.417423197500848,-0.9064906923089641],[0.57408969918264,0.7583048795402577,-8.24049198073794,3.832849731998494,9.340499437126986],[4.574146332001537,5.040499427756664,-5.881842818049437,6.601285026530329,5.329071420860072],[5.706942820287708,5.446673723697162,0.3130490367458123,3.153860509641154,-0.73187432444087],[-4.382839314745981,0.64846288494062,3.6212378642613263,-5.872615408750421,0.5893990726815301]],[[-1.1072138959868487,1.7324778239876384,-6.471899068030719,-3.1327566096126027,-1.1083081140559283],[-6.836721195365983,-8.929082085730188,-7.313167019174662,-8.221653595344424,-3.052659170121433],[-6.021683151011572,-5.4206977591455185,-5.907736974526592,-4.365269222740163,-1.62662817614579],[-1.7697820419322197,-3.263034707050951,-3.0540650858947025,0.15217722575864562,-0.36096265102770675],[1.1899585736524696,-0.38189980574003507,-1.0600964395003636,-2.871532152207948,1.907199146393513]],[[-2.121605986165348,0.9835619307584886,-9.230912540087711,-7.5881962708311015,-6.64890656375677],[-0.8894865140497367,-7.621719263321669,-6.155716141832365,-0.6673145574595455,1.7838425656121308],[-6.782596033420205,-3.172907313549406,4.340416780884441,1.1956277186974729,2.93790923057649],[-7.210430057110191,0.45546603945031994,9.927286070047298,2.129730609730777,0.44416399693165054],[6.055470702362645,-0.8755281916279974,2.8475274899265215,-1.6043252028236885,0.5037703580799734]],[[-1.7997875956079994,-3.054194590240148,-6.139126842637694,3.5713355410476955,5.169709153758714],[0.41275816577501157,1.7470000899936704,0.15491100161458682,0.2502343616655252,-2.5338207098711463],[1.8795442294454885,1.0144705660582796,-0.3365042175559828,3.7562226866452604,-2.7729045383127806],[-1.8931897178944797,-4.609367743877847,-3.386878396907608,3.896444566691999,-3.162888226875975],[5.607029841405421,-8.043736576513748,-5.865297023346234,-0.6118701509156249,-1.0406434260628847]],[[-3.6236027597669125,-5.556660964649738,-8.923375045440684,-1.3401068423036395,0.9509251391040521],[-0.4668572152989047,-7.756651289312765,1.3843984220831294,3.8817210801008226,-1.9325759268379017],[0.5897524366647817,-0.4793658378958481,5.80140429290434,9.393858027915579,6.242304718623634],[-2.9757636524607247,1.4970187295845498,3.2936963461291517,0.8729079191692363,1.9119796578155104],[8.328812369745542,6.79584826207682,1.0421070465145101,-1.108920860730859,-7.712321269087234]],[[-1.2224564492574885,-0.2919956269795367,-8.72143819023165,-11.19022954270313,-9.583996724098837],[-3.1732943638297963,-3.6729151908994733,-11.11788817367902,-7.689983182252452,-0.7118583788273172],[-3.95464525168692,-4.062549468402348,1.203716785574371,2.281146348403136,1.460503539178404],[-3.52820345766844,2.9034016221388406,5.235255915413614,4.899761916155934,2.3096842934286217],[0.31493564674318725,5.230467412445366,8.57550903712546,0.6150472041885587,-2.9950558969490397]],[[2.2395023264766674,-2.5370460682520712,-7.080245235085829,0.31417116160849673,2.2178633677106547],[1.4977127952180906,-1.9786813307731763,-5.28687687480165,0.38765891132396524,0.47184034221703286],[-2.356184151093201,-3.3930693370336327,-0.3204712754418639,0.6688557622109872,4.833669156481486],[-4.373323210831932,-1.867665091274915,7.688038765532342,2.625285476896585,0.8637229268746538],[-1.0841819618591886,-7.631301938278743,8.161528140161135,0.9641947812299883,-0.5645283240907416]],[[-3.1087889933594894,-4.087915640645563,0.8442032027918869,13.572524998320157,11.025887511461798],[0.5323533703667583,2.203965744785218,6.58775887893716,8.891639246950547,0.6612998030356877],[2.81586635175662,6.712636860850678,4.507614537206295,-0.6772244832378016,-7.389489546954528],[2.3092705002810887,5.868360025337622,-2.199277044677794,-9.261187925625524,-4.70582437552658],[4.584990906680976,0.7430913906424236,-4.0169986564999896,-13.225123053085563,-4.758194211649115]]],[[[-1.5292147351734104,-5.238509485651382,-12.57248293379803,-11.061160914607235,-9.425381852143978],[-4.010504638368476,2.8078071174695087,-3.9154848353511937,1.5293960218072438,2.7642282909732607],[-6.510723424909133,7.927020495148152,-0.9133079973062206,3.6716615277378244,7.575739783514118],[-1.5538349922082313,8.135333329981577,3.1863413878532687,-4.352480443905626,7.9376881449785985],[0.9421559368316361,6.86176965222138,6.599800194055674,-6.829446263418772,0.9172399753676356]],[[-1.8635367274210703,-10.041032042608707,-9.552696016682939,-4.890400906602747,0.5098139414823379],[-0.9642983017877166,-6.247056185703955,-4.795511842274872,1.101471978018439,0.5177160621642963],[4.203857044011919,-3.3856654255683565,-5.339383772308563,4.9811777605732495,3.144364023104913],[-1.1626619788504275,0.467173495776931,-2.4166209461853,-3.5795592794937043,0.8795673509793386],[1.151685537735667,6.973463838044855,-1.417075630368426,-10.458932584622596,-4.374054339016602]],[[-1.9524566620908155,-4.827274069232499,-5.411885393582112,-2.572709487204797,-1.5022568580278026],[5.533067974464062,5.808927151346428,0.851862359540294,-2.2007059327702985,3.6352660210574212],[4.802578246971943,4.518514276810487,-2.336709222113548,3.4666747088981413,4.715126694614932],[-1.6036624307502663,-7.131814415094848,-19.81452134215184,1.1353923842916296,7.547541196511502],[-2.9896900978767076,-11.360632843325531,-12.81191430770619,2.444549632890298,13.071570121344553]],[[-4.820431023329509,2.1334620884968865,7.39416312616804,0.45284197201844983,-13.305128531462682],[-8.295588707662008,-6.334761948876058,3.821594629176565,7.043354531968066,-4.326283414350979],[-6.047716826079772,-5.068078650549255,6.639434545530297,13.618904479601797,-0.29084016255213635],[-1.8343535685287105,5.830061649467338,10.325842779567324,5.925328962562405,-0.7096396305736472],[-1.2692706608241278,3.7288549705396625,4.951246711288514,0.02671900267465692,-4.852849291048496]],[[3.436057315875391,-3.1774697697208953,-4.415176897452225,-1.6148943449983828,6.597816234842575],[2.2494955753040844,-6.640051915421859,-3.5114743386278366,11.33932592077006,9.26825625709173],[2.8628692532916844,-0.9070809284310837,-3.7723755777417547,11.027444356463985,4.392717482624139],[4.32986834784759,2.6201798434044794,-6.443309398828912,-0.27096573212890634,-2.3947376710634685],[-0.9109266558181942,2.5883563351262557,1.226892989744009,0.6314777284902123,3.8766611953259154]],[[0.41230367202163604,-6.243777965939372,-4.079125631241821,-2.6559907147939237,5.551810207061692],[-4.8276002350258365,-6.379956899831752,-2.854235084159433,-6.84871353797424,4.642142612554404],[-2.3160637496545586,-3.0343435414819746,-2.5812871450555877,-10.182819980069,-0.08595149987874731],[5.871285431658186,0.9730202012959926,-9.56521187909996,-8.451047916495813,-1.3122813714942934],[10.225738184969043,7.067692322553957,-1.8090605865708913,-7.352746767504961,-5.701537392396667]],[[5.5922683523050445,-6.381098901884464,-10.036786754944167,-4.722863337770259,3.1511598014785074],[-5.8119418146713135,-18.664131639104593,-15.669724053302453,-5.062296280270904,4.909823200195624],[-14.171411439469155,-10.586530943634683,-2.6954067893566935,1.9778185433602589,4.010910654667716],[-10.920542329982872,-0.5631113668153146,1.153447484556408,2.341185711543559,1.4517025168573665],[2.249855274618685,-3.5624045702351235,2.568011747294602,-2.6276846020799223,1.840901739441325]],[[1.8945600822311053,-0.5708963163277677,-1.0207932981369292,5.361426178014444,-3.681759998401921],[2.423228390989434,1.7359504370571062,4.2677043307500275,9.112231816143845,-0.4115240033830587],[-5.390157765663339,-5.91529493571393,3.0911540489677964,10.870569829875258,3.6699481557648594],[-0.31627042895433166,-9.037932454123533,-4.684630368598089,4.861052594640624,-1.152618703589606],[-1.0076206528695222,-11.249565995812745,-6.933560248411276,-0.33976908712388,5.752670880717931]],[[-6.3649061946816134,-5.630236753226269,0.5449115418161996,9.278106319371004,1.944410200923731],[-14.71065981249829,-15.670771639932479,-0.9994673657914033,7.665888141594436,-0.9568393243993513],[-13.05966845651621,-0.7482442794674659,6.336717063189783,5.960800104051855,-0.10873133579556558],[-6.423984180760105,-2.912143146366454,4.199146711043229,-3.9350085442389062,-4.099174237863747],[0.4495243147738018,0.3722086617174444,7.320428880359451,2.4633279788064733,5.026901901235884]],[[2.1108127391436753,-2.572684262713584,-5.381726610049634,-3.0717830432714615,2.2722781682202275],[-6.408624233175228,-13.810940453367834,-15.115699480060206,-12.703751149216718,-7.958784479619836],[-12.150755268630874,-10.651335038940383,-7.435675291073202,2.758901234363097,-6.219236120494552],[-5.5035221288673615,-6.29239659011621,4.155506039903315,11.410851534319129,2.1289958444077812],[-2.2855077735311267,0.7765287984766365,3.476505510537999,14.560819930133507,11.614209156015745]],[[-4.20595090524178,-6.320963277952518,-4.50977910240374,1.6572714467228848,2.0520813201432078],[-7.109826458799997,-13.840855102961944,-9.086879872555423,-3.857104966247233,5.118134578490942],[-9.96973349252581,-3.512661347778287,-0.6810763449755113,-0.46003011635642027,1.5202445266621372],[-3.1121362377332384,0.9766271450697456,2.940692019927362,2.597530024087404,-4.62859079243352],[-1.9086263346475854,3.0888785739773215,3.2184049950769897,-4.570851544678145,-8.640444385355094]],[[-3.2841427139632406,1.60764455260948,15.06969327874622,10.183619889368957,-9.341116011579805],[-0.2982317928678811,-0.570038222338183,12.055893043531583,2.830652313344801,-10.730824888455],[-0.05487510780395095,-1.2045754930831465,-0.6994081899983497,-1.6333135515698967,-12.182271006120404],[2.357194513932816,6.066562577501802,-1.7133775254238508,-12.634472358871397,-11.401228632871298],[1.0761033105017461,-0.7519915532322009,-1.1992766892364717,-9.57198819179862,-5.154426166018247]]]],"maps":[[[7.99707925841635E-25,1.5010644672762835E-24,1.4421760473650412E-26,1.6173139603734732E-28,3.347806191062641E-31,1.4118645026586404E-28,1.0399058482172613E-20,1.01939524521982E-11],[9.131279460254071E-26,4.544270837713087E-29,4.2762646359151735E-30,3.671262806105148E-27,3.651731794143708E-27,1.0569644880574005E-17,6.319632534117017E-8,1.6537942792453345E-6],[1.5517137008846078E-19,4.793043685437287E-25,5.220212035729482E-20,2.2760517218437117E-22,5.043993089711992E-22,1.8334736121665342E-6,0.9999999876650966,2.631590133236244E-5],[9.30816045026657E-12,4.0732575749510578E-22,1.6607624722481638E-20,2.2843726012679822E-27,6.697061891748055E-24,1.3064430518623312E-5,0.9517240484617848,3.43165695109386E-10],[1.6288971880956625E-8,1.4808468234466056E-19,4.661000400204722E-16,4.714509359348593E-18,1.848241974684173E-23,4.049602646605432E-9,1.8786979963060822E-8,3.1403277840700563E-15],[0.9864307258756246,8.273509071920065E-11,1.5040433407092935E-15,7.286231950558886E-18,8.956160331285303E-26,2.6320001539837565E-11,4.414333391024138E-11,9.081339489361246E-11],[0.9967592963267139,1.821909533728278E-14,1.221006119078865E-15,8.370943421625431E-16,1.8894946189676164E-15,1.4852791753500657E-6,0.08017323312456758,0.5552419603582924],[0.10254816194903425,5.293675622240588E-21,7.773578350549662E-14,2.340786654921839E-10,6.653117032806187E-9,0.02340255263474278,0.7951770998962562,4.3854154520370326E-5]],[[2.2900913218110393E-34,6.000408425556128E-33,2.134295347247023E-28,3.0012100989754113E-26,4.0953495878347195E-25,2.967559625869331E-27,2.2492657718366442E-26,2.7745701494701606E-21],[2.8294124401957566E-37,6.653719353047429E-28,2.261907201964633E-24,2.023442828071181E-21,2.6289375503735846E-24,4.5326677641824045E-26,6.154565063472533E-20,6.881323244932672E-13],[1.9517167283201978E-30,7.704909028238322E-20,6.565554226442251E-23,3.580919054136313E-22,7.867563169210738E-22,2.1896461878422106E-13,3.798853636870513E-15,2.80332787904195E-9],[2.8369524358955786E-22,7.675989057151515E-17,2.640523857853344E-13,1.5610143900765403E-15,6.929509929661931E-14,2.4053840238337788E-23,6.566542915609999E-28,2.964121928206016E-25],[5.686400084056735E-4,0.9407760831419111,0.28094630079485783,1.5250964553451646E-8,5.5219294481773786E-14,8.278560525071237E-24,1.565901001343547E-33,3.3421943496618364E-27],[0.9999667858560546,1.0,0.9999999999996372,0.7170512687569628,3.0906206743908237E-7,9.672812866808081E-27,1.715318407104393E-33,4.1200989705063527E-20],[0.9999869778491739,1.0,0.9999995342648695,9.205905854167801E-8,9.104424354840705E-21,6.973125242549192E-29,4.862004352885235E-19,3.836008754657031E-9],[3.561540282104662E-8,0.9999999877889482,5.0405552544621636E-8,1.068052344496721E-16,8.65972814607658E-18,3.624493914197565E-13,2.2948492775705774E-4,3.591514314550173E-16]],[[6.785220315891589E-42,6.105475159230147E-24,3.3195438714075692E-15,1.5781038110419735E-18,2.4895022102291123E-18,3.1146192304447655E-17,1.1942445197966361E-16,3.579965389092698E-15],[4.697322918374527E-30,5.14018108866699E-12,8.571951945985078E-18,6.374477070878035E-18,2.9792242160139973E-24,4.545274027206297E-28,1.247003654198829E-20,0.0020042268427365568],[4.3126718133645555E-18,6.360884634356933E-19,8.320180307093552E-29,1.3306704577046258E-30,9.249516011269375E-23,8.227780319716974E-12,0.9999998439715502,1.0],[2.916343254242151E-20,1.6937112200383635E-18,2.323029141062239E-14,2.07597167329705E-28,9.627709299264858E-19,0.9287801643835227,0.9999999999999811,0.9999999999999993],[3.1709156628736407E-24,1.1110218315021472E-20,1.1237944174460516E-25,4.455734304481904E-37,1.2237747922051845E-18,0.5943092667427491,0.9999999994242754,0.9414205471199455],[1.4509473793459889E-18,3.9883126435157936E-21,1.8476616917711358E-29,4.2865063838105203E-29,3.216570322340138E-23,1.9005834559844217E-9,0.2794525027534454,1.1212584407478224E-10],[3.412503694758364E-13,1.0295542962182845E-23,2.074091960206501E-32,2.450257230456085E-34,2.048629718480182E-37,4.6813333010706754E-26,5.095332599048525E-12,2.368352530703727E-24],[2.0789687200283085E-12,1.9540150906219196E-21,1.4465633017928474E-33,1.2470024616854502E-35,7.15455155158674E-26,6.377673465860064E-13,1.991713043093312E-23,3.3627084008937754E-42]],[[0.9999743724446213,7.691591834566139E-24,1.8831211895430957E-32,2.537015468218191E-29,1.3540549920201641E-27,1.1383636148541975E-26,1.5266131848219713E-24,6.342928006862517E-27],[4.5046942849000846E-29,1.2749138888817937E-42,2.72946470840055E-28,1.767778789832391E-24,9.061641792511402E-18,4.814330953056734E-13,1.4543903796694013E-23,2.712298535179282E-44],[2.132445460871197E-42,1.2861016004236161E-37,6.59641442429118E-20,9.93577631172469E-26,1.9224049753808238E-18,4.660388477475299E-6,1.263463505483854E-22,8.887056336903552E-51],[3.259679488548692E-48,2.3531169113994345E-45,3.940059853635953E-20,2.6843551526700455E-7,0.9644593706958553,1.0686229797155846E-7,1.1202795943404391E-33,8.15853171988522E-39],[9.870235313102805E-47,1.505232610052212E-26,0.9999999990276316,0.999999931385706,1.3192065010843788E-7,1.5372187758331654E-30,1.3186113361837161E-37,7.993021809634322E-28],[3.5060244243424063E-40,2.345539835441296E-16,0.05044456783526653,7.392221576309886E-12,4.0065063824584258E-25,1.1200513628152108E-37,4.243023692369987E-24,2.54447460817379E-4],[1.4407595310489799E-36,4.673708231228993E-23,2.039337301354637E-16,3.4371521125749224E-20,9.81627268348219E-26,2.5794050915187994E-20,1.2743554562703475E-4,0.9999999999948226],[2.8800304639407554E-33,5.673200078249152E-20,2.2650952550705704E-11,2.1537584092868006E-17,1.5970244694287176E-28,2.358776267401159E-13,0.9999999999997189,0.9999999999999982]],[[3.623057974813912E-21,3.970808687175817E-18,2.4374379669440796E-21,9.057838012549302E-25,3.892762198568172E-30,6.139671667759574E-32,1.8388699897722495E-21,1.4588591951148424E-10],[1.0676260997876355E-27,5.32473123212862E-27,1.7626964398935155E-31,2.0711244365529796E-35,2.5449644972361426E-33,2.0452478835700244E-21,6.49591169881286E-8,0.0559612970764861],[1.4635900097460798E-33,1.1301117804296164E-22,7.688166079277667E-23,9.223524284147299E-25,1.126963720412665E-22,1.2597889221142067E-15,8.048203739557524E-10,0.999997409311591],[9.215748942186642E-6,1.5606248935024104E-4,4.120863861358846E-23,1.8784686638976405E-26,1.3528154204687233E-19,2.6120160133187787E-20,3.3973092407666905E-17,0.999990506280061],[0.99999999999999,0.2814886232398841,2.248875681869998E-16,1.59431977665287E-10,3.651162383291102E-13,1.276440522864926E-27,2.090790479572063E-15,0.9657629973551937],[1.0,0.9999999998569222,1.6025767252556814E-14,1.1026511475883868E-20,1.03266282125753E-27,5.522399232978791E-26,1.6285160296646038E-7,1.227687770629319E-5],[1.0,0.0013366732837144654,5.606983033523501E-31,1.258855329302706E-33,5.0713991895413065E-23,2.282699158919311E-6,0.9942280177804848,5.121802128289289E-12],[1.2196993981986081E-5,2.4335218950190005E-17,1.374233929462596E-30,4.493066217046332E-16,3.4305344363572078E-6,3.861040746388923E-4,9.268680422546907E-13,2.2785998224964683E-16]],[[1.5026208915851329E-5,7.46687753612466E-14,1.014068638635897E-20,1.557013102571132E-22,3.3475493359270784E-23,7.925193848945783E-21,4.4023370157666686E-14,4.462716533958155E-9],[8.335663249116471E-15,1.5323869174484073E-25,1.50568668707103E-25,6.267815491879883E-21,4.372186891613566E-13,0.00884694687229194,0.999999998415817,0.9999999999999487],[1.3823177521744715E-21,7.106486141158232E-28,8.00385023526661E-13,0.9999986676167516,0.9999999999987388,0.9999999999999998,0.9999999999998381,0.9999999581737324],[1.5311564730048833E-18,1.0892075209606864E-6,0.9999999999892613,0.9995160395633188,1.9895875251152167E-10,4.8619747149880305E-11,5.114866326140856E-10,1.183028310380455E-11],[8.83283407960475E-5,0.4193666525972063,6.683965422742227E-17,3.362105924728585E-32,8.066289812521931E-29,1.497624742516038E-19,8.855905701779934E-22,1.7139884642294426E-21],[0.16596420614615073,1.3177742211964698E-15,3.083051276036066E-28,1.6210794012545527E-39,1.2539832620558037E-26,1.5444114251616065E-17,3.03770084270439E-25,4.6287648542647406E-29],[0.0014344356606752302,2.8627249512861E-23,1.0141358734236618E-28,1.0262518310478956E-32,1.2393701695706557E-18,2.1632579370019633E-10,1.5320861931153375E-19,4.6701391148545983E-35],[0.0019865007038431183,4.331398204574602E-11,5.218868814092572E-9,1.8733048357284592E-5,0.9999999956545362,0.04940679912686439,5.813419818497663E-26,3.8140809916975404E-38]],[[7.189479134453539E-46,3.550561060819959E-48,3.091335048784283E-45,1.1006437730377776E-37,4.5393606912095595E-32,4.7262188334233344E-21,6.437271026585244E-9,4.2048835558046637E-10],[2.2607236324241554E-51,8.633397652191751E-42,5.3001550245924143E-20,6.091216511612391E-9,1.3584772041159275E-9,0.00177067084128607,0.00799540395679212,0.001013871786346588],[8.295244108943826E-35,3.1140369558095776E-8,0.9758585284094621,0.9972607152971489,0.9983884968473933,6.991130187750038E-6,2.7985499325987432E-12,2.388509691039859E-12],[4.930551899134697E-8,1.0,0.9999999999999813,0.9998795672491875,5.197376709677602E-8,8.600414228702659E-19,1.6216139266376528E-16,2.7908896957921817E-8],[0.1554196240187901,0.999999999999627,0.9999999999994431,0.9999983323218629,4.81485846052658E-17,1.00853962444431E-17,1.3152070652158258E-14,2.9087808379770798E-12],[2.1157196639775658E-7,0.9498833930428061,0.05025336628050087,1.0292840273476777E-20,4.007115781988563E-31,7.836292522360695E-10,0.019396854238173132,1.446334813501197E-8],[5.0326716258888944E-26,8.31773703456166E-26,1.688384435771715E-21,4.718230469022868E-24,5.974739993695819E-11,0.055354482906968164,1.227240091779329E-4,8.831435722398097E-15],[2.3497017829870218E-31,6.926919140569176E-42,4.729817402125995E-30,1.2074880411290372E-19,1.3939934160933006E-9,1.3099094960435779E-12,1.6187090930811995E-24,6.183886815302014E-28]],[[4.0972785700431076E-29,7.1135394007955E-24,7.065914636180935E-22,1.7809031736983717E-18,3.593135338445041E-19,5.610803403816803E-18,1.8478067954539706E-15,3.4484033087172935E-7],[6.363282156366864E-28,1.5264609916633817E-17,1.1120550287273352E-11,1.214835054632199E-9,5.191706508861792E-10,8.581708968149591E-18,2.4011274004801775E-32,2.8040119705255007E-28],[9.894497798549946E-33,8.57053207377588E-8,0.8928824407903132,3.420250235373429E-13,1.3817710546238768E-34,9.57144062426857E-46,3.629326475323741E-45,6.0656259813183915E-30],[1.4003858273548345E-19,5.107884931146239E-10,3.692027093846839E-16,4.054746981666712E-29,2.9445195148109074E-30,3.8744236351631615E-35,8.728917570988977E-33,8.474870170619035E-12],[1.6484385473953438E-22,0.004751231853367427,0.11201418230686076,4.5680904122216645E-9,1.0584228542599068E-16,6.556075786118765E-37,4.976628386325489E-31,1.583536497229039E-9],[1.925084681407826E-20,0.9999999999992506,0.9999999999722855,0.9985134875556575,2.9694972877097286E-19,1.5358868804106787E-25,1.854614865512924E-19,0.9999997696181859],[1.258757777213535E-19,0.999999999999917,0.9999985411969414,3.064640809896837E-6,1.3925457956908518E-8,6.553445736230416E-16,2.9979058465022956E-5,2.1879599986106616E-9],[3.680012490742258E-26,2.8103675582862947E-9,8.003332229565622E-12,3.325369795159464E-26,2.3867652355450088E-35,1.7731830350181393E-24,1.58918625390826E-15,1.1553501286615593E-15]],[[1.0013619038981562E-51,3.9839047851612634E-57,5.622069695915204E-57,1.3726704244433097E-49,3.1819151109192063E-43,4.626175742978368E-34,1.67711856789011E-23,8.446231212561657E-9],[4.808063069790442E-51,3.2602857475046448E-52,5.521608023709927E-39,2.1936012212326128E-28,7.763880153247167E-24,5.872853752106523E-14,0.9943214919915659,0.9999996061554429],[2.149165638712803E-47,4.48327958830934E-33,2.697918161835468E-13,2.4413949194541319E-4,3.4793859667414075E-10,3.049425614752191E-17,2.2534365136295028E-8,5.371583797653601E-9],[1.2707311038452193E-43,2.5415849496151014E-8,2.7593749414682464E-6,1.964466457649588E-10,2.217999373376921E-18,5.45470942524913E-14,1.0261800695157602E-9,3.5303007527742544E-12],[7.023437644388174E-32,4.030216007364219E-12,6.5562881607725025E-24,5.187361646915189E-24,7.658645052338264E-27,7.093101022169034E-16,1.9902490166956226E-21,7.196931161569242E-19],[6.937598907894513E-29,1.96231574292145E-20,9.730816339077874E-26,1.908899947807021E-28,5.5843685968137894E-33,2.158346302805522E-25,1.3438824740684168E-28,2.9341848172277385E-21],[6.913115597447668E-33,1.6676341323362136E-20,8.551514469623688E-22,1.1724626565031442E-27,1.5715017632630027E-19,5.016745837011673E-19,9.86272120515102E-25,2.53811057053573E-24],[6.929761033281783E-31,1.2186505033116772E-26,1.5853150362534125E-16,1.023721436089456E-16,4.77694943302516E-19,4.552724321064153E-28,1.937505772148892E-36,2.6232901940752495E-38]],[[2.362562051164283E-58,2.34906757217775E-56,5.497296098945755E-56,1.0083235509574918E-54,4.570538142783574E-46,9.353047825184925E-36,2.740595324609151E-27,2.6612055923602278E-27],[3.0577139850854125E-49,1.823817882118323E-45,5.4288017035204455E-39,2.6639716251359644E-26,1.19922164236358E-12,0.03573315816615644,0.9999176675979169,6.229960058261683E-7],[5.5733767110412635E-37,1.1168351800283754E-22,0.9999997828069095,0.9999999999988054,0.9999999998968445,0.9999571736048479,0.9999999203988456,1.0146283151587135E-9],[2.961981968588286E-20,0.9999999999996065,1.0,0.99999998948152,2.704834565703418E-4,2.37890144623532E-12,1.993208032478868E-14,1.3491529918463667E-17],[4.243664472016224E-19,0.9871019691481417,0.002386247451855636,1.2904018620076754E-21,2.3618788757211837E-30,7.077654242086756E-35,3.580760463956674E-31,7.583444071857729E-14],[3.968912716666648E-22,2.9119398857712896E-15,2.5579014213141304E-29,1.7872449822326585E-48,2.524650537981523E-54,2.3327426243311963E-42,2.7055036518476607E-9,0.9999997169751882],[7.592954423168382E-32,9.860970874649566E-38,3.506138327533667E-38,1.4011992838284661E-39,1.4618887922942569E-28,1.0794262702115996E-9,0.9999997159780715,0.9999996097252133],[1.013292722141401E-28,9.826224464144192E-26,1.2577579303778087E-13,2.0486041429273047E-5,2.826562156671662E-5,6.11901899130278E-5,1.1483496740082596E-4,1.0990090348293072E-21]],[[1.2459250140086496E-33,1.0993707493161552E-31,1.696898010101355E-30,1.216029098471294E-28,1.622334910716444E-30,1.6714423563769052E-26,8.26581288253928E-14,9.377494593453726E-11],[1.308761728845069E-33,1.1440637274159838E-31,2.1135190589942848E-32,4.709142364029503E-26,5.7122188477349955E-19,0.001430198229973265,0.9999999974472877,0.9999999997620854],[4.871001953459884E-31,1.3794829400190106E-20,3.3573547850805376E-20,4.347449413329532E-18,2.4777408698934667E-5,0.999999999999998,1.0,0.999999999999678],[4.392248643992493E-28,4.88100495954728E-26,4.785447412841156E-23,3.220968877237435E-14,0.9998734866678854,1.0,0.9999999999999998,3.4872713452933004E-5],[1.9878920442473486E-23,2.0219737074778904E-27,5.615178125940335E-25,1.2716618067432106E-22,0.012501790850121161,0.9354915084939597,1.2982243095956757E-11,3.225098260691011E-28],[1.2846546465134892E-25,1.7195970269251265E-32,1.1354456066681631E-32,1.2547386667761761E-28,8.4395130585841895E-22,1.927277596326755E-21,9.235785848339804E-33,2.853706548866089E-24],[3.092015841672157E-22,1.3869146274077844E-31,1.7561514385491974E-33,1.2421852759710032E-25,1.143141553558272E-19,1.0563090619025267E-24,7.271663014688851E-28,1.7330275645236661E-18],[4.281181692850412E-21,5.911156053019868E-20,5.903592135285944E-16,3.6254423877428894E-15,3.2769472688201605E-19,6.784859977400366E-23,4.003710683675912E-18,2.030322017689754E-17]],[[6.508573841428264E-30,6.933885345827071E-26,8.461339740865768E-23,5.6809550291167756E-21,4.839239464792236E-16,5.123159305901963E-15,1.4265962577995447E-17,8.176591815609752E-18],[6.405849348047142E-26,5.579569028690776E-17,6.335192319390083E-8,2.8577049219553246E-7,4.119384160023454E-15,4.53940757537913E-22,3.958592249737745E-21,5.949149197989589E-17],[1.8201087292127415E-14,2.868846160768501E-15,4.597298663114416E-14,3.759315899810829E-17,1.182395456113095E-32,5.015949905098639E-38,3.0265181649757385E-18,1.1616152694332873E-13],[7.909440477896037E-18,9.26099323791543E-24,1.6011901676293175E-30,4.724035180034085E-36,1.5979283670850175E-35,9.883428086102099E-26,1.4652639887339485E-13,8.961989892580713E-17],[1.9268505273679458E-12,2.8830725206746235E-14,2.802132700897232E-25,2.611805401149619E-25,5.1402642993553293E-20,1.3555405169787368E-19,2.0975551562352818E-27,2.4122622455684807E-39],[3.7430431739129696E-6,0.8378710140321851,1.2805136402666408E-8,2.491622016718759E-10,0.5411954785958865,1.6315046162650647E-14,5.771889958921207E-44,7.789684671727322E-43],[1.1694650936850626E-4,0.9999999706499234,0.9999999999946412,0.9999997637205601,0.9999891500564599,5.267167871377106E-25,7.375672784439285E-46,1.5026204733089728E-34],[0.014569256436793396,0.9999999859526805,0.9999970545778605,6.482256119931914E-8,1.0741340065094836E-24,3.295613614957032E-41,3.3075415193070944E-36,1.397299357065136E-29]]],"bias":[-10.75700228294685,-9.433873717895999,-2.4294025576369176,-20.7291052788875,-13.832255813792536,-3.504452192384337,-10.239173395400845,-8.529000786808679,1.3909778966412514,-14.170454107284673,-7.383938775928711,-5.498093802305554],"errors":[[[1.7605526215210702E-31,3.3045852085986705E-31,-2.257158301124825E-33,-2.5312676894418247E-35,4.035612205834433E-38,1.7019317411875111E-35,1.7667513530015705E-27,1.7319047986937078E-18],[2.0102461751486173E-32,1.0004187376056892E-35,-6.692807191187048E-37,-5.745915232437332E-34,4.401979254421027E-34,1.2741175999152026E-24,1.0736759143785937E-14,2.8097144114769973E-13],[3.300327133690818E-26,1.0194285272467577E-31,-1.3669084766250598E-26,-5.959823797445565E-29,1.5591056595921386E-28,5.66728342697945E-13,1.6308515490100514E-17,3.4792489304240537E-14],[1.979745005857948E-18,8.66337810219691E-29,-4.34869366500661E-27,-5.981611955742895E-34,2.0700716500504612E-30,4.0381818712928644E-12,6.074640314044395E-11,4.537143847398383E-19],[1.3397423979672785E-17,1.2179733141430333E-28,-1.8356688457091326E-22,-1.8567425897196277E-24,2.547793848923393E-30,5.582360325728606E-16,-3.677597299929066E-15,-6.147268597328553E-22],[1.1009075305611913E-11,6.80483160279309E-20,-5.923461201623297E-22,-2.869579027211405E-24,1.2346029640366545E-32,3.628201228172315E-18,-8.64116579461451E-18,-1.777694460519259E-17],[-1.3919170983929438E-9,-7.850739409058153E-21,-8.5960908016551E-22,-5.893286579275687E-22,-1.5218137545871152E-21,-1.1962536958590896E-12,-1.4017710065470348E-8,-4.694050075317825E-8],[-3.965726738460177E-8,-2.28108295482983E-27,-5.472731406580608E-20,-1.647953627249673E-16,-5.358472494392588E-15,-1.8407493724816323E-8,-3.095879208585227E-8,-8.335532104292991E-12]],[[-2.2954571425607622E-42,-6.01446774088998E-41,-1.5945811808588243E-35,-2.242273146405237E-33,-5.014763441992879E-32,-3.6337824658362674E-34,5.2367377027849E-34,6.459750685170327E-29],[-2.836041922538461E-45,-6.669309414905391E-36,-1.6899229348712973E-31,-1.511760712193795E-28,-3.219139083524761E-31,-5.55026038950179E-33,1.4329050535371812E-27,1.6021088007016275E-20],[4.190044522128023E-37,1.654128972653261E-26,2.764772827003377E-29,1.5079347995789179E-28,-5.14383520213778E-29,-1.4315969124118257E-20,-1.5940518291035235E-21,-1.1763153697908485E-15],[6.090513464929348E-29,1.6479202864912754E-23,1.1119318125259166E-19,6.573474255780443E-22,-4.530533323106657E-21,-1.5726469238755718E-30,-2.755412749762576E-34,-1.2437867928060255E-31],[8.692383393669084E-11,8.521810706545756E-9,9.895457814336531E-8,7.470480797182276E-15,-2.4478994348446226E-20,-3.669928024404384E-30,-1.0646470833207823E-39,-2.2723387131151195E-33],[5.079922970396002E-12,0.0,1.7772295528706418E-19,9.938233770209346E-8,-1.3700874549275633E-13,-4.2880071852120484E-33,-1.1662351180076201E-39,-2.801231590106245E-26],[3.2076087203371934E-12,0.0,7.678954709681284E-14,1.5178533013283576E-14,-3.211640208904495E-27,-2.45981168472125E-35,-2.581401186546615E-25,-2.036665702903655E-15],[8.772879518706826E-15,3.0078584145879064E-15,8.310777747888087E-15,1.760985775879031E-23,-3.0547709584004925E-24,-1.2785619318780082E-19,-1.2181328452889724E-10,-1.9068554119202382E-22]],[[-8.910129079663392E-49,-8.017510003913658E-31,-8.279337115785243E-22,-3.9359785444805208E-25,-5.932545384122119E-25,-7.422214715436048E-24,9.472630560354772E-24,2.8395934825396093E-22],[-6.168370603022716E-37,-6.74991744709678E-19,-2.137946737574791E-24,-1.5898703753014167E-24,-7.099565044913972E-31,-1.0831500505955063E-34,9.891110846922203E-28,1.5865469154387313E-10],[2.682467835166763E-25,3.956449545266296E-26,-2.0616674267563185E-35,-3.2972842380081628E-37,-4.2782550212163737E-29,-3.805663174496626E-18,4.191677404176334E-14,0.0],[1.8139560148229734E-27,1.053482867797785E-25,-5.7562616851588924E-21,-5.144075031710986E-35,-4.453183885752168E-25,-3.059578207655066E-8,5.070412315970591E-21,1.789557287989653E-22],[-1.3662183426412713E-31,-4.786940324668045E-28,-2.771864945673008E-32,-1.099017180908802E-43,2.736232309890735E-25,5.3908724125729085E-8,1.336685615629611E-16,1.2803935797357816E-8],[-6.25154098886788E-26,-1.7184013922405326E-28,-4.55730033480893E-36,-1.0572767225245923E-35,7.191914475671823E-30,4.249505614226258E-16,4.675037742097518E-8,2.603276087556465E-17],[-1.2145841261022177E-19,-3.664407183113808E-30,-6.928160033860766E-39,-8.184677701095796E-41,-7.228896065862924E-44,-1.6518784032972267E-32,1.3410746793976742E-18,6.233425491053223E-31],[-7.399500870529725E-19,-6.954763784958868E-28,-4.832004677812387E-40,-4.165404805057422E-42,-2.524590417571802E-32,-2.250457376986976E-19,5.242122822818111E-30,8.850537237748858E-49]],[[6.023111724347427E-12,1.807761355281496E-30,-6.082693555376997E-39,-8.194845729587274E-36,7.513764930461575E-35,6.31687535426003E-34,-6.373332136051013E-31,-2.6480569737453946E-33],[1.0587421200645566E-35,2.9964409308286673E-49,-8.816478452693354E-35,-5.710124612242621E-31,5.0283811746371965E-25,2.6715127001398207E-20,-6.0718150722583906E-30,-1.1323352627036356E-50],[6.836220561372759E-49,4.1230007360837225E-44,-3.076531256908955E-26,-4.633991198629284E-32,-1.4847346143084029E-25,-3.5993497363800957E-13,-1.9536136995379403E-29,-1.374149307279862E-57],[1.0449921628475164E-54,7.543651881465128E-52,-1.8376221556312658E-26,-1.2519680820154114E-13,-2.647359997513654E-9,-8.253314875887617E-15,-1.7322174746773933E-40,-1.2615021539525014E-45],[-9.294837675440496E-54,-1.4174832038342518E-33,2.4474874302966523E-17,1.7270471708016448E-15,-1.9921510724350298E-14,-2.3213745795796315E-37,4.868223055580738E-44,2.9509690982969124E-34],[-3.3016363720459307E-47,-2.2088036748996989E-23,1.2056586282925861E-9,1.8606496527784117E-19,-6.050278734151978E-32,-1.6914045042505633E-44,1.5664953878185813E-30,9.39163630216948E-11],[-7.1735305185291415E-43,-2.327035699497466E-29,-1.7027220443433008E-22,-2.8698120060643795E-26,-2.952504042808123E-32,-7.758244097644142E-27,5.454771776978614E-11,2.2164311659712276E-18],[-1.4339649318391563E-39,-2.82468191408818E-26,-1.8912161419774947E-17,-1.7982566784054862E-23,-4.803474143893816E-35,-7.094644464491021E-20,1.2034146142871353E-19,7.604515730094606E-22]],[[1.2795569532116843E-30,1.402372222821011E-27,-2.7752581381746427E-28,-1.0313221915596675E-31,3.1813977096439764E-37,5.0177062932230524E-39,-6.283572087023394E-28,-4.9850435142068254E-17],[3.7705397178572775E-37,1.8805376340696125E-36,-2.006999852422575E-38,-2.35817486461919E-42,2.079896949680192E-40,1.671498694381374E-28,-2.2197070486757972E-14,-1.8052325189106064E-8],[1.5760556078803118E-40,1.2169521499991035E-29,-2.15755548515369E-29,-2.5884281383239805E-31,1.087680092247766E-30,1.2158752816959742E-23,-3.468627048266832E-17,-1.1165359261419605E-13],[9.923816676790768E-13,1.6802846033336847E-11,-1.1564516603785095E-29,-5.271608765588039E-33,1.3056590684133304E-27,2.52096652878843E-28,-1.4641774878803032E-24,-4.091578969824049E-13],[-1.8522911872372356E-21,-3.7493071251206516E-8,-4.656571134039669E-23,-3.30123337143892E-17,-4.958939711591969E-20,-1.7336373827933756E-34,-5.458454688304687E-22,-8.632279499238829E-9],[-0.0,-2.6523369126519167E-17,-3.318330390190372E-21,-2.28317356364771E-27,-1.4025431179000377E-34,-7.50041821887114E-33,-4.251587902439728E-14,-3.205101545118103E-12],[0.0,1.9572772940853404E-10,3.0988723833469783E-38,6.957452860623091E-41,-6.80725285802793E-31,-3.0640212537319973E-14,2.055603762775343E-9,1.83464152093677E-18],[1.788362278085033E-12,3.5681511760747715E-24,7.59512833694789E-38,2.483231843811106E-23,-4.6047322172956226E-14,-5.180608283699183E-12,3.3200630406331856E-19,8.161997943815272E-23]],[[-3.802147577140926E-12,-1.8894051782997293E-20,-1.8527383397130106E-27,-2.844716580969834E-29,-2.0555819225097824E-31,-4.8665108631676185E-29,1.0097572979321039E-20,1.0236064509640406E-15],[-2.1092411428001644E-21,-3.877524123006669E-32,-2.7509414515417134E-32,-1.1451514843880853E-27,-2.684766506582991E-21,-5.384457404926308E-11,3.633616291330169E-16,1.1764837140223953E-20],[2.530965528772612E-28,1.3011676530724043E-34,6.791143302403284E-20,1.1305051008809075E-13,3.857299154687859E-19,6.791019638543528E-23,7.554265242081559E-20,1.951971933479793E-14],[2.8034829519018466E-25,1.99429088010019E-13,9.111657765274769E-19,4.1043422548438097E-11,6.084961153427832E-17,1.4869879761829037E-17,2.387034872323671E-16,5.52102372412523E-18],[1.7811727104531515E-11,4.910663669055006E-8,2.4987312343253658E-23,1.2568884720207023E-38,-8.949239305647506E-36,-1.6615572366404253E-26,-7.20010198544526E-30,-1.3935211326661152E-29],[2.791537360958965E-8,2.657573776791008E-22,1.1525667823244656E-34,6.060237414535217E-46,-1.3912463546738409E-33,-1.71346526735147E-24,-2.4697367615769273E-33,-3.763316835075642E-37],[3.530832868393244E-11,7.056658900778479E-31,4.094653794263645E-35,4.143572931390432E-39,-2.3282115250744404E-25,-4.0637754427250396E-17,-4.544870430636088E-26,-1.3853774849899583E-41],[4.887025903435281E-11,1.0676959963642941E-18,2.1071595473417113E-15,7.563474739370699E-12,-8.163145303655716E-16,-8.822726531520268E-9,-1.7245269850150537E-32,-1.131431377497725E-44]],[[1.1525376754054132E-52,5.691866288076308E-55,-9.705757538266566E-53,-3.455653117027435E-45,9.32311054895704E-39,9.70688686358331E-28,-1.5983028616483866E-15,-1.044025866368219E-16],[3.6241417650991806E-58,1.3840107015852603E-48,-1.6640713080954986E-27,-1.9124381305071943E-16,2.7900918205357806E-16,3.6302313481020347E-10,-1.9692977304237827E-9,-2.514778744204704E-10],[1.2056141541853899E-41,4.525878761809326E-15,2.29620301688121E-9,2.6625977769030423E-10,3.7582182167813273E-10,1.6330354730864638E-12,-8.827286526613464E-19,-7.533922896573708E-19],[7.165964963037563E-15,0.0,1.817938524300605E-21,1.1736861539537681E-11,1.2140468282616931E-14,2.0089569684886087E-25,-5.114952782966754E-23,-8.803124087394591E-15],[5.447605064093726E-9,1.5481330487875066E-20,1.0079721540637353E-19,3.018507699614828E-13,-2.767171290556524E-23,-5.796228314976752E-24,4.048311271287329E-22,8.953457264252705E-20],[8.780450628844261E-15,1.97565328006647E-9,8.638805550755494E-9,1.8630135358658263E-27,-2.3029494720893666E-37,-4.50363470765769E-16,5.854695988578075E-10,4.451932777524576E-16],[2.414437742813388E-33,3.9904567044934677E-33,-3.640977628052967E-28,-1.017479859310482E-30,-2.0721246828002765E-17,-1.8135040906426245E-8,-3.0504676887476423E-12,-2.1954396770978647E-22],[1.1272757475405021E-38,3.3232080806489563E-49,-1.0199785653700974E-36,-2.603931220132832E-26,-4.834567134874146E-16,-4.542952165297476E-19,-4.0240095499043065E-32,-1.5372755800695546E-35]],[[-1.6282122203200152E-35,-2.82684020236908E-30,-7.889797551279712E-29,-1.9885557953055182E-25,-2.3292826867834788E-26,-3.637254374368229E-25,1.2600039424245834E-22,2.3514364577571797E-14],[-2.528696448440854E-34,-6.065983549763808E-24,-1.2417202151745579E-18,-1.3564843507340228E-16,-3.365570995972529E-17,-5.563170946735298E-25,1.6373086181477273E-39,1.91203222445118E-35],[-1.4817349214960356E-39,-1.2834664113001057E-14,-1.363341353343922E-8,-4.8753695324807283E-20,-4.812907745142111E-41,-3.3338707276112037E-52,-9.48378015813682E-52,-1.5850065768242912E-36],[-2.0971257219986156E-26,-7.649232561056327E-17,-5.2627717762513725E-23,-5.7798080654717047E-36,-1.025618587908045E-36,-1.349517596221053E-41,-2.2809503588230577E-39,-2.21456532259341E-18],[5.177222234739761E-29,1.4851212719342963E-9,1.0205534509392774E-8,4.686961671854724E-16,-2.375699571651762E-23,-1.4715542445169247E-43,-6.033807953834385E-38,-1.9199253702147732E-16],[6.046079929451701E-27,2.3536292286654085E-19,2.8435686636304936E-18,1.5229273910862568E-10,-6.665231581158521E-26,-3.4473989192614396E-32,-2.2485886142472924E-26,-2.7932149921556696E-14],[-3.1420647418642712E-27,-2.0729307321491437E-21,3.2846193208834477E-13,6.900288693473951E-13,4.2095587807750684E-15,1.9810562433789632E-22,7.718065236375026E-12,5.6330402279616685E-16],[-9.185911464537354E-34,-7.015135835983815E-17,1.802021038199254E-18,7.487364211347868E-33,7.215007740456338E-42,5.360195938994555E-31,4.091459680825908E-22,2.9745213671654874E-22]],[[1.3294656104409609E-58,5.289260942047744E-64,1.8274720853642115E-63,4.461909970446989E-56,1.2924009483860789E-49,1.879017418506401E-40,-4.99104735902676E-31,-2.5135694302259956E-16],[6.383460843910541E-58,4.328542722311375E-59,1.79481669125952E-45,7.130372291784385E-35,3.1534612720431163E-30,2.385381600190493E-20,-1.6803083785612162E-10,-1.1720674375258666E-14],[-3.417854058873595E-54,-7.129834509705692E-40,6.504290462632107E-20,5.884413060211978E-11,3.2001040255090684E-17,2.8046555575993003E-24,-1.844340073661149E-15,-4.396408493051728E-16],[-2.0208649267329428E-50,-4.041924949272509E-15,6.652435512635709E-13,4.7360444890038454E-17,2.0399659002008053E-25,5.016873023760132E-21,-8.398839080932745E-17,-2.889398151550567E-19],[-7.245718991662683E-39,-4.1577663451282785E-19,2.3455165700417867E-30,1.8557821741937028E-30,-2.0973220360859315E-34,-1.9424476492009243E-23,-3.1638249123114703E-28,-1.144069405896146E-25],[-7.15716358692731E-36,-2.0244201153384354E-27,3.4812061952828E-32,6.829102608579852E-35,-1.5292808630879127E-40,-5.910637236016776E-33,-2.1363200358393534E-35,-4.664364581616032E-28],[-1.5891819919254672E-39,-3.833545229892308E-27,1.9324608169057466E-28,2.649516820705622E-34,-3.343740004451122E-26,-1.0674307938763787E-25,-1.4469344735553278E-31,-3.723596769911023E-31],[-1.5930084326239409E-37,-2.8014249248614344E-33,3.5824755964495787E-23,2.3133932237343333E-23,-1.0164084630284408E-25,-9.686992911780828E-35,-2.8424649101614132E-43,-3.848561605862612E-45]],[[3.1199024405050362E-65,3.102082185624247E-63,2.285887573218525E-62,4.1928144917632E-61,2.3811294186581203E-52,4.8726903998881586E-42,1.288796216936893E-33,1.2514622896447864E-33],[4.037891542248852E-56,2.408459011120387E-52,2.2574062099228757E-45,1.1077336064311476E-32,6.247627397287029E-19,1.7950820233806768E-8,3.8714563627025974E-11,2.929707965466572E-13],[1.4523327791739741E-44,2.9102937500645602E-30,2.2359777132063507E-17,1.2298271059214975E-22,7.339873314297919E-18,3.0471172276502714E-12,-4.054403041377228E-14,-5.167905514403712E-16],[7.718450998980349E-28,1.0253017154705489E-20,0.0,1.0828655556319585E-18,1.9240637825845345E-11,1.6926715421308838E-19,-1.0152201194228658E-20,-6.871772736128253E-24],[-1.924680141915569E-25,-5.774348034248979E-9,-8.207970935320369E-10,-4.449209807516821E-28,-1.530040532052049E-36,-4.5849505550686924E-41,-4.00545902945959E-37,-8.48288368847159E-20],[-1.8000686767620743E-28,-1.3206870876700283E-21,-8.819454175821975E-36,-6.16228799531713E-55,-1.6354850759225557E-60,-1.5111658784713793E-48,-3.026391771047344E-15,-3.165930752931973E-13],[-9.64024609405676E-39,-1.251978882790139E-44,-2.81225889965916E-45,-1.1238960896658483E-46,-1.5165930856740102E-35,-1.1198187062926797E-16,-1.5348324426216957E-13,-2.1090144117770174E-13],[-1.2865072885138743E-35,-1.2475673727310919E-32,-1.0088423795331474E-20,-1.6431431593257748E-12,-2.9322500303237548E-12,-6.3476059830823765E-12,-6.20488159265297E-11,-5.938961154154279E-28]],[[-4.5722049268285456E-40,-4.0343907537918804E-38,-1.9650892629957293E-37,-1.4082200053694363E-35,4.634302157658043E-37,4.774580678374119E-33,3.089803770437802E-20,3.5053561653451863E-17],[-4.802798529116398E-40,-4.1984017916674375E-38,-2.4475564148480756E-39,-5.4534126638052755E-33,1.6317313987518636E-25,4.0796085859337075E-10,9.542170950949839E-16,8.893370405383643E-17],[-4.6857811955162165E-37,-1.3270278438884927E-26,-1.6798161394680503E-26,-2.1751992736914964E-24,4.515787781402482E-12,3.6422616020886976E-22,0.0,1.6297595017824238E-19],[-4.225232569950585E-34,-4.6954038354311243E-32,-2.394346833521607E-29,-1.6115769262013704E-20,2.3055245298918446E-11,0.0,1.1239720701951367E-22,1.765167367021071E-11],[-8.617458525632497E-30,-8.76520161873641E-34,-2.338636329887876E-31,-5.296278112428535E-29,-2.7110652276661925E-9,-1.3252205353856811E-8,-1.9857220533241738E-19,-4.9330063326800985E-36],[-5.568943327746222E-32,-7.454406844280518E-39,-4.728958346127382E-39,-5.225795807050098E-35,-1.8533131638727878E-28,-4.232292686692864E-28,-1.4126760301366986E-40,-4.364937542755942E-32],[-7.890386940628853E-29,-3.5392098954924494E-38,-2.1293554412226164E-40,-1.5061650825401603E-32,-6.849489892480963E-26,-6.329205880335964E-31,-4.781050701494369E-34,-1.1394494816849664E-24],[-1.0924969938529793E-27,-1.5084433881665892E-26,-7.158178822217785E-23,-4.395893944976056E-22,-1.9634853729278442E-25,-4.0653609076186436E-29,-2.6324024826373623E-24,-1.3349178155432466E-23]],[[1.0146939843196439E-36,1.081000526350164E-32,-7.523415041154047E-30,-5.051231107971524E-28,-1.455233991932054E-22,-1.5406130699406533E-21,-5.995037818439645E-24,-3.4360791914689256E-24],[9.986791202318095E-33,8.698610888412902E-24,-5.632946982924119E-15,-2.5409326073034952E-14,-1.2387623921293075E-21,-1.3650699154250663E-28,-1.6635337514178802E-27,-2.500032804270745E-23],[-3.5386562820097665E-21,-5.5776121096426125E-22,-9.946987950733914E-21,-8.133878761988061E-24,-4.6419701480610963E-39,-1.9692133966904123E-44,-2.4172325850266574E-24,-9.277638948388223E-20],[-1.537753804762848E-24,-1.8005227585043656E-30,-3.464429977549793E-37,-1.022120259265715E-42,-6.273312148147484E-42,-3.8801382311643726E-32,-1.1702833639730384E-19,-7.157800751279914E-23],[-6.782763969596124E-19,-1.0148789507670733E-20,-6.316906786060897E-32,-5.88784794421398E-32,-1.1564325072297894E-26,-3.0496313563057184E-26,-1.1217557891105708E-33,-1.2900586336313633E-45],[-1.317594851653624E-12,-4.7818561914037484E-8,-2.886688841565061E-15,-5.616916007135615E-17,-5.586202695248944E-8,-3.670482418931219E-21,-3.0867607730276915E-50,-4.165861312338167E-49],[-5.472745095035739E-12,-1.3736559615485608E-15,7.361127117228711E-19,3.2456419927547135E-14,5.149125552904777E-12,2.4996999150891863E-31,-2.9209203449474915E-52,-5.950690654935925E-41],[-6.719427058937697E-10,-6.574492046431418E-16,4.045955030001201E-13,8.904323747603426E-15,5.09764023177823E-31,1.5640369311641124E-47,-1.3098554664579097E-42,-5.5335970552330874E-36]]]}