{"poolingType":"max","stride":{"x":2,"y":2},"padding":{"x":0,"y":0},"layerIndex":4,"layerType":"subsamplingLayer","mapSize":{"x":4,"y":4},"mapNumber":12,"kernelSize":{"x":2,"y":2},"maps":[[[5.980326576072091E-25,4.564757735107206E-27,2.6424112210918144E-18,4.292501996347418E-7],[2.327040151461436E-12,1.7259338134083358E-20,3.7244760326974617E-6,0.4879375880928449],[0.24660768556183288,4.955360305099183E-16,1.0189806620363218E-9,4.730484958048115E-9],[0.27482686456894156,5.853961484403767E-11,0.005851011141759263,0.35765903688340916]],[[1.6634454125131046E-28,5.064337402009175E-22,7.7169168660618745E-25,1.7203309720337762E-13],[1.920930583926077E-17,6.640335014978959E-14,7.206492972291263E-14,7.008329194738968E-10],[0.7353278772515928,0.49949939620060557,7.726553066459421E-8,1.0300248261815289E-20],[0.7499967503133812,0.24999991918237016,9.061451506308175E-14,5.7372190941543005E-5]],[[1.2850452721682738E-12,8.340171010588686E-16,8.408924373588878E-18,5.01056710685064E-4],[1.6679087323452584E-18,5.807572852655671E-15,0.23219504109793762,0.9999999609928827],[3.6651227030504726E-19,2.8110195856451636E-26,0.14857731716083314,0.5552182623524481],[6.050547728671138E-13,5.61124466288008E-33,1.5944183664653119E-13,1.2738331497677026E-12]],[[0.24999359311115532,4.4201928132228125E-25,1.2036053923686965E-13,4.019214977380712E-24],[3.2153073711049774E-38,6.710887881677748E-8,0.2411160344866577,3.1586587637376415E-23],[5.863849588979548E-17,0.5126111245639992,3.298016252710947E-8,6.361186520434474E-5],[1.4194684466201673E-20,5.6627945140978635E-12,5.896941313356628E-14,0.7500318588850416]],[[9.93607937885747E-19,6.095859377304062E-22,5.113119718816821E-22,0.013990340545372253],[4.131955957310692E-5,2.975785913035471E-23,3.1498760912818973E-16,0.4999969790991181],[0.8203721557741992,3.986205708278357E-11,9.127905958229192E-14,0.24144385927112627],[0.2503372175694241,1.1232665542615879E-16,9.79543270585422E-5,0.2485570044466334]],[[3.7565522497139417E-6,4.141088439291168E-21,0.0022117367181822894,0.5000000007196316],[2.723018802405547E-7,0.749878676792533,0.5000000000615793,0.4999999896742219],[0.1463547967710386,1.6709913556932655E-17,3.898469184622041E-18,6.499707126948387E-22],[8.552341019580827E-4,4.684566806524671E-6,0.2623516987494316,3.8302169361432996E-20]],[[2.1585300382317452E-42,1.5228041279163481E-9,4.4266804994081853E-4,0.0022523206502245226],[0.25000002011147215,0.993249702738945,0.24959888498783703,6.978521044926712E-9],[0.5263258071582975,0.5125629246504517,1.9590732761751257E-10,0.0048492171761108],[3.337608039367096E-26,3.061047669596857E-20,0.013838621090504722,3.068100229669108E-5]],[[3.816154257712629E-18,3.0648890167527055E-10,1.2979266635950128E-10,8.621008317988404E-8],[2.1554027307753365E-8,0.2232206101976639,7.361741090381806E-31,2.118717542654759E-12],[0.2511878079631545,0.5276319186007236,2.6534808827087586E-17,0.2499999428004306],[0.2500000007025711,0.25000040146143865,3.4813646530632735E-9,7.495311606941525E-6]],[[1.5338643830859618E-51,5.484003053219572E-29,1.4682134382207278E-14,0.49858027664831],[6.353962374037753E-9,6.172476590082976E-5,8.69982941201622E-11,7.23391482605429E-9],[1.0075540067468441E-12,2.9602872152683127E-24,1.7732752561009917E-16,1.8115438753130893E-19],[4.1690883776417644E-21,6.522612559672657E-17,2.84129925946314E-19,8.81095672763199E-25]],[[4.560309133851396E-46,6.659929062841268E-27,0.008933289541838915,0.24997957264848067],[0.24999999999990163,0.9999999430718087,0.5000569142401604,0.24999998035337345],[0.24677549228703616,5.96561862963909E-4,5.904874130664844E-31,0.24999992992019193],[2.4590912460824726E-26,5.12151038876221E-6,2.2364222726503657E-5,0.5000285401676714]],[[5.67245336040169E-32,1.1803686145835712E-26,3.575495574933164E-4,0.4999999993258077],[3.448719662487917E-21,8.053517460797501E-15,0.7499745660191456,0.7500087181782826],[5.00235197450707E-24,3.1931955993034054E-23,0.2369983248360202,3.2455607739899024E-12],[1.592548595183875E-20,1.0539504003489256E-15,1.105194467866698E-19,6.509989606456072E-18]],[[1.3948922605077906E-17,8.728060384735976E-8,2.4316169665863496E-15,2.0484501241437706E-17],[5.269460725658702E-15,1.1502644947535567E-14,2.470857317525125E-26,6.569514305845358E-14],[0.20946868926932868,3.263574651084571E-9,0.1352988696489757,5.243887890594237E-28],[0.5036715398871914,0.7499992207789057,0.24999728751411499,3.493286785060052E-30]]],"errors":[[[2.2014945264775454E-7,-1.5651059419887153E-7,1.2054497708403702E-7,1.698953185069937E-7],[2.126891791835925E-7,-2.61849225140535E-7,3.09101466211795E-7,1.3221437671702978E-9],[8.224843345432948E-10,-3.9383580521222576E-7,1.3784958267484208E-7,-1.957524506999501E-7],[-4.3090720278480996E-7,-7.04017012473292E-7,-8.054078266804528E-7,-1.9008227975676406E-7]],[[-1.0023430597280634E-8,-7.471230178689359E-8,-1.224501922104352E-7,2.3281987252706148E-8],[2.146850750074939E-7,4.2110273278506676E-7,-6.538028474010717E-8,-4.196139102681265E-7],[1.5294965029482062E-7,4.898366188533023E-7,-4.433050906966468E-7,-6.798942477253111E-7],[2.4632263392433727E-7,1.6487822764050281E-7,-3.527559880484819E-7,-5.309335408173271E-7]],[[-1.3131672465807894E-7,-2.49411890202693E-7,-2.3830247507898936E-7,7.931902054671213E-8],[6.219967461595508E-8,-2.477911957026459E-7,-4.625382577860135E-7,2.686483178449454E-7],[-4.3085924947090417E-8,-2.4665231492895123E-7,2.2358953030566787E-7,2.3217449191393437E-7],[-3.559217028741227E-7,-3.3403340675265834E-7,-3.528649419000828E-7,2.631966909588851E-7]],[[2.3503084851140785E-7,-3.2301126391407927E-7,5.5490840288927364E-8,-4.1748179561243934E-7],[3.205812615990594E-7,-4.663944772147249E-7,-7.723318620803509E-8,-1.546236746101968E-7],[-9.417037568599338E-8,2.5170371769632224E-8,-1.5101133398019142E-7,3.691931748190636E-7],[-4.97899223564829E-7,-8.349389005988671E-7,-3.007764900190978E-7,4.2809617760484005E-7]],[[3.5317043285165903E-10,-1.138596417965091E-7,8.172597110643316E-8,-3.4170833838022643E-7],[1.0768422832796897E-7,-2.806333087638503E-7,9.65142064954394E-9,-4.30981516286658E-8],[-1.853772866805189E-7,-2.0706218541024957E-7,-1.3581810916675437E-7,-2.610713384069894E-7],[1.4662498756958634E-7,5.5268089181279484E-8,-1.3422829881083816E-8,3.582023426506224E-7]],[[-2.5303819021524753E-7,-1.8270344522292633E-7,-6.1405575130694965E-9,2.2936846822852763E-7],[1.8309578422119275E-7,8.484845546566507E-8,3.0584033513610357E-7,4.6668568078603435E-7],[2.0167140425452203E-7,3.7383964103456015E-7,-1.1094616625049728E-7,-8.130283031354008E-9],[2.4650146349575857E-8,4.037579087346885E-7,-1.878544104285633E-7,-2.9664587090851383E-7]],[[1.6030892556349505E-7,-3.139665350115805E-8,2.0538377941658568E-7,-2.4828888908611657E-7],[1.4533799588676505E-7,9.746746738836698E-8,2.335883964500222E-7,-3.1542358504359857E-7],[4.150102036691646E-8,1.8100091776091716E-7,-5.747149813940514E-7,3.078079017635944E-8],[4.797526884911627E-8,-2.1564861360432847E-7,-3.4681420197539307E-7,-2.485937446761751E-8]],[[-3.9738870386420537E-7,-1.1165996134286839E-7,-6.482591016990457E-8,6.818916055101026E-8],[-1.497534237375025E-7,-1.4254423498197915E-7,-3.4831441352288296E-7,-2.6130964581495394E-7],[3.140682582872233E-7,1.0260220946427616E-7,-2.2445656403677623E-7,-1.212428874619965E-7],[-2.496163121088906E-8,2.2515884465681868E-7,3.022923089798071E-7,2.5745627177203766E-7]],[[1.327657468559114E-7,3.250532604908807E-7,4.0617078185116135E-7,-2.9759657155938117E-8],[-1.590316724457146E-7,2.41085536049352E-7,9.197324060082765E-8,-8.184566567848818E-8],[-1.0316485115308334E-7,3.577506833936084E-7,-2.738502726987716E-8,-1.5896628440818506E-7],[-2.2987927361032345E-7,2.259787811586063E-7,-2.1277354455577036E-7,-1.4670742926400827E-7]],[[1.3205589410731168E-7,4.1582034732618854E-7,5.209735362164491E-7,4.702614083021156E-7],[2.6058399682490467E-8,1.029488642372641E-10,7.115349586312673E-8,-5.093397692965847E-7],[-4.535420164830154E-7,-3.4479257497307894E-7,-6.478065186915486E-7,-1.118605689986208E-6],[-1.2696304438021485E-7,-8.020958207993453E-8,-1.0374202837234298E-7,-5.403923867720241E-7]],[[-3.6697272110445037E-7,-1.1580479506121615E-7,2.8565631714178396E-7,3.738051918601939E-7],[-9.619748134545288E-7,-5.003391798009677E-7,1.8225875548836174E-7,5.061920196505664E-7],[-4.334973094021924E-7,-4.1648479842235474E-7,-2.1959953743868003E-7,-1.529567763192167E-8],[-2.55185851064778E-7,-1.21251242602502E-7,-5.99181253726668E-7,-6.574906856707449E-7]],[[1.559011250453872E-7,-8.891517503804012E-8,-3.007154331831629E-7,-4.202336705752123E-7],[-1.9442004893523145E-7,-2.1636592876904448E-7,-3.9259032365708756E-7,-7.986843142063331E-7],[-3.5201298041910735E-7,-2.2543210691050601E-7,-2.2497530085657744E-7,-5.347920343243379E-7],[-4.6802467366349013E-8,1.3736458665101406E-7,4.74581402402813E-7,-3.9602086891786464E-7]]]}