{"outputNumber":10,"layerIndex":5,"layerType":"outputLayer","mapSize":{"x":1,"y":1},"mapNumber":10,"kernel":[[[[1.3272906918410274,-0.9454128021084657,0.7273382812817484,1.023057526333982],[1.286345459236673,-1.5887532149721912,1.855930872823067,0.006007332446436855],[0.006845473743859569,-2.3781885986203837,0.8262880496302263,-1.1848434892648798],[-2.5987465645198,-4.250543425615974,-4.865232363506331,-1.1477012110400784]],[[-0.9024011795644652,-0.13613902115769982,-1.4799179436144942,3.71286913957318],[-4.706969304390468,0.33921007245292173,-3.07804242204319,1.5191496606092163],[-3.569994429229014,-6.304578941232351,-4.597830327422207,0.5967811368553311],[-0.36545755482853454,0.7959248062814511,0.7473274067657816,-1.9739387018362382]],[[-1.6217317092407413,3.40432512307925,-0.1713115738106632,-6.2753666238498464],[0.0158015469187209,3.3683053336317212,0.336022493396338,-0.7924514095691414],[-2.4154976127230197,-1.9078793857313148,2.6757688713308876,3.421755179767152],[-2.5748989205620867,0.2865409587032141,1.9878783987060151,2.7685735827264324]],[[-1.3394271885413607,-2.8499828314251445,0.7544780496283364,1.8493551337164529],[-0.20437157760223257,-0.3990060160530487,-1.6043279974863718,-1.725665973538735],[-0.004329771767379381,0.2529689215852013,-1.284433078392484,-2.435520492724271],[-0.5035967225971537,1.3551603249889796,0.23766343283037852,-2.9195264673101007]],[[-4.410382879848532,-2.1743418749105956,3.7947503158516613,0.019513326107039902],[-3.2333151015104677,2.694202182850433,4.635602928297939,2.0219594209215477],[-0.9991414868243981,-0.2642534471186581,0.5755001191100919,-0.439062065004944],[-2.2876922859669224,-0.9772593709696611,2.578347616318056,1.4443786481366947]],[[-4.059724536143671,-1.0256502322346055,1.2020461671309506,-1.7178971404879315],[-1.1070179722114601,0.9046571071948917,2.033035215929401,-0.16487394982572134],[1.6022739803733383,1.6934203779474406,0.3384227792369063,1.3726049293148748],[0.7193609170000186,2.2787316701814704,0.8962094676911282,0.0810583159463578]],[[-1.0847053810455243,-0.8603517379019233,-2.4698287410144535,0.12358997634210966],[-1.8590313886853587,1.3411349317579326,-0.977462134618303,-1.2297317953603293],[-0.05485629344062373,2.3082254232376425,1.232078552953768,0.3043608623528601],[0.8701944175647937,5.2278339657068065,-1.8945007057335155,-2.1606485683189582]],[[3.8915851719517516,4.654300959431906,-0.45142025146611026,-1.3732905173411034],[2.83333910537443,1.206079223509527,-0.6850401347485755,-2.209531753454907],[1.142107115858333,2.307542750436777,-0.2509161360325071,-3.3596457367668258],[2.2947017186085894,2.303597066420232,0.4420850306312235,-1.6924310087493362]],[[1.8212195061212613,2.926459785065787,-0.729597915449012,0.3566733790920546],[1.1768457494323923,-3.1814667134973282,-3.7092790151500266,-0.9957587635829238],[0.13123300822146558,-1.503044288682851,-1.056712492673406,-4.916191333111547],[0.11557013809452439,-2.5407768968889313,-0.8522309185238198,-3.8033662652830427]],[[-0.3894497622435401,-0.5576521686194504,0.12086226733584801,-0.9410073458959438],[1.6235086631094515,-4.46228314423141,-4.312865253145021,-0.9276736806735018],[0.9241669387940444,-1.143905314320799,-2.6586664715272326,-1.9083153886544142],[0.4137569148983796,-1.7432483165370851,-3.0004659879042355,-0.39717303034089835]]],[[[-0.06077040376732753,-0.45477636166867746,-0.7409441990775748,0.1409659095845955],[1.3014951791250655,2.5356892586736457,-0.39499283433884663,-2.5286741357973845],[0.9285470173599291,2.9511604179934925,-2.673461669820746,-4.09740952598513],[1.4882496763211193,0.9939293259483184,-2.127061465545786,-3.201231603895721]],[[-0.8318062729309885,-0.9663809536433675,0.6408972619977097,-0.4276791483391157],[-5.838439173307676,0.25396085448027683,0.46053668080367094,-2.6744359389072025],[-3.327749088940795,-2.1103497881330484,-3.3870819942656305,-4.186220668542822],[-1.9361754560633675,-0.07292914517799322,-0.87633299777808,2.3722512834513605]],[[0.4990103727016815,1.2532694567018776,1.35690430954939,-0.5691195131254421],[1.5084228432345503,1.5693856664751131,3.4533574286512256,1.0480605117829365],[0.8017948944108206,-1.321560085203407,-2.0251968208025675,3.0447577122928777],[-0.4439916427912387,-2.6391742396146953,0.6034829164503361,1.6220529400936115]],[[2.8933313506147558,0.9899964625754344,-2.160180458432327,-0.4152773425020392],[2.4369390017700034,0.4784324343618244,-3.178298652534334,-0.70003601807834],[0.863794831742572,1.2677506115654877,0.6454912437569783,-2.1455949815273514],[2.844353211241196,0.39250335472889913,1.6494521809186116,-1.595389750997006]],[[-0.8096544909114921,-3.5646521860858984,1.117140960362737,1.7833996726421004],[-4.564703430091523,-1.9938754740056244,0.6860870075788993,2.742581938802908],[-4.102174985743972,-0.03560989365869504,-1.9289824297083067,1.5765878396567354],[-2.061538005898857,-4.008056630552943,-2.0557999316135307,0.1713980922160119]],[[-3.7357576513690534,-2.0627494438552496,-0.538100663897009,0.8980683853669641],[-6.247391123620996,-1.0059505803226456,0.6569458317108322,0.6199756583082036],[-4.142303244766051,1.5991295341763268,1.076514451843304,0.2115814877956495],[-4.1541062773143045,-1.0808171080918358,1.628622152278639,1.0159664721719244]],[[-0.5773372024575041,-0.6528111173061256,-1.6611774434284876,-0.10570921217093003],[-1.8606279549311486,-1.1914341194478992,-2.1935545205297964,-0.7861278612241739],[-0.525668996435721,-4.369416143461541,-0.8589188296917928,-0.4745922276887904],[-0.8872263595003225,2.4184416171865517,-0.5633831177253837,-0.2514885582515224]],[[-0.1097024756034026,1.1523370401792876,-0.21487712852475044,-0.2721260853001303],[0.21162954338283066,3.723439462195491,0.43370352693262243,1.5144996667240502],[0.06815134199824212,2.7981640850748772,-4.39844326426022,-3.2935006492195624],[0.5207212347633818,0.28441074830504676,-0.694750972567013,-2.4785220290015015]],[[-1.1066938722888753,2.1359216461930504,2.439478466975744,-0.5003592936373671],[-2.6135559711242324,-2.7035873122973335,-5.675836440684951,-1.476628168003948],[0.07779724393704729,-2.298801005627048,3.1951652550163128,1.4115078031346586],[1.4344277870367643,-2.8949897756145035,1.3580335678149866,0.7301682784581877]],[[-0.12938589490582975,-1.9594080190841063,-1.0314597190107258,0.2513486533404179],[3.1461711060342163,-2.3180281241091594,-0.20679037117344096,1.4138892464170976],[2.8607045305216987,-1.829705057123059,0.5051906085745566,2.151354690133064],[1.102080175644611,-0.4515723418692703,0.5557784257212888,0.9222924135151565]]],[[[-0.7904044751775234,-1.5030484093814627,-1.4320699606647644,0.48125928359620873],[0.3668878721193232,-1.4950699558090577,-2.787029847440753,1.6188192915045987],[-0.27182580548426893,-1.4937080931571514,1.3391070403178893,1.394705311132714],[-2.1553807504022915,-2.0200514610669598,-2.138530571824835,1.5840499735448046]],[[0.1514561885758294,-2.708615089794106,-0.722147999422193,-1.128060055474772],[-1.2175265672130788,-4.8134185827379445,-3.195840689856568,-1.3291631290149735],[-2.806504429918066,-6.860017394338141,-1.4548569616730105,-2.059844419012509],[-1.6128928502103774,0.903085753878709,-0.668289751204598,-1.178587380375799]],[[-1.5956809373806162,0.8650588405097792,-0.9553179707751612,1.6001534359099885],[-0.42140474301277575,-1.4403477144294536,-0.40265899149894263,-0.7548914164684967],[-2.301002750242641,-3.087657838168373,1.3816686367837647,0.4369623390003858],[-1.8924953737436871,0.7144475081937208,2.5656653419751336,1.41972431619638]],[[-0.9927103590500235,-3.656313927076572,0.5485711527644984,0.7659728646355598],[-1.640660249726336,-3.1620139299278143,-1.5619069135557384,1.353473407388304],[-5.632519984859782,-2.5500225979791953,-1.8807841595373918,0.4556328447727943],[-4.497989816069456,-2.4339733202465115,-5.50024568767664,-1.8274865375195444]],[[0.19702361416400987,-0.022587161301950487,1.4216479131920803,-1.788552522601913],[3.709160079827317,1.8375418442661913,0.8930581255646771,-2.0995032388941555],[2.2602738774135926,3.151174704022802,3.8403043072717495,-4.4764605628691285],[2.2889205462735673,1.1527468781338934,0.6659614102994573,-1.5078219819667467]],[[0.4717585440788654,1.0588992899682534,2.1335827139544907,-0.8289902459321912],[2.9352326284274177,0.570322088204811,0.3742857299937919,0.7269556319628733],[3.466541906778743,-1.662268020253076,-2.650451724193189,-2.747240608019041],[5.136999703135156,2.5509903525363247,-1.3034661295216752,-1.110534935289564]],[[-1.164036267455176,-2.3487661566749454,-0.7098537776148263,0.06172899178713541],[-2.1290296368098582,0.7265147182474897,2.0550770719435905,1.3068843968187323],[-4.278563366092052,-1.1766924492542865,-2.3611469208667697,2.702512938631616],[-1.9186762831547919,-2.6562685364054888,0.6010536851596092,1.7163203965791707]],[[1.0232373597766862,1.6144462992220345,-2.7104062491832,-5.275290387623347],[2.9287786254072388,2.161992115629768,-2.6192059368129357,-5.231629197694766],[2.3259940360484563,-1.829067890943927,-1.6909184201730936,-2.5601039102866125],[-0.471097398137494,-0.5972814665762988,0.27091266516617035,1.439377187664174E-4]],[[0.04968594138852333,-0.22095534791707333,0.23719059327372466,0.3365323763611395],[-0.16798502142348623,1.5582371783878814,4.302040546957963,-2.8746563477938456],[-1.8707506201252986,4.161050975951532,5.445151946918895,-1.5543461357701753],[-1.0962254501639965,2.789153741957442,-2.360706517116627,-2.690877386651527]],[[0.9281394340316823,0.8750413628227066,2.7635389564244432,1.3358549301532332],[-4.031065555382246,-0.09835795405078654,1.6250724874962685,-0.9818538444393424],[-5.69577441896404,-2.739668936542193,-4.728897280655321,-3.0166738012307617],[-3.9199955938284856,-2.292217322223919,-4.77486926551515,-1.9148402717713353]]],[[[1.422610016383322,-1.9559179676681924,0.3330324206685941,-2.5189820363632154],[1.9341022323777122,-2.8199750924986535,-0.46505138015896136,-0.9370670600370834],[-0.5762176167690202,0.1520173546074517,-0.9156511087082648,2.2345324751156674],[-3.001368960482972,-5.040750918976362,-1.8119983420015648,2.578196251837975]],[[-1.5531527413704727,0.7335334491253204,-0.5999659357462117,0.4416846166288535],[-0.3506202267948169,-0.2573741274193525,0.1372838313484659,0.7406987351966255],[0.35058100817715715,-2.652602376538969,0.07638098037071211,1.0167962190543658],[-0.9707807940445542,0.5535207261318476,0.48188435772306054,-0.2954288323423258]],[[0.5890095395440443,0.2606175507875514,1.3449155521493563,0.25162912838030155],[0.6718135325809714,1.5174043765652043,0.10097896159647816,2.6968085179826264],[-0.6361626591315468,1.580173636132738,3.222207104137748,0.8447641439673045],[0.7732690521084873,0.6258752101984371,-0.2407234270893592,-0.9475103504617288]],[[-0.09753277744229627,-1.2272686539456434,-0.9412604089192094,0.04408947416372999],[-2.237359310838283,-3.279828522189292,-0.1497510263007972,1.6866694849854522],[-1.406277324636176,0.12261870648174218,0.7464345324944682,-1.3325590970283487],[-1.8830608468584151,0.7843497695020577,2.3382143667958752,1.0542496554012597]],[[-0.47519647314741176,-3.0004124859491017,0.5458380369271477,0.6802407056155925],[-2.9497423156494937,0.47902719342028066,-0.11993433748761766,-0.5395424303131958],[-1.0163215005721264,-1.9659925928374842,0.42789015912169304,-1.024705347856567],[-2.5467842279000026,-3.397449982142679,1.1133905735167377E-4,-1.2265043499876152]],[[0.4282305033222174,-0.14355631739663555,-0.2816471375030038,-2.106495006608027],[1.533932297173066,-0.0915527755361782,-1.7895539362916428,-0.4558963805021393],[0.3975077702646454,1.740975524388105,1.0174641820146615,-1.0926465715941505],[0.8517821179149497,2.254769182967893,-1.4408833564548587,-0.5745051695614504]],[[-0.8943549988542131,0.5273477007848029,-2.5638516395333224,-2.4333651280694895],[1.3342971935174979,2.4487665078926715,-3.19399233810117,-2.9856608455404166],[0.017672396017504356,2.5483479923644836,-0.3665856621172356,-0.629909003271178],[3.1453495648370313,3.1693564339984626,-1.3630741905564447,0.6410598076312356]],[[0.27233002827025804,-1.2015530113140493,0.2223621762771645,-0.10326199218986509],[0.37808467975877375,0.2704447313197474,-0.5999415305177704,-1.7752419276263778],[5.038247491065155,-0.3864711305274857,-0.5532518660127024,-1.372596535131946],[0.6233094436765724,0.22732579629954033,-1.9872547067432822,0.8080390666410351]],[[0.9723266463549889,-3.7655177082778244,0.8088072070270411,-1.2347471748333974],[-0.5349523141567643,-4.0836813930045945,-3.9529049733842325,-2.734311697310648],[-4.249971351615145,-5.095730323074544,0.4232925487122583,-4.116795415922572],[-4.416358420641835,-1.6031582087234268,2.152497677324773,0.42178911352506926]],[[2.318633016888964,-3.544869390408556,-0.776134359514981,-0.08986557221352563],[-0.01584190776270806,-3.128503774045599,0.533157559448965,-1.981982943363678],[-3.9639946484064086,0.004690048889426757,-2.245207524137601,3.548448545610664],[1.0987162303386606,-1.858565633909213,1.3012656201119754,-2.218302193105987]]],[[[0.002674121374510995,-0.6852335438118525,0.4892628709649363,-2.060751244681425],[0.651740156524729,-1.6841923326356052,0.059680096137786624,-0.2526840417380385],[-1.1172468616199174,-1.2544348657069964,-0.8227666942143775,-1.5807827331579092],[0.8838896210367244,0.3281771568915824,-0.0851453195317228,2.154293972953031]],[[0.7299421838838057,-0.5430251321213649,1.3772642109487567,0.8276636042659179],[-0.8154018709731327,-0.32789814786817506,-3.272060309831213,-1.1043140390199055],[-2.7120848849686325,-1.4835043660303273,0.2877617352788102,2.1730736439874376],[-2.764964427291533,0.6276368842837735,-1.3713485005649415,3.062283120592017]],[[-2.1736813801649753,1.3361897613929525,1.4990395073933995,0.5243677005987736],[-0.49745832131354717,-0.2555587348016285,2.6441399091111464,2.5690463805284547],[-0.4956441905663987,-3.4855088233985327,1.1859966025149378,0.37225800575831636],[-1.7097319514904477,-1.6766756415391473,0.47002101176431843,1.9456231710157583]],[[-0.46980184981883916,-0.5473707207141982,-0.5637677502832201,0.09359903810222253],[0.5232310445158787,1.7353067338945896,1.5317207137035014,0.9019801914867204],[-0.08690306504735275,2.326903284886303,2.9816304441770685,1.2132145772838008],[-2.6596499198009784,-1.3594747835422505,-0.09627508225786559,-1.6252068394957222]],[[-4.269351182884333,1.4913635964896077,2.317053357772962,0.4040984270675223],[-4.945376157339922,1.196808750287718,-0.6989359321510257,-2.1134245795213826],[-4.087953526189819,-3.642293712962068,-1.5383279469249544,-3.356467705018542],[-4.435511018104749,-3.5228508003287695,-2.8076113468923487,1.0613811316253792]],[[-2.67883290389192,-1.4250250210865487,1.3892648437699222,1.6793732360395421],[1.3057710538824445,1.129451911272632,0.26614044632906614,1.6931465163768782],[3.5989254006273277,2.9265925422581014,-0.5837481398772947,-1.294368032995992],[1.6336698323635392,2.3922164757598416,1.1206160430283756,-1.5844484826370433]],[[-1.721352002680114,-2.925283098316109,-2.5824795001958014,-1.8964865476286654],[-1.8006645369342371,-1.3989339414383954,-1.0711651964329965,-0.7125045066065653],[-2.4854599994548443,1.0185630752603254,0.39013567594444615,2.4843286062058705],[0.7976885493575944,2.0421905973784154,0.5247590991136755,-0.5166627549401629]],[[0.5896432733260473,-1.3453619500171254,-1.6192907484133747,-1.375208363001564],[2.175816954719942,-4.891673950955999,-1.7617253369358794,-1.3184821580065547],[-0.49796050917326057,3.217720105906956,-2.3566670385748503,-2.3253639245231392],[-2.1354349829736865,-0.47331904719964324,-0.5286996848881464,-0.14965922671744647]],[[-0.8828241411912744,-1.4812861973829052,-0.3725701234908173,0.6182229569521746],[-0.661392150628984,-1.248545798534218,-4.833129958835907,-3.1295115322046856],[0.3945754749943543,0.029269444682578163,-1.6290313016722193,-0.05768204881707823],[1.091903679099396,2.0301098844871404,2.4765766246618393,-2.8952983835976096]],[[0.3177828672376709,0.9089719259414782,-1.777222773281009,0.42930578704038824],[1.0756389309857886,4.379864170622547,0.7440402574210516,3.6093089345283595],[0.626107699580963,-2.5959797784337444,-1.6681854074733828,-2.8911886171768018],[-0.3631728097250663,-2.6341096188266717,-2.056267628057395,-3.278680508423013]]],[[[-1.5332602631139163,-1.1058982162701136,-0.03692743668674581,1.3793778539489834],[1.1029400452156097,0.5173024759102646,1.8496864609979398,2.803345329184109],[1.2181403956101677,2.2571925309069147,-0.6695311929978918,-0.05234759172421534],[0.14482609356491247,2.436291805460023,-1.1331874425866089,-1.7896883130201098]],[[-1.0591558246779702,-1.62361364865364,-0.38494353672521797,-1.1133421691506404],[0.9396255353405922,0.02609955965864935,1.8385912535048359,0.9738051626116648],[3.2862496291025107,1.2261570138227667,2.4742066160382787,0.30797535532220566],[2.294594153901547,-0.5182565862349262,-0.20346504444479369,2.129428877459354]],[[-0.3110219798697866,-3.797684382279176,-2.1886384353198967,-0.868401982849236],[1.7860968319055686,-1.5263092663183064,-0.896572474198561,3.4837741613217093],[-1.157805060986344,1.6963186888769068,-0.17736248284015949,-2.517677260064309],[-0.5570042488100316,0.0977611538363478,0.29809809171547047,-0.028264584202152374]],[[-0.4981898749230753,-1.395263040732886,0.567841423183398,0.6288547275077957],[-1.9967741232947376,-3.094654419103965,-4.343256914075717,-2.230164171477611],[1.32415551132113,-1.4111730882244655,-2.4387633634370895,-1.0409458109849778],[2.411862495128239,-2.1184753288921123,-1.8302020944372654,-0.4394500276026612]],[[2.4927050247502387,1.7049285791969122,1.1052815875307285,-0.7152983269030845],[2.5077539407534353,0.43356654610618406,-0.4297454692499213,-3.5911423226516854],[2.0369317820702544,0.07887556794416,-0.5124260609035173,-2.079698531252987],[1.8643559254765587,-1.594585601589184,0.3448200892069103,-0.2383926407349234]],[[-0.8096845199745987,-0.1983354055663846,-4.4894582295563925,-1.9392278736878894],[-0.6396618475327231,0.004692864794777008,0.3304062518345306,0.1130292716602547],[-1.7457080258665074,-2.067052300610951,0.6836673740708213,1.2378113017907615],[-3.0348916726451227,-2.2985598175222837,2.4208028737767564,-0.06324187452068511]],[[1.8941906993987074,0.12179744144264075,-0.8638846730495274,-0.6881663872074875],[0.918951851076333,-0.29524527422260544,1.9318399143672107,-0.14942414733248527],[-2.344664483429841,-1.535982647251507,1.981989492433858,0.7790370687212357],[-3.702428260976065,0.4969675973534153,1.049318249325961,0.9477817908705727]],[[0.9363518983826845,-0.20112456244603694,1.6760915111971721,-1.3104142954715636],[1.107472181302453,0.52483096648885,-1.3065911624894664,-2.9780345009350353],[-2.196644973185931,-0.7604939188969437,1.2854969035554142,0.033550861795365865],[-1.601080403277442,0.017100103471289912,0.6656119300822056,2.1650563898265505]],[[-2.1518045483749706,-2.995642786831343,-4.299409240755155,-2.7264990055294214],[-0.6510095974849246,-1.8250517673357922,-5.919606422543694,1.8434466402129321],[0.8009485736867366,-2.7863332736589554,-5.996654322784176,3.9706939748752235],[-1.7865451756416542,-5.208365779526606,-3.675942768236294,2.0731261184708507]],[[-3.334479283469521,-1.7945024954301285,0.08382664523260548,-2.130781624228783],[-0.8450043875457657,2.6613178268903437,2.178008357143409,-5.946421223197627],[0.7880830026182205,0.9443930278808558,-0.15626350926317156,-1.638719782962623],[-1.7930234075489644,0.19951916271486517,0.032263399610625076,-0.046314378506673345]]],[[[0.9694778004456875,-0.18146543979622443,1.2365441698757782,-1.5058238919568259],[0.8847356342090045,0.5949781922807108,1.4072306793584746,-1.91620283196192],[0.2596020982260635,1.1025648259619332,-3.4664597534604242,0.17898767582483507],[0.28902264106875253,-1.3050495746776738,-2.093451916449147,-0.15283911282257845]],[[-2.283679976462053,0.6338444965459108,0.4025193683566042,-0.03182399149583467],[-1.850547487718048,0.3440748820027284,-0.48605237033487425,-3.049469359784064],[-1.0312004615417527,0.7056803178765848,-0.13232015806925623,-2.069565797266448],[0.34043542609868466,0.5892727085397862,-0.11898003896783887,-0.18011748356920812]],[[0.9573440982589946,0.2798857230574805,2.0045618801359346,4.300927701000715],[3.71000385213046,-3.4067927048258793,1.1272807107130658,3.581552688934418],[3.273633298368892,-4.691086151208433,-2.209773305293412,3.506842944919431],[-1.275748725024869,-1.6841875377681033,-2.268525880420924,-0.0031165525211515185]],[[1.9012426067946209,-1.7603970283840122,-3.734849549054254,-4.258624724695005],[1.2001035951482204,-3.510559809149038,-2.534877102763988,-4.249658175157705],[-1.761938413043478,-3.250234971198519,-2.4406016452141785,-1.1973539710146872],[-0.7165464940867025,0.11350208669934961,0.03700473150398431,0.6181972322477488]],[[-1.9486805353072694,-0.752650882588434,-0.08395828230686297,-2.5647608512921956],[-3.727010708788238,-1.2242006600781987,2.097392919514552,-2.7321318695729864],[-2.6123570793002964,-3.3542667534684814,-2.754300431575881,-3.1523546126598445],[0.13117199303047977,0.15373416474992244,-2.644352670684304,-0.4854341697375729]],[[0.5994036934488615,2.8529503868190407,0.22451253670655713,-1.9177486705853393],[-1.4697435348350634,-0.8575682120662823,-2.7668892269027894,-4.960807819383274],[-1.7615260763292047,-0.13269403337935315,-0.1480462253395945,0.6947455355452544],[0.017796066844639698,0.46460320070956884,-1.0307383635611778,-1.2847903002181142]],[[-1.8729639134476193,0.21318161144826028,0.23793668061794185,-0.08507091767890278],[-0.28712106626112727,0.3745541446873844,1.1392422765737824,0.9207992729651178],[0.9016806270821134,0.953663244610398,4.172833513751816,1.41153238719548],[2.0970837465077437,1.8311573422407526,3.365258173299298,0.4428892368133419]],[[-4.714816890972558,-3.467189746601025,-0.601196128328709,-1.6946207911065463],[-4.242510112947893,0.36510306341572557,-1.2287058983595538,-3.7277346538002245],[-3.1921738876771384,-0.6845399036267413,0.8842552249000746,-2.863195172127937],[-1.019026429911715,-0.6046974370229998,1.3890484083626882,0.4276404643974958]],[[-0.9811376660666958,1.0061707529691117,-0.39573621757112165,4.832876392565407],[2.6172125559307884,0.9107635271420828,4.001241847053504,5.117425254505097],[1.3263659263789733,-1.022221276303554,0.4247186581359078,4.739477911763864],[-0.2822744521252049,-2.2116528832531808,0.0861421063464532,-0.9822918352902833]],[[1.2027673913317283,3.88723668142038,-1.245043074346392,-3.8707528859291784],[3.8868055453687718,3.3983581484136725,-1.012831281729591,-6.525414973667167],[4.493034236856911,5.160495284704469,0.25256453894720154,-3.3296809099867954],[-0.26371426943192444,-2.039001971447925,-0.6576689013251563,-1.415889203441321]]],[[[-2.4011369587161693,-0.6804758105370456,-0.39846576467227046,0.4126284416226208],[-0.9077418809489258,-0.8576005024049222,-2.089064363563371,-1.5700219797237298],[1.8888595877163448,0.6095261786735382,-1.3508750346609297,-0.7294145780057387],[-0.15488937734632846,1.3497981359855304,1.8275647673582784,1.5550505053980206]],[[-1.4540939599158405,0.9889273988190107,0.430519492982909,-1.193823909997692],[-1.5590654616306447,-0.39117923384492403,-0.1873374181316998,-1.6814259415312915],[-0.3441393022376427,-1.7967179805673446,-0.898410258277488,-0.2958419036016346],[-3.759707062187613,-1.7756267307965439,0.6652021032694747,-0.052724503196416965]],[[-0.19526999373149265,-1.4279604825891248,-2.1637737970236874,0.11519909577552716],[1.66651213395561,0.15759286084502125,-2.5601538456573114,1.416189264814241],[1.8812479322111788,0.786288504148478,-0.23761898790353364,1.3213766183369864],[-0.2777020382706076,-1.3992196832577504,0.40659796102936413,2.9320458891113512]],[[-0.6836596237316853,1.6897960477713847,0.5178089001526746,-1.437093418485799],[0.7544579778385111,0.5309236509542506,0.5236765229946947,-0.36478016582127826],[-1.2613136941690597,-1.5527018325343158,-1.3154467744359104,-1.1909752870808186],[-2.861259943310774,-1.6797508609946883,-1.1853365157822089,-2.2608329497912636]],[[-1.8060936458092411,-0.8552218847659595,-0.6776522081195242,1.3228766686814035],[-2.6431014413266576,-3.9675178293128472,1.5521587818974265,0.5549730786760053],[-2.4893519372610893,-0.9768882488167345,0.9462549775841125,1.0579697569784094],[-1.9335382200436404,-1.6651665797885002,0.9613325932696205,-1.2690800543573593]],[[-0.1746282410581417,-0.8237407974105961,-1.403699414312073,-0.49517114677957813],[-1.9402169026062888,-0.7970641411967442,-2.127556158514626,-1.6962877949669561],[0.9373058885251405,2.5997740581124935,0.2107752951139591,-0.25679030790799434],[2.3538927181240723,4.769544016736639,0.7461254515011594,-1.7560020252289146]],[[-1.3845995126904953,-4.2331165013770775,-0.8100205049239743,0.6905613014552566],[-1.832981673943545,-2.441337087071707,-5.233878444273774,0.1761492896624105],[0.44024340122491656,-0.8772935659128296,-0.523116166158769,0.45217544489745604],[-1.120733914868001,-2.1674884058193,-0.6196794282359082,-2.0984159605796218]],[[1.5446029846073615,-0.6772999323427373,2.5142407184036677,2.4088875449474587],[1.1881225558032265,0.9567538714274326,-3.6222969151918867,0.39292071523716543],[3.309908684871722,2.1851786568120746,0.07703863343353279,1.0154340293914403],[0.22483052644119386,1.0480640014767975,-0.7661839954648425,-3.0347542344202263]],[[-2.2465102640206767,0.2656266406962168,0.40011761785421257,1.0257297864795984],[-1.0169985697162778,-0.34117211388745844,-4.138557905055079,-0.4101298380013481],[-3.5909863545342215,-4.563061001553397,-0.048724965390995786,-3.4938196466896736],[-2.56191404667477,-1.7715802076493865,3.0771361630890572,-1.9843870953730405]],[[-1.7747465370689819,-3.221525892607455,-3.5875222264895115,0.5896940443516349],[-2.0443683631493794,1.2304385219447314,6.1822777793103985,3.1529550850096264],[-2.903441141678546,-4.611552854279406,1.613318369649577,0.9849262546695002],[-2.071121644267576,-4.135429423810268,1.903515152219845,0.9582251417354738]]],[[[0.8028683351383766,1.9669132737707966,2.451519547538195,-0.18647370930667223],[-0.9529265383014052,1.4667325659863841,0.5543485565633189,-0.5062160078631273],[-0.6230001003468535,2.1618201458121726,-0.17021091538138422,-0.9705615707707901],[-1.388261150127901,1.3615173116413213,-1.290633141977418,-0.8893255624778835]],[[0.24819968207217444,-1.8083343673018146,-0.6485366550876291,-0.7787243002449779],[-0.14956069305100272,0.1793514572125493,0.3162257394197873,-1.9456222454476946],[-1.447705068494842,-2.7734315153918425,0.6812950700892765,0.30542564815139517],[-0.1935885065988113,-1.4924431858834157,0.2605858672644278,0.04845306318457917]],[[1.6206192421949104,0.28198238549078586,-0.5245978171768099,2.6830791075022926],[-1.9412638382534326,-0.028387017401498515,1.7935205242974832,0.6817202802271592],[-0.9213439691358029,-3.464827796574789,-1.3075147425744271,-0.5059678909314445],[-1.5508247920841316,-2.551251928188094,-0.5101240423173172,-0.03873138424310601]],[[-1.498299166504647,-4.663076594391612,-1.8114583297150058,-1.6626262207590943],[-4.536809176252331,-0.9942937903492247,0.22177703673500188,-0.06706422247989988],[-1.8813172976730412,0.04500076482539633,4.043071433872148,-1.2939604057712837],[-0.6849303692108171,-1.363469857650571,0.6303542797113418,0.10694406646233037]],[[-0.015068162310812197,-2.7725637623358286,0.5018722298413851,-2.5353210521514224],[-0.24016780854379594,-2.4968275524570087,0.8887514578072955,-4.657339152553639],[-0.3075919183384599,0.24142601542008693,1.239622331461391,-0.8838921092182567],[-0.2267691885367573,1.362462043802657,-0.4719962594450724,3.0576172896649396]],[[2.3140194835846897,2.3534152599008955,-3.4690907364117876,0.7094206652614227],[4.166259686306361,1.1472222697588783,-0.2810425095595176,-4.296030641232485],[4.275193630415706,1.4468981399821583,-0.9234299531879668,-3.6502975037287646],[2.1828464710250595,2.55938798105123,-0.8073660097792685,-2.226904328225274]],[[-0.9008438001810039,-2.2602609229588695,-0.7962076226734898,0.20224676711302092],[-3.215404861623831,-0.13001650062508738,1.5466333434496338,2.807066062489655],[-2.4328544410353303,-0.7254316100654307,0.36336447008857603,1.5013377179836467],[0.36859632832793465,0.4515867261232414,1.8931206206691973,1.480888469403097]],[[-1.4903460847716172,-1.3191940868478225,-2.502801999843734,-0.9796409588240022],[-3.016452503438232,-5.766441790017681,-4.713121332042342,-0.5219653169933567],[-2.394891281401305,-0.8776792601821218,-1.0174978475097682,1.400638869664639],[-0.3745802082567402,-0.9013664672605194,2.4266464156659735,0.8995573253564921]],[[2.5140294103948904,3.1514530388120656,-1.2098862958099237,0.7468698612386708],[4.001101540738945,2.659394310654845,-1.9577322933743782,4.635941658677747],[2.5892429692357397,1.07850936826065,-3.4543125947434263,3.3468741036822043],[0.7787437736411054,-2.258517059549885,1.4564268994306684,0.011347996483155251]],[[0.956812367268545,2.948308955832556,0.5669331448151599,-3.402940712584285],[3.2824436378464834,6.015815598625501,-0.30205183223825044,-6.179661681324634],[-0.2263605381332163,1.7486716074211286,-2.4590807505146537,-5.6899975685610364],[-0.7013876565145614,-0.8966311325763033,-3.4753918031040434,-2.1241085194342904]]],[[[0.7989905136258271,2.509400571263736,3.1406786113165,2.8317085217293334],[0.15362257671018875,0.0033186810044688523,0.4263697213389712,-3.071462700066898],[-2.7420923524041747,-2.0768968383038815,-3.9107114728986265,-6.741135194708088],[-0.7738245395975916,-0.48582185421960133,-0.6280520694019325,-3.255271764024626]],[[-0.18730666447216796,-0.2552572539955671,-0.42868391547712925,1.0401193311052364],[1.3401214431091637,-1.31062208971056,0.5570482636100581,2.764048587145718],[2.4141132726005683,0.6226176908219513,0.8014363933918539,-0.27095137286524745],[1.3058702309830914,1.261721898955423,0.3294792392410821,-1.9915390822148915]],[[1.0177269634490105,-4.2686407545185805,-1.3023121767514458,1.4029991790070608],[-2.297417610061963,-3.460214956457773,0.8475457994281563,-2.5113056756631824],[-9.52592176943376,-3.8122845574853774,-0.3882807171031757,-2.2261161211856044],[-3.8422780898329543,-1.8834961206686498,0.7326808607869402,-0.757707509267173]],[[-1.5930909574138148,-3.480325300202507,-3.6245697719589773,-2.4319421893135313],[-5.649916759943084,-3.4479728650729435,-3.1058681832162023,-6.41355590186338],[-3.5381829328467633,-1.6573758094006805,-1.1373014287574001,-7.779267310578015],[0.2379421208541935,1.8031849135120257,0.2332267629955796,-6.908478203921936]],[[-1.7813193736328201,-0.04152610252112927,2.538390829389886,-0.48584796239934985],[-2.1470145475342575,-2.1275314849391154,1.2642329651148527,3.6612869119382236],[-0.8488860017160214,-3.798332208322929,0.1789181200749842,2.2409053701677872],[2.627879047189486,1.7156562113485152,0.3119294209095773,2.267189675604531]],[[1.037454044694172,-1.9883352621959776,-1.3250199513680982,-0.8090858642212215],[3.4061421146164355,-1.9790062940384285,-2.541812331358816,-4.501220606053675],[1.4563494550122669,1.0196946076186217,-1.2076023104205964,-7.260612628713047],[0.018762546672912002,0.27140171167055055,-3.894710460256889,-5.817373515041218]],[[1.7015498782435319,2.1095363860661673,3.161219950889288,0.1553540682991841],[1.1686050803331336,0.9667788698138003,0.8902359377207754,-0.1599374831930448],[1.5068454345076887,1.595226628110572,-2.3621088560086707,-2.2928946600306443],[2.4478560163557006,-2.1337376880021943,-2.766244593813677,-0.9209602776512288]],[[-2.3767158349511948,0.23602868759986742,0.29217565351953173,-0.9949361521994942],[-0.6059720584947826,-0.21149666406339013,-1.3912481960788314,6.4452712561778736],[-2.367092193922122,-0.6560455979788173,-1.1452253747928907,4.551924976858937],[-4.724467972359106,0.9408718647145653,-1.6260084221892452,5.200241805785663]],[[1.7725652609020355,3.3123554444528223,1.9315073574060688,1.5200526828092047],[0.4141927053756754,-0.915247530092053,1.0711480876361237,-2.2357594011879334],[-1.920184124999522,0.9196063764100166,-1.2160332429713312,-4.608014149355814],[-1.096156137316255,0.6450685664461284,1.1682029120736201,-3.933149275233717]],[[1.077041386637071,0.3160605861383966,-1.2371192307491277,-2.6292291944857658],[-1.791814455808697,1.2922614945649757,-1.4453401513598045,0.6719791320054146],[-2.9315955552553556,1.530321616489625,-1.164840760801959,3.6760234491619053],[-3.9242434463687808,-0.8769330470633472,-0.9853185257091274,2.423822504222402]]],[[[-2.2155704681803146,-0.6916934646931353,1.7356740283956122,2.252504282836176],[-5.8022749727012,-3.02076160938519,1.1010336342880005,3.048181740830016],[-2.6196630736240256,-2.518784416048958,-1.3323432432232705,-0.09090220610321567],[-1.5420905779974263,-0.74218725381851,-3.616303400538926,-3.961449894255605]],[[-1.323422349168472,-2.0311786490361716,-0.8663162615055214,-2.2789465156863358],[1.7767107497148407,-3.7424475880930057,-5.407226009872808,-4.217607327005044],[-0.11413000804680294,-0.43043769852100094,1.613969360249085,1.5958517043497045],[-0.6778794203150209,-2.3822749767392324,2.152968190718215,0.6377066645729246]],[[-1.8248394052708823,-5.638925010271208,-5.172340804456403,-1.108520341804029],[-3.336819953851988,-4.026512708611639,-2.127953417391468,0.5903511998181495],[1.0426198388547803,-3.1542511607535966,0.2467815037591816,5.815482332501681],[0.44681181661089975,-2.832230377206632,-1.5139198803327998,3.430581589276457]],[[-1.958747229489503,-5.289889602890348,-0.6979706095010386,-0.1547241738536897],[-3.7950637860255103,-4.387103713491628,-1.1141583038571798,-0.9289946822740776],[1.520510970102394,2.6583993216087136,-0.5964419673383372,-2.3182843430610127],[1.3302931863719436,3.3389434732780923,-0.4209868600020867,-2.472673045560712]],[[-0.23254839247489908,1.4849633609466735,0.6788692285413381,-0.5113176295064348],[2.768091523111121,2.3503293627550153,3.3599824149965456,-0.9311999519935305],[-0.1048535643020666,1.0493805279547703,1.8811352615394443,-1.1459640346069475],[0.5315376140277387,5.778430813097849,1.417979695596781,0.7870011942779556]],[[1.0952130921527798,0.7959392474688005,-4.204211178185884,-0.6898423366216526],[0.9495864157730945,-0.0400164030995823,-2.271164640970577,0.04392348644702682],[1.8930338119019947,-2.6484394704804197,-0.8360460092416925,-2.974381604144816],[-1.8179363027794064,-0.9584045147501508,-2.418293966671039,-2.756280739115525]],[[1.6620445211433699,0.6335473835134151,1.6991726821761162,0.6125766795272384],[4.323299131452876,0.16818100257764848,1.2262657083261546,0.20323367263200706],[3.1615065361966366,2.9231753107015375,-1.149176462036073,-1.0805312099043376],[-0.38581930456332136,-3.3685219857682287,-1.7200582189808684,-0.548777778879041]],[[0.4703777922819406,-4.360781296651406,-2.573414791943836,-2.8511498165404454],[-0.3480248110256328,-6.9614524817045735,-1.6355287685125175,-3.871239633681225],[-0.5436263125107826,0.517306838724377,0.21208493887150628,-3.041390056879616],[-1.315557982705297,-0.044788433705979215,0.6797766599118643,-2.4632797194955747]],[[2.8230663831991922,3.396266472784917,1.153233877474569,1.5118168384396424],[2.377016325769232,0.4220183734868769,-0.8942335077390614,0.06459937194553829],[1.9734080030124361,0.18497218657458447,1.0857036372912705,-0.8386067041619715],[-0.5046490948968173,1.5044286893535055,0.9906366475583834,-2.3168750514306127]],[[-0.8530342278628004,3.386130522743451,5.984438687111768,-1.3146000739212926],[0.4962222296353841,-1.1006965906491777,0.6853785018894369,-2.7750060934527867],[-2.2462467479857273,-3.0997452326943193,-3.6434313260578355,0.7063430136339742],[-1.2449703506250125,-5.132066637777938,-0.6678485680680516,2.545381723289515]]],[[[0.9383413497034623,-0.5420600244346467,-1.8213098068436846,-2.532241405632295],[-1.1753890032459935,-1.3006427385679364,-2.3743362877712952,-4.814808324564728],[-2.1196229997326417,-1.3560298641611495,-1.3586632278914383,-3.2271316549134346],[-0.27870808827057797,0.8344768240005704,2.8547438778945513,-2.3930806936026316]],[[0.3946018199944447,-0.7682030159394511,1.4777638921510075,-0.9017674517315045],[-1.5766507160203291,-0.9427686805472049,-1.7160846405192318,-2.669251906189777],[-2.526793983566732,-2.7543378312761577,-4.600845099308941,-0.9399974256646996],[-0.7559607048394429,-0.1727457126873143,-0.8523327475499447,0.04805447002904634]],[[0.4891888080378775,2.143339194585422,0.5117718325488636,-3.020274249651376],[1.7823563197178574,-0.8811608019899697,-1.49163759770085,-5.813762242945886],[-0.2319087834107604,1.3677522426994102,0.8110436541166343,-5.869328766583161],[-0.8348797710573521,1.6378227835808647,-4.9283374989949635,-5.6151924231228865]],[[4.49722334562251,-0.07084781904722377,0.08273623602964779,0.2006585302854462],[3.306192473288021,-0.14717681353455025,2.1238372431254677,4.311894815545505],[2.6585991497406316,-0.3642457134236382,3.0588914703043053,6.529126884955849],[4.929543201995549,0.11596536246658891,2.6173057054126447,2.8910817211135145]],[[0.4726592979790983,-2.281340810046815,2.128575349989412,1.4777944459668533],[-0.4983049451102945,-5.248039967800492,2.332967796814332,0.46043357842238786],[-4.018704406111759,-2.1620368325394557,-0.04450452989728455,-0.8292458777065586],[-3.4263398524287725,-0.418413307307821,-0.5921740119442072,0.5832645248579772]],[[-3.359754428966785,-1.3311158295432635,0.6317395377964999,0.9787680736375542],[-6.856548324938064,-3.5325640330551793,-0.4923505297960023,3.4536265310828855],[-5.805650756554117,-1.8718974477606745,1.9790892741244588,2.8535823430763605],[-7.732469239585363,-4.46752639648445,0.12229228234245228,3.7751309881627857]],[[-0.15285910650001847,-2.5699168619259414,-2.871650049812894,-1.375610485347712],[-3.61799372709427,-5.716312950419231,-1.9895079502486404,-2.927114064863038],[-3.8396776504230266,0.6296198802945737,-1.6052366419586526,-1.7376445996490426],[-4.492220976291672,-1.3666753729751622,-0.36504685569381423,0.060814675214182275]],[[1.5322006853130488,-0.34990032509095886,-1.9462763705309174,1.1995646263737791],[1.1107940690240652,0.4764672556049281,0.16369053354091792,-1.2346167981147114],[0.6962651084975023,-0.10611852442649432,-2.6363831208210655,-2.2012477797608],[0.5412609698538724,-0.38111471961395926,-1.928888498535558,-2.9209243158597067]],[[0.058165968738789896,4.970965321720984,3.9026402826324325,-2.704633141754341],[1.7224748425628689,2.258626191578202,2.2057789589422954,-3.2252807087502227],[0.6130739054749041,0.9701105605025899,-4.1447165423452015,-0.6976949463816572],[3.286171575978584,3.3908044448756947,-1.3963181382139211,2.388563349317218]],[[-1.0746809051075619,-2.684838578626928,-3.394815694718169,1.5156679288367143],[-1.0971101730287003,2.4653943652747246,-2.8086098651286786,1.86071079531334],[2.1018035133333646,1.9366163299627814,-0.6361367102259186,-0.31741454262584384],[1.9220039953808907,2.863290462957056,-4.096281106151457,-1.9139765053957238]]]],"maps":[[[0.9995927854076321]],[[2.8762593398266E-11]],[[1.4125736665605374E-8]],[[2.6095082946704007E-12]],[[2.6296398540654175E-14]],[[7.646765121150859E-11]],[[3.184668989937339E-6]],[[1.5044211052073746E-8]],[[1.0617614594572162E-10]],[[1.8396029164727235E-5]]],"bias":[-4.544886190176832,1.3537551247066972,-6.953707204725555,-1.7372321059073494,-3.275498413119161,-2.486816587731977,-8.97059015479543,-3.695001932359784,-5.7588248819267704,-12.059965918011708],"errors":[[[1.6575619839710228E-7]],[[-8.272867789701801E-22]],[[-1.9953643352742887E-16]],[[-6.809533539935853E-24]],[[-6.915005762089008E-28]],[[-5.847301681357801E-21]],[[-1.0142084276184361E-11]],[[-2.2632828277440737E-16]],[[-1.1273373966690215E-20]],[[-3.384076635577226E-10]]]}